svm_type c_svc
kernel_type rbf
gamma 0.0078125
nr_class 26
total_sv 3219
rho -0.860813 0.220628 -1.04065 0.00428558 -1.08592 0.183422 -0.0662883 -0.782688 -1.12341 0.156077 -0.272243 -0.940954 -0.310419 -0.406927 -0.225197 -0.69397 -1.14494 -0.316486 -0.201002 -0.624002 -1.0742 -0.590896 -0.609902 -1.00676 -0.140289 1.45842 0.951256 0.709931 0.269442 1.15239 0.897213 0.40317 0.242424 1.37563 0.924177 0.32907 0.871422 0.80068 0.899131 0.522209 0.604615 0.749949 0.83778 0.478272 -0.147383 0.339929 0.00289325 -0.861933 0.800408 -0.663232 -0.142792 -0.898364 0.235817 0.101167 -0.870564 -1.42664 0.109146 -0.269657 -0.822236 -0.21938 -0.483445 -0.175014 -0.759036 -1.40918 -0.553276 -0.14559 -0.540036 -1.01994 -0.659347 -0.900936 -1.17698 -0.100025 0.175386 -0.649353 0.674345 0.19538 -0.956926 -0.531634 0.736461 0.360083 -0.42779 -0.0300276 0.0123206 0.258156 -0.345882 -0.357473 -0.128034 -0.0492259 -0.598808 -0.773591 -0.494738 -0.753005 -1.02695 -0.040686 -1.17718 0.266149 -0.0109516 -0.42102 -0.639561 0.0660718 -0.353306 -1.03445 -0.340808 -0.745879 -0.334899 -0.461356 -0.397376 -0.561216 -0.145856 -0.556492 -1.24979 -0.548759 -0.837025 -1.0272 -0.0537814 2.08399 1.29723 1.01191 0.470328 1.39616 1.39183 1.03291 1.27858 1.63737 1.5774 0.764792 0.451438 0.731257 1.14317 0.72153 -0.852822 -0.0773943 0.171697 -0.646397 1.26275 -0.366434 -0.988081 -1.04203 -0.329857 -0.895705 -1.83739 -0.801986 -1.49645 -1.14539 -0.682125 -0.687646 -1.10552 -0.762214 -0.771078 -1.30378 -0.955604 -1.24847 -1.02376 -0.466124 -0.365043 -0.789353 0.00214884 -0.150222 -1.1068 -0.321666 -0.718086 -0.00596089 -0.341828 -0.44268 -0.54507 -0.0590495 -0.87333 -1.11922 -0.481666 -0.80426 -1.13673 -0.425898 0.0986279 2.43927 0.551372 -0.745552 0.0120626 0.187218 0.60634 0.243648 0.124893 0.172554 0.964942 -0.264084 -0.762896 -0.451216 -0.490014 -0.899474 0.355407 2.02912 0.875381 -0.168212 0.578282 0.48425 0.604878 0.36988 0.314586 0.565822 0.775337 0.374626 -0.667366 0.0200081 0.0232302 -0.698123 0.785111 -0.165704 -1.29688 -0.715966 -1.01049 -0.334049 -0.921815 -1.19196 -0.72224 -0.308403 -0.689493 -1.00764 -0.626334 -0.980473 -1.11213 -0.207407 -1.13552 -0.189044 -0.653233 0.214616 -0.404265 -0.437305 -0.480923 -0.0447622 -0.614608 -1.22547 -0.637241 -0.80522 -1.034 0.0421857 1.17122 1.45293 1.35627 0.595902 0.278958 0.580788 1.05378 0.463187 -0.877054 0.00481264 0.0127173 -0.640033 1.08392 -0.310188 0.30951 -0.263739 -0.424583 -0.349145 0.702691 -0.384918 -0.936243 -0.491913 -0.708478 -1.03699 0.122991 0.981344 0.0175442 -0.317847 0.0437573 0.708673 -0.139624 -1.13316 -0.379513 -0.510875 -0.833574 0.511672 -0.436671 -0.344524 -0.777798 0.0948677 -0.532122 -1.22558 -0.714817 -1.07785 -1.00179 -0.017847 0.0729858 0.158677 0.456566 -0.195094 -0.786204 -0.0910269 -0.249005 -0.960159 0.38811 0.288212 0.272631 -0.0419725 -0.791038 -0.109456 -0.194564 -0.958301 0.524418 0.336286 -0.0825971 -0.825259 -0.441178 -0.635021 -0.893421 0.503727 -0.328425 -0.761285 -0.493317 -0.714612 -1.00329 -0.235242 -0.865274 -0.139734 -0.333358 -0.963628 0.926129 0.706768 0.559525 -0.0745729 1.00835 0.0358775 -0.561418 0.397244 -0.613642 0.855242 1.06182
label 14 12 0 13 3 8 6 1 17 2 4 18 11 5 19 24 21 20 25 15 7 9 16 23 22 10
nr_sv 224 109 247 282 73 243 172 73 181 149 281 97 187 55 119 87 66 172 67 106 56 13 15 51 12 82
SV
0 0 0.2562301757627645 0 0 0 0 0 0.8841526880932569 0 0 0 0 0 0 0 0 0 0 0 0 0 0 0 0 1:0 2:0 3:0 4:0 5:0 6:0 7:0 8:0 9:0 10:0 11:0 12:0 13:0 14:0 15:0 16:0 17:0 18:0 19:0 20:0 21:0 22:0 23:0 24:0 25:0 26:0 27:0 28:0 29:0 30:0 31:0 32:0 33:0 34:0 35:1 36:1 37:1 38:1 39:0 40:0 41:0 42:1 43:1 44:1 45:0 46:1 47:1 48:1 49:1 50:1 51:0 52:0 53:0 54:0 55:0 56:1 57:1 58:0 59:0 60:0 61:0 62:0 63:0 64:1 65:1 66:0 67:0 68:0 69:0 70:0 71:0 72:1 73:1 74:0 75:0 76:0 77:0 78:0 79:0 80:1 81:1 82:0 83:0 84:0 85:0 86:0 87:1 88:1 89:1 90:1 91:1 92:1 93:1 94:1 95:0 96:0 97:0 98:0 99:0 100:0 101:0 102:0 103:0 104:0 105:0 106:0 107:0 108:0 109:0 110:0 111:0 112:0 113:0 114:0 115:0 116:0 117:0 118:0 119:0 120:0 121:0 122:0 123:0 124:0 125:0 126:0 127:0 128:0 
0 1 1 0 0 0 0 0 1 0 0 0 0 0 0 0 0 0 0 0 0 0 0 0 0 1:0 2:0 3:0 4:0 5:0 6:0 7:0 8:0 9:0 10:0 11:0 12:0 13:0 14:0 15:0 16:0 17:0 18:0 19:0 20:0 21:0 22:0 23:0 24:0 25:0 26:0 27:0 28:0 29:0 30:0 31:0 32:0 33:0 34:1 35:1 36:1 37:0 38:0 39:0 40:0 41:1 42:1 43:0 44:1 45:1 46:1 47:0 48:0 49:1 50:0 51:0 52:0 53:0 54:1 55:1 56:0 57:1 58:0 59:0 60:0 61:0 62:0 63:1 64:1 65:1 66:0 67:0 68:0 69:0 70:0 71:0 72:1 73:1 74:0 75:0 76:0 77:0 78:0 79:0 80:1 81:1 82:1 83:0 84:0 85:0 86:0 87:0 88:1 89:0 90:1 91:1 92:1 93:1 94:1 95:1 96:1 97:0 98:0 99:0 100:0 101:0 102:0 103:0 104:0 105:0 106:0 107:0 108:0 109:0 110:0 111:0 112:0 113:0 114:0 115:0 116:0 117:0 118:0 119:0 120:0 121:0 122:0 123:0 124:0 125:0 126:0 127:0 128:0 
0 0 0 0 0 0 0 0 0 0 0 0 0 0 0 0 0 0 0.4710469260130354 0 0 0 0 0 0 1:0 2:0 3:0 4:0 5:0 6:0 7:0 8:0 9:0 10:0 11:0 12:0 13:0 14:0 15:0 16:0 17:0 18:0 19:0 20:0 21:0 22:0 23:0 24:0 25:1 26:1 27:1 28:1 29:1 30:1 31:1 32:0 33:1 34:1 35:1 36:0 37:0 38:0 39:1 40:1 41:1 42:1 43:0 44:0 45:0 46:0 47:0 48:1 49:1 50:0 51:0 52:0 53:0 54:0 55:0 56:1 57:1 58:0 59:0 60:0 61:0 62:0 63:0 64:1 65:1 66:0 67:0 68:0 69:0 70:0 71:0 72:1 73:1 74:0 75:0 76:0 77:0 78:0 79:0 80:1 81:1 82:0 83:0 84:0 85:0 86:0 87:0 88:1 89:1 90:1 91:1 92:0 93:1 94:1 95:1 96:1 97:0 98:0 99:1 100:1 101:1 102:0 103:0 104:0 105:0 106:0 107:0 108:0 109:0 110:0 111:0 112:0 113:0 114:0 115:0 116:0 117:0 118:0 119:0 120:0 121:0 122:0 123:0 124:0 125:0 126:0 127:0 128:0 
1 1 1 0 0 0 0 1 1 1 0 0.6596754628917322 0.2816656061720885 0 0 1 1 0 1 0 0 0 0 0.1877022332245107 0.507330435459487 1:0 2:0 3:0 4:0 5:0 6:0 7:0 8:0 9:0 10:0 11:0 12:0 13:0 14:0 15:0 16:0 17:0 18:0 19:0 20:0 21:0 22:0 23:0 24:0 25:0 26:0 27:0 28:0 29:0 30:0 31:0 32:0 33:0 34:0 35:0 36:1 37:1 38:1 39:1 40:1 41:0 42:1 43:1 44:0 45:0 46:0 47:1 48:1 49:1 50:1 51:0 52:0 53:0 54:0 55:0 56:1 57:1 58:0 59:0 60:0 61:0 62:0 63:1 64:1 65:1 66:0 67:0 68:0 69:0 70:0 71:1 72:0 73:1 74:0 75:0 76:0 77:1 78:1 79:0 80:0 81:1 82:0 83:0 84:1 85:1 86:0 87:0 88:0 89:1 90:1 91:1 92:1 93:0 94:0 95:0 96:0 97:0 98:0 99:0 100:0 101:0 102:0 103:0 104:0 105:0 106:0 107:0 108:0 109:0 110:0 111:0 112:0 113:0 114:0 115:0 116:0 117:0 118:0 119:0 120:0 121:0 122:0 123:0 124:0 125:0 126:0 127:0 128:0 
0 0 0 0 0 0 0 0 0 0 0.873882678213261 0 0 0 0 0 1 0 0 0 0 0 0 0.1375526394909858 0 1:0 2:0 3:0 4:0 5:0 6:0 7:0 8:0 9:0 10:0 11:0 12:0 13:0 14:0 15:0 16:0 17:0 18:0 19:1 20:1 21:1 22:1 23:0 24:0 25:1 26:1 27:1 28:0 29:0 30:1 31:1 32:0 33:1 34:0 35:0 36:0 37:0 38:0 39:1 40:1 41:1 42:0 43:0 44:0 45:0 46:0 47:0 48:1 49:1 50:0 51:0 52:0 53:0 54:0 55:0 56:1 57:1 58:0 59:0 60:0 61:0 62:0 63:0 64:1 65:1 66:0 67:0 68:0 69:0 70:0 71:0 72:1 73:1 74:0 75:0 76:0 77:0 78:0 79:0 80:1 81:1 82:0 83:0 84:0 85:0 86:0 87:0 88:1 89:0 90:1 91:0 92:0 93:0 94:0 95:1 96:1 97:0 98:1 99:1 100:0 101:0 102:1 103:1 104:0 105:0 106:0 107:1 108:1 109:1 110:1 111:0 112:0 113:0 114:0 115:0 116:0 117:0 118:0 119:0 120:0 121:0 122:0 123:0 124:0 125:0 126:0 127:0 128:0 
0 1 1 1 0.9198534957064697 1 0.9335761750465917 1 0 1 1 0.4225834932041106 1 1 1 0.9358359840194275 0 1 1 0.3990098270215678 0 0 0.7866822492550656 0 1 1:0 2:0 3:0 4:0 5:0 6:0 7:0 8:0 9:0 10:0 11:0 12:0 13:0 14:0 15:0 16:0 17:0 18:0 19:0 20:1 21:1 22:1 23:1 24:1 25:0 26:0 27:1 28:1 29:1 30:0 31:0 32:1 33:0 34:1 35:1 36:1 37:0 38:0 39:0 40:1 41:0 42:0 43:1 44:1 45:0 46:0 47:0 48:1 49:0 50:0 51:1 52:0 53:0 54:0 55:0 56:1 57:0 58:0 59:1 60:0 61:0 62:0 63:1 64:1 65:0 66:1 67:1 68:0 69:0 70:0 71:1 72:0 73:0 74:1 75:0 76:0 77:0 78:1 79:0 80:0 81:0 82:1 83:0 84:0 85:1 86:1 87:0 88:0 89:1 90:1 91:0 92:1 93:1 94:0 95:0 96:0 97:1 98:0 99:1 100:1 101:0 102:0 103:0 104:0 105:1 106:1 107:1 108:0 109:0 110:0 111:0 112:0 113:0 114:0 115:0 116:0 117:0 118:0 119:0 120:0 121:0 122:0 123:0 124:0 125:0 126:0 127:0 128:0 
0 0 0 0 0 0 0 0 0 0 0.9298811497560011 0 0 0 0 0 0 0 0 0 0 0 0 0 0 1:0 2:0 3:0 4:0 5:0 6:0 7:0 8:0 9:0 10:0 11:0 12:0 13:0 14:0 15:0 16:0 17:0 18:0 19:0 20:0 21:1 22:1 23:1 24:0 25:0 26:0 27:1 28:1 29:1 30:1 31:1 32:1 33:0 34:0 35:1 36:0 37:0 38:0 39:0 40:1 41:0 42:1 43:1 44:0 45:0 46:0 47:0 48:1 49:0 50:1 51:0 52:0 53:0 54:0 55:0 56:1 57:1 58:1 59:0 60:0 61:0 62:0 63:0 64:1 65:1 66:0 67:0 68:0 69:0 70:0 71:0 72:1 73:1 74:0 75:0 76:0 77:0 78:0 79:0 80:1 81:1 82:0 83:0 84:0 85:0 86:0 87:1 88:1 89:1 90:0 91:0 92:0 93:0 94:1 95:1 96:0 97:1 98:0 99:0 100:1 101:1 102:1 103:0 104:0 105:1 106:1 107:1 108:1 109:0 110:0 111:0 112:0 113:0 114:0 115:0 116:0 117:0 118:0 119:0 120:0 121:0 122:0 123:0 124:0 125:0 126:0 127:0 128:0 
0 1 1 0.5515040392888264 0.3581084080865068 0.6916830943053601 0 1 1 1 0.9501452337528032 0.3341879263806544 0.9101918800755897 1 0.9337727476321982 0.6646825021704761 0 1 1 0.08508910909391758 0 0.248825107643646 1 0 0.82583446773673 1:0 2:0 3:0 4:0 5:0 6:0 7:0 8:0 9:0 10:0 11:0 12:0 13:0 14:0 15:0 16:0 17:0 18:0 19:1 20:1 21:1 22:0 23:1 24:0 25:0 26:1 27:1 28:0 29:1 30:0 31:1 32:0 33:0 34:1 35:0 36:0 37:1 38:1 39:1 40:0 41:1 42:1 43:0 44:0 45:0 46:1 47:1 48:1 49:1 50:0 51:0 52:0 53:0 54:0 55:1 56:0 57:1 58:0 59:0 60:0 61:0 62:0 63:1 64:0 65:1 66:0 67:0 68:0 69:0 70:0 71:1 72:0 73:1 74:0 75:0 76:0 77:0 78:1 79:1 80:0 81:1 82:0 83:0 84:0 85:1 86:0 87:0 88:0 89:1 90:0 91:0 92:1 93:0 94:0 95:0 96:0 97:1 98:1 99:1 100:1 101:0 102:0 103:0 104:0 105:0 106:1 107:0 108:0 109:0 110:0 111:0 112:0 113:0 114:0 115:0 116:0 117:0 118:0 119:0 120:0 121:0 122:0 123:0 124:0 125:0 126:0 127:0 128:0 
0 0 0 0 0 0 0 0 0 0 0 0 0 0 0 0.3141959488430877 1 0 0 0 0 0 0 0 0 1:0 2:0 3:0 4:0 5:0 6:0 7:0 8:0 9:0 10:0 11:0 12:0 13:0 14:0 15:0 16:0 17:0 18:0 19:0 20:0 21:0 22:0 23:0 24:0 25:0 26:0 27:0 28:0 29:1 30:0 31:0 32:0 33:1 34:1 35:1 36:0 37:1 38:1 39:0 40:0 41:1 42:0 43:0 44:0 45:0 46:1 47:1 48:0 49:1 50:0 51:0 52:0 53:0 54:0 55:1 56:1 57:1 58:0 59:0 60:0 61:0 62:0 63:0 64:1 65:1 66:0 67:0 68:0 69:0 70:0 71:0 72:1 73:1 74:0 75:0 76:0 77:0 78:0 79:0 80:1 81:1 82:1 83:0 84:0 85:0 86:0 87:0 88:1 89:0 90:1 91:1 92:1 93:0 94:0 95:0 96:1 97:0 98:0 99:0 100:1 101:1 102:1 103:1 104:1 105:0 106:0 107:0 108:0 109:0 110:0 111:0 112:0 113:0 114:0 115:0 116:0 117:0 118:0 119:0 120:0 121:0 122:0 123:0 124:0 125:0 126:0 127:0 128:0 
0 0 0 0 0 0 0 0 0 0 0 0 0 0 0 0 0 0 0 0 0 0.09711110009665791 0 0 0 1:0 2:0 3:0 4:0 5:0 6:0 7:0 8:0 9:0 10:0 11:0 12:0 13:0 14:0 15:0 16:0 17:1 18:1 19:1 20:1 21:1 22:1 23:0 24:0 25:1 26:1 27:1 28:1 29:1 30:1 31:1 32:0 33:1 34:1 35:0 36:0 37:1 38:0 39:1 40:0 41:1 42:0 43:0 44:0 45:0 46:0 47:1 48:1 49:1 50:0 51:0 52:0 53:0 54:0 55:0 56:1 57:1 58:0 59:0 60:0 61:0 62:0 63:0 64:1 65:1 66:0 67:0 68:0 69:0 70:0 71:0 72:1 73:1 74:0 75:0 76:0 77:0 78:0 79:0 80:1 81:1 82:0 83:0 84:0 85:0 86:0 87:0 88:1 89:1 90:1 91:0 92:0 93:0 94:0 95:1 96:1 97:0 98:1 99:1 100:0 101:1 102:1 103:1 104:0 105:0 106:0 107:1 108:1 109:1 110:0 111:0 112:0 113:0 114:0 115:0 116:0 117:0 118:0 119:0 120:0 121:0 122:0 123:0 124:0 125:0 126:0 127:0 128:0 
0 0 0 0 0 0 0 0 0 0 0 0 0 0 0 0 0.3453411736843075 0 1 0 0 0 0 0 0 1:0 2:1 3:1 4:1 5:1 6:1 7:0 8:0 9:0 10:1 11:0 12:1 13:0 14:1 15:1 16:0 17:0 18:0 19:1 20:1 21:0 22:0 23:1 24:1 25:0 26:1 27:1 28:0 29:0 30:0 31:0 32:1 33:0 34:1 35:0 36:0 37:0 38:0 39:0 40:1 41:1 42:1 43:0 44:0 45:0 46:0 47:0 48:1 49:1 50:0 51:0 52:0 53:0 54:0 55:0 56:1 57:1 58:0 59:0 60:0 61:0 62:0 63:0 64:1 65:1 66:0 67:0 68:0 69:0 70:0 71:0 72:1 73:1 74:0 75:0 76:0 77:0 78:0 79:0 80:1 81:1 82:0 83:0 84:0 85:0 86:0 87:0 88:1 89:1 90:0 91:0 92:0 93:0 94:0 95:1 96:1 97:1 98:0 99:0 100:0 101:0 102:0 103:1 104:0 105:1 106:0 107:0 108:0 109:0 110:1 111:1 112:0 113:1 114:0 115:0 116:0 117:1 118:1 119:0 120:0 121:1 122:1 123:1 124:1 125:1 126:0 127:0 128:0 
0 0 0 0 0 1 0 0 0 0 0 0 0 0 0.9981402539547034 0 0 0.5281232444829117 0 0 0 0 0 0 0 1:0 2:0 3:0 4:0 5:0 6:0 7:0 8:0 9:0 10:0 11:0 12:0 13:0 14:0 15:0 16:0 17:0 18:0 19:0 20:1 21:1 22:1 23:0 24:0 25:0 26:1 27:1 28:1 29:1 30:1 31:1 32:0 33:1 34:1 35:0 36:0 37:1 38:1 39:1 40:0 41:1 42:0 43:0 44:0 45:0 46:1 47:1 48:0 49:1 50:0 51:0 52:0 53:0 54:1 55:1 56:1 57:1 58:0 59:0 60:0 61:0 62:0 63:0 64:1 65:1 66:0 67:0 68:0 69:0 70:0 71:0 72:1 73:1 74:0 75:0 76:0 77:0 78:0 79:0 80:1 81:1 82:0 83:0 84:0 85:0 86:0 87:0 88:1 89:0 90:1 91:0 92:0 93:0 94:0 95:1 96:1 97:0 98:1 99:1 100:1 101:1 102:1 103:1 104:0 105:0 106:0 107:0 108:0 109:1 110:1 111:0 112:0 113:0 114:0 115:0 116:0 117:0 118:0 119:0 120:0 121:0 122:0 123:0 124:0 125:0 126:0 127:0 128:0 
0 0 0 0 0 0 0 1 1 1 0 0 0 0 0 0 0 0 0 0 0 0 0 0 0 1:0 2:0 3:0 4:0 5:0 6:0 7:0 8:0 9:0 10:0 11:0 12:0 13:0 14:0 15:0 16:0 17:0 18:0 19:0 20:0 21:0 22:0 23:0 24:0 25:0 26:0 27:0 28:1 29:1 30:1 31:1 32:0 33:0 34:1 35:1 36:1 37:0 38:0 39:1 40:1 41:1 42:1 43:0 44:0 45:0 46:0 47:0 48:1 49:1 50:0 51:0 52:0 53:0 54:0 55:0 56:1 57:1 58:0 59:0 60:0 61:0 62:0 63:0 64:1 65:1 66:0 67:0 68:0 69:0 70:0 71:0 72:1 73:1 74:0 75:0 76:0 77:0 78:0 79:1 80:0 81:1 82:0 83:0 84:0 85:0 86:1 87:1 88:0 89:1 90:0 91:0 92:1 93:1 94:1 95:0 96:0 97:1 98:1 99:1 100:0 101:0 102:0 103:0 104:0 105:0 106:0 107:0 108:0 109:0 110:0 111:0 112:0 113:0 114:0 115:0 116:0 117:0 118:0 119:0 120:0 121:0 122:0 123:0 124:0 125:0 126:0 127:0 128:0 
0 0 0 0 0 0 0 0 0 0.1778009593807214 0.3665895095003561 0 0 0 0 0 0 0 0 0 0 0 0 0 0 1:0 2:0 3:0 4:0 5:0 6:0 7:0 8:0 9:0 10:0 11:0 12:0 13:0 14:0 15:0 16:0 17:0 18:0 19:0 20:0 21:1 22:1 23:0 24:0 25:0 26:1 27:1 28:1 29:1 30:1 31:1 32:1 33:1 34:1 35:0 36:0 37:0 38:0 39:0 40:1 41:1 42:1 43:1 44:0 45:0 46:0 47:0 48:1 49:1 50:0 51:1 52:0 53:0 54:0 55:0 56:1 57:1 58:0 59:0 60:0 61:0 62:0 63:0 64:1 65:1 66:0 67:0 68:0 69:0 70:0 71:0 72:1 73:1 74:0 75:0 76:0 77:0 78:0 79:0 80:1 81:1 82:0 83:0 84:0 85:0 86:0 87:1 88:1 89:1 90:0 91:0 92:0 93:0 94:1 95:1 96:0 97:1 98:1 99:0 100:0 101:1 102:1 103:0 104:0 105:0 106:1 107:1 108:1 109:1 110:0 111:0 112:0 113:0 114:0 115:0 116:0 117:0 118:0 119:0 120:0 121:0 122:0 123:0 124:0 125:0 126:0 127:0 128:0 
0 1 1 1 0.321003111166975 1 0.4046755370701655 0.4622808300311136 0 1 1 0.4196858255565444 1 1 1 0 0.56113526424541 1 1 0 0 0.4674499734699954 1 0 1 1:0 2:0 3:0 4:0 5:0 6:0 7:0 8:0 9:0 10:0 11:1 12:1 13:1 14:1 15:0 16:0 17:0 18:0 19:0 20:0 21:0 22:1 23:1 24:0 25:0 26:0 27:0 28:0 29:0 30:0 31:1 32:1 33:0 34:0 35:0 36:0 37:0 38:0 39:0 40:1 41:0 42:0 43:0 44:0 45:1 46:1 47:0 48:1 49:0 50:0 51:0 52:1 53:1 54:0 55:0 56:1 57:0 58:0 59:1 60:1 61:0 62:0 63:0 64:1 65:0 66:0 67:1 68:0 69:0 70:0 71:0 72:1 73:0 74:1 75:1 76:0 77:0 78:0 79:1 80:1 81:0 82:1 83:0 84:0 85:0 86:1 87:1 88:0 89:1 90:1 91:0 92:0 93:0 94:1 95:0 96:0 97:1 98:0 99:0 100:0 101:1 102:1 103:0 104:0 105:1 106:0 107:1 108:1 109:1 110:0 111:0 112:0 113:1 114:1 115:1 116:0 117:0 118:0 119:0 120:0 121:0 122:0 123:0 124:0 125:0 126:0 127:0 128:0 
0 0.7957118796054699 1 0 0.007505985737653454 1 0 0.2100233217689071 0.1775189703958353 0 0 0 0 0 0 0 0 0 1 0 0.07710555096747838 0 0 0 0 1:0 2:0 3:1 4:1 5:1 6:1 7:0 8:0 9:0 10:0 11:1 12:0 13:0 14:0 15:1 16:0 17:0 18:0 19:1 20:0 21:0 22:0 23:1 24:1 25:0 26:0 27:1 28:0 29:0 30:0 31:0 32:1 33:0 34:1 35:1 36:0 37:0 38:0 39:0 40:1 41:0 42:1 43:0 44:0 45:0 46:0 47:0 48:1 49:0 50:1 51:0 52:0 53:0 54:0 55:0 56:1 57:1 58:1 59:0 60:0 61:0 62:0 63:0 64:1 65:1 66:0 67:0 68:0 69:0 70:0 71:0 72:1 73:1 74:0 75:0 76:0 77:0 78:0 79:0 80:1 81:1 82:0 83:0 84:0 85:0 86:0 87:0 88:1 89:1 90:0 91:0 92:0 93:0 94:0 95:0 96:1 97:1 98:0 99:0 100:0 101:0 102:0 103:0 104:1 105:1 106:0 107:0 108:0 109:0 110:0 111:0 112:1 113:1 114:1 115:0 116:0 117:0 118:0 119:1 120:1 121:0 122:1 123:1 124:1 125:1 126:1 127:1 128:0 
0 0 0 0 0 0 0 0 1 0 0 0 0 0 0 0.9767728796714618 1 0 0 0 0 0 0 0.06618973905147411 0 1:0 2:0 3:0 4:0 5:0 6:0 7:0 8:0 9:0 10:0 11:0 12:0 13:0 14:0 15:0 16:0 17:0 18:0 19:0 20:0 21:0 22:0 23:0 24:0 25:0 26:0 27:0 28:0 29:0 30:0 31:0 32:0 33:0 34:1 35:1 36:1 37:0 38:0 39:0 40:1 41:1 42:1 43:0 44:0 45:0 46:0 47:0 48:1 49:1 50:0 51:0 52:0 53:0 54:0 55:0 56:1 57:1 58:0 59:0 60:0 61:0 62:0 63:0 64:1 65:1 66:0 67:0 68:0 69:0 70:0 71:0 72:1 73:1 74:0 75:0 76:0 77:0 78:0 79:1 80:1 81:1 82:1 83:0 84:0 85:0 86:1 87:1 88:0 89:0 90:1 91:1 92:1 93:1 94:1 95:0 96:0 97:0 98:0 99:0 100:0 101:0 102:0 103:0 104:0 105:0 106:0 107:0 108:0 109:0 110:0 111:0 112:0 113:0 114:0 115:0 116:0 117:0 118:0 119:0 120:0 121:0 122:0 123:0 124:0 125:0 126:0 127:0 128:0 
0 0 0 0 0 0 0 0 0.1883501667416956 0 0 0 0 0 0 0 1 0 0 0.4709417815600359 0 0 0 0 0 1:0 2:0 3:0 4:0 5:0 6:0 7:0 8:0 9:0 10:0 11:0 12:0 13:0 14:0 15:0 16:0 17:0 18:0 19:0 20:0 21:0 22:0 23:0 24:0 25:0 26:1 27:1 28:0 29:0 30:0 31:0 32:0 33:1 34:1 35:0 36:0 37:0 38:0 39:0 40:0 41:1 42:0 43:0 44:0 45:0 46:1 47:1 48:0 49:1 50:0 51:0 52:0 53:0 54:0 55:1 56:1 57:1 58:0 59:0 60:0 61:0 62:0 63:0 64:1 65:1 66:0 67:0 68:0 69:0 70:0 71:0 72:1 73:1 74:0 75:0 76:0 77:0 78:0 79:0 80:1 81:1 82:0 83:0 84:0 85:0 86:0 87:1 88:1 89:1 90:1 91:0 92:0 93:0 94:1 95:1 96:0 97:0 98:0 99:1 100:1 101:1 102:1 103:0 104:0 105:0 106:0 107:0 108:0 109:0 110:0 111:0 112:0 113:0 114:0 115:0 116:0 117:0 118:0 119:0 120:0 121:0 122:0 123:0 124:0 125:0 126:0 127:0 128:0 
0.4233251290808535 1 0 0.5452267362819118 0 0 0 0 0 0 0.2144777008974798 0 0 0 0 0 0 0 0 0 0 0 0 0 0 1:0 2:0 3:0 4:0 5:0 6:0 7:0 8:0 9:0 10:0 11:1 12:0 13:0 14:0 15:0 16:0 17:0 18:1 19:1 20:1 21:0 22:0 23:0 24:0 25:0 26:1 27:0 28:1 29:1 30:1 31:0 32:0 33:0 34:1 35:0 36:0 37:0 38:1 39:1 40:0 41:1 42:1 43:0 44:0 45:0 46:0 47:1 48:0 49:1 50:0 51:0 52:0 53:0 54:0 55:1 56:1 57:1 58:0 59:0 60:0 61:0 62:0 63:0 64:1 65:1 66:0 67:0 68:0 69:0 70:0 71:0 72:1 73:1 74:0 75:0 76:0 77:0 78:0 79:0 80:1 81:1 82:0 83:0 84:0 85:0 86:0 87:0 88:1 89:1 90:0 91:0 92:0 93:0 94:0 95:1 96:1 97:1 98:0 99:0 100:0 101:1 102:1 103:1 104:0 105:1 106:0 107:0 108:1 109:1 110:0 111:0 112:0 113:1 114:1 115:1 116:0 117:0 118:0 119:0 120:0 121:0 122:0 123:0 124:0 125:0 126:0 127:0 128:0 
0.06094905141984226 0 0.3450662243315297 0 0 0 0 0.2891005286273641 0.8443998339807597 0 0 0 0 0 0 0 0 0 0 0 0 0 0 0 0 1:0 2:0 3:0 4:0 5:0 6:0 7:0 8:0 9:0 10:0 11:0 12:0 13:0 14:0 15:0 16:0 17:0 18:0 19:0 20:0 21:0 22:0 23:0 24:0 25:0 26:1 27:0 28:0 29:0 30:0 31:0 32:0 33:1 34:1 35:1 36:1 37:1 38:1 39:0 40:0 41:1 42:1 43:0 44:0 45:0 46:1 47:1 48:0 49:1 50:1 51:0 52:0 53:0 54:0 55:1 56:1 57:1 58:0 59:0 60:0 61:0 62:0 63:0 64:1 65:1 66:0 67:0 68:0 69:0 70:0 71:0 72:1 73:1 74:0 75:0 76:0 77:0 78:0 79:0 80:1 81:1 82:0 83:0 84:0 85:0 86:0 87:0 88:1 89:1 90:1 91:1 92:0 93:0 94:0 95:1 96:0 97:0 98:0 99:1 100:1 101:1 102:1 103:0 104:0 105:0 106:0 107:0 108:0 109:0 110:0 111:0 112:0 113:0 114:0 115:0 116:0 117:0 118:0 119:0 120:0 121:0 122:0 123:0 124:0 125:0 126:0 127:0 128:0 
0 1 1 0 0.5010630302171101 0 0 0.1267694932325224 1 1 0 0 0 0.6598318831829575 0.9145967625292323 0 0 0 0 0 0 0 0 0 0 1:0 2:0 3:0 4:0 5:0 6:0 7:0 8:0 9:0 10:0 11:0 12:0 13:0 14:0 15:0 16:0 17:0 18:0 19:0 20:0 21:0 22:0 23:0 24:0 25:0 26:0 27:0 28:0 29:0 30:0 31:0 32:0 33:0 34:0 35:1 36:1 37:1 38:1 39:1 40:0 41:0 42:0 43:1 44:0 45:0 46:1 47:1 48:1 49:0 50:1 51:0 52:0 53:0 54:0 55:0 56:1 57:1 58:0 59:0 60:0 61:0 62:0 63:1 64:1 65:1 66:0 67:0 68:0 69:0 70:0 71:1 72:0 73:1 74:0 75:0 76:0 77:0 78:1 79:1 80:0 81:1 82:0 83:0 84:0 85:1 86:1 87:0 88:0 89:1 90:1 91:1 92:1 93:0 94:0 95:0 96:0 97:0 98:0 99:0 100:0 101:0 102:0 103:0 104:0 105:0 106:0 107:0 108:0 109:0 110:0 111:0 112:0 113:0 114:0 115:0 116:0 117:0 118:0 119:0 120:0 121:0 122:0 123:0 124:0 125:0 126:0 127:0 128:0 
0 0 0 0 0 0 0 0 0 0 0 0 0 0 0 0 0.8021882795103108 0 0 0 0 0 0 0 0 1:0 2:0 3:0 4:0 5:0 6:0 7:0 8:0 9:0 10:0 11:0 12:0 13:0 14:0 15:0 16:0 17:0 18:0 19:0 20:0 21:0 22:0 23:0 24:0 25:0 26:0 27:0 28:0 29:0 30:0 31:0 32:0 33:1 34:1 35:1 36:1 37:1 38:1 39:0 40:0 41:1 42:0 43:0 44:0 45:0 46:1 47:1 48:0 49:1 50:0 51:0 52:0 53:0 54:0 55:1 56:1 57:1 58:0 59:0 60:0 61:0 62:0 63:0 64:1 65:1 66:0 67:0 68:0 69:0 70:0 71:0 72:1 73:1 74:0 75:0 76:0 77:0 78:0 79:0 80:1 81:1 82:1 83:0 84:0 85:0 86:0 87:0 88:1 89:0 90:1 91:1 92:1 93:1 94:1 95:1 96:1 97:0 98:0 99:0 100:0 101:0 102:0 103:0 104:0 105:0 106:0 107:0 108:0 109:0 110:0 111:0 112:0 113:0 114:0 115:0 116:0 117:0 118:0 119:0 120:0 121:0 122:0 123:0 124:0 125:0 126:0 127:0 128:0 
0 0 1 0 0 0 0 0.7526497853168239 0 1 0 0 0 0 0 0 0 0 0 0 0 0 0 0 0 1:0 2:0 3:0 4:0 5:0 6:0 7:0 8:0 9:0 10:0 11:0 12:0 13:0 14:0 15:0 16:0 17:0 18:0 19:0 20:0 21:0 22:0 23:0 24:0 25:0 26:0 27:0 28:0 29:0 30:0 31:0 32:0 33:0 34:0 35:1 36:1 37:1 38:1 39:1 40:1 41:1 42:1 43:1 44:0 45:0 46:0 47:0 48:1 49:1 50:1 51:1 52:0 53:0 54:0 55:0 56:1 57:0 58:1 59:0 60:0 61:0 62:0 63:0 64:1 65:0 66:1 67:0 68:0 69:0 70:0 71:1 72:1 73:1 74:1 75:0 76:0 77:0 78:0 79:1 80:0 81:1 82:1 83:0 84:0 85:0 86:1 87:1 88:0 89:0 90:1 91:1 92:1 93:1 94:1 95:0 96:0 97:0 98:0 99:0 100:0 101:0 102:0 103:0 104:0 105:0 106:0 107:0 108:0 109:0 110:0 111:0 112:0 113:0 114:0 115:0 116:0 117:0 118:0 119:0 120:0 121:0 122:0 123:0 124:0 125:0 126:0 127:0 128:0 
0 1 0 0 0 0 0 0 0 1 0 0 0 0 0 0 0 0 0 0 0 0.2769783209920877 0 0 0 1:0 2:0 3:0 4:0 5:0 6:0 7:0 8:0 9:0 10:0 11:0 12:0 13:0 14:0 15:0 16:0 17:0 18:0 19:0 20:0 21:0 22:0 23:0 24:0 25:0 26:0 27:0 28:1 29:1 30:1 31:1 32:0 33:0 34:0 35:1 36:1 37:0 38:0 39:1 40:1 41:0 42:1 43:1 44:1 45:1 46:0 47:0 48:1 49:0 50:1 51:0 52:0 53:1 54:0 55:0 56:1 57:1 58:1 59:0 60:0 61:0 62:0 63:0 64:1 65:1 66:0 67:0 68:0 69:0 70:0 71:1 72:1 73:1 74:0 75:0 76:0 77:0 78:1 79:1 80:0 81:1 82:0 83:0 84:0 85:1 86:1 87:0 88:0 89:1 90:0 91:1 92:1 93:1 94:0 95:0 96:0 97:1 98:1 99:1 100:0 101:0 102:0 103:0 104:0 105:0 106:0 107:0 108:0 109:0 110:0 111:0 112:0 113:0 114:0 115:0 116:0 117:0 118:0 119:0 120:0 121:0 122:0 123:0 124:0 125:0 126:0 127:0 128:0 
0 0 0.2260362260876505 0 0 0.2978828263202985 0 0 0 0.8533239657967977 0 0 0 0 0 0 0 0 0 0 0 0 0 0 0 1:0 2:0 3:0 4:0 5:0 6:0 7:0 8:0 9:0 10:0 11:0 12:1 13:1 14:1 15:1 16:1 17:0 18:0 19:0 20:1 21:0 22:0 23:0 24:1 25:0 26:0 27:1 28:1 29:0 30:0 31:0 32:1 33:0 34:0 35:1 36:0 37:0 38:0 39:0 40:0 41:0 42:0 43:1 44:1 45:1 46:1 47:1 48:1 49:0 50:0 51:1 52:0 53:0 54:0 55:0 56:1 57:1 58:1 59:1 60:0 61:0 62:0 63:0 64:1 65:1 66:0 67:0 68:0 69:0 70:0 71:0 72:1 73:1 74:0 75:0 76:0 77:0 78:0 79:0 80:1 81:1 82:0 83:0 84:0 85:0 86:0 87:0 88:1 89:1 90:0 91:0 92:0 93:0 94:0 95:1 96:1 97:1 98:0 99:0 100:1 101:1 102:1 103:1 104:0 105:1 106:0 107:0 108:1 109:0 110:0 111:0 112:0 113:1 114:1 115:1 116:1 117:0 118:0 119:0 120:0 121:0 122:0 123:0 124:0 125:0 126:0 127:0 128:0 
0 0 0 0 0 0 0 0.2678761527844046 0 0.2273712483741775 0 0 0 0 0 0 0 0 0 0 0 0 0 0 0 1:0 2:0 3:0 4:0 5:0 6:0 7:0 8:0 9:0 10:0 11:0 12:0 13:0 14:0 15:0 16:0 17:0 18:0 19:1 20:1 21:1 22:1 23:1 24:0 25:0 26:0 27:1 28:0 29:0 30:0 31:1 32:0 33:0 34:0 35:1 36:1 37:0 38:0 39:1 40:1 41:0 42:0 43:1 44:1 45:0 46:0 47:0 48:1 49:0 50:1 51:1 52:0 53:0 54:0 55:0 56:1 57:0 58:1 59:0 60:0 61:0 62:0 63:0 64:1 65:1 66:1 67:0 68:0 69:0 70:0 71:0 72:1 73:1 74:0 75:0 76:0 77:0 78:0 79:0 80:1 81:1 82:0 83:0 84:0 85:0 86:0 87:1 88:0 89:1 90:0 91:0 92:0 93:0 94:1 95:1 96:0 97:1 98:0 99:0 100:1 101:1 102:1 103:0 104:0 105:1 106:1 107:1 108:1 109:0 110:0 111:0 112:0 113:0 114:0 115:0 116:0 117:0 118:0 119:0 120:0 121:0 122:0 123:0 124:0 125:0 126:0 127:0 128:0 
0 1 1 0.1430228403257772 0 0.2382688592850734 0 0 0.4247636200695109 0.2459630143555857 0 0 0 0 1 0 0.133810249531469 0 0 0.7873186616573917 0 0 0 0 0 1:0 2:0 3:0 4:0 5:0 6:0 7:0 8:0 9:0 10:0 11:0 12:0 13:0 14:0 15:0 16:0 17:0 18:1 19:1 20:0 21:0 22:0 23:0 24:0 25:0 26:1 27:0 28:0 29:1 30:0 31:0 32:0 33:0 34:1 35:0 36:0 37:1 38:1 39:0 40:0 41:1 42:1 43:0 44:0 45:0 46:1 47:1 48:0 49:1 50:0 51:0 52:0 53:0 54:0 55:1 56:0 57:1 58:0 59:0 60:0 61:0 62:0 63:1 64:1 65:1 66:0 67:0 68:0 69:0 70:0 71:0 72:1 73:1 74:0 75:0 76:0 77:0 78:0 79:0 80:1 81:1 82:1 83:0 84:0 85:0 86:0 87:0 88:1 89:0 90:1 91:1 92:0 93:0 94:0 95:0 96:1 97:0 98:0 99:1 100:1 101:0 102:0 103:0 104:1 105:0 106:0 107:0 108:1 109:1 110:1 111:1 112:1 113:0 114:0 115:0 116:0 117:0 118:0 119:0 120:0 121:0 122:0 123:0 124:0 125:0 126:0 127:0 128:0 
1 0.7979350873809004 1 0 0 0.6617324716209265 0 0.496621786870355 0 1 0 0 0 0 0 0 0 0.2820476546275157 0 0 0 0 0.02419995971290031 0 0 1:0 2:0 3:0 4:0 5:0 6:0 7:0 8:0 9:0 10:0 11:0 12:0 13:0 14:0 15:0 16:0 17:0 18:0 19:0 20:0 21:0 22:0 23:0 24:0 25:0 26:0 27:0 28:0 29:0 30:1 31:0 32:0 33:0 34:0 35:0 36:0 37:0 38:1 39:1 40:0 41:0 42:0 43:0 44:1 45:1 46:0 47:1 48:1 49:0 50:0 51:1 52:1 53:0 54:0 55:0 56:1 57:0 58:1 59:1 60:0 61:0 62:0 63:0 64:1 65:1 66:1 67:0 68:0 69:0 70:0 71:0 72:1 73:1 74:0 75:0 76:0 77:0 78:0 79:0 80:1 81:1 82:0 83:0 84:0 85:0 86:0 87:0 88:1 89:1 90:1 91:0 92:0 93:0 94:0 95:1 96:1 97:0 98:1 99:1 100:1 101:1 102:1 103:1 104:0 105:0 106:0 107:0 108:0 109:0 110:0 111:0 112:0 113:0 114:0 115:0 116:0 117:0 118:0 119:0 120:0 121:0 122:0 123:0 124:0 125:0 126:0 127:0 128:0 
0 1 0 0.5721975754880438 0 0 0 0 0.1220341269201385 0 0 0 0 0 0 0 0.1586054241296055 0 0 0 0 0 0 0 0 1:0 2:0 3:0 4:0 5:0 6:0 7:0 8:0 9:0 10:0 11:0 12:0 13:0 14:0 15:0 16:0 17:0 18:0 19:0 20:0 21:0 22:0 23:0 24:0 25:0 26:1 27:1 28:1 29:0 30:0 31:0 32:0 33:0 34:0 35:0 36:1 37:1 38:1 39:1 40:0 41:0 42:0 43:0 44:0 45:0 46:0 47:1 48:1 49:0 50:0 51:0 52:0 53:0 54:0 55:0 56:1 57:1 58:0 59:0 60:0 61:0 62:0 63:0 64:1 65:1 66:0 67:0 68:0 69:0 70:0 71:0 72:1 73:1 74:0 75:0 76:0 77:0 78:0 79:1 80:1 81:1 82:0 83:0 84:0 85:1 86:1 87:1 88:0 89:1 90:1 91:1 92:1 93:1 94:0 95:0 96:0 97:0 98:1 99:1 100:0 101:0 102:0 103:0 104:0 105:0 106:0 107:0 108:0 109:0 110:0 111:0 112:0 113:0 114:0 115:0 116:0 117:0 118:0 119:0 120:0 121:0 122:0 123:0 124:0 125:0 126:0 127:0 128:0 
0 0 0.3916321249139196 0 0.5995012757921685 0 0 1 1 1 0 0.8792006658387106 0.3846599705340649 0 0 0.30346717993343 1 0 1 0 0 0 0 0 0.1701277297038754 1:0 2:0 3:0 4:0 5:0 6:0 7:0 8:0 9:0 10:0 11:0 12:0 13:0 14:0 15:0 16:0 17:0 18:0 19:0 20:1 21:1 22:1 23:0 24:0 25:0 26:1 27:1 28:1 29:0 30:1 31:1 32:1 33:1 34:0 35:0 36:0 37:0 38:0 39:0 40:1 41:1 42:0 43:0 44:0 45:0 46:0 47:0 48:1 49:1 50:0 51:0 52:0 53:0 54:0 55:0 56:1 57:1 58:0 59:0 60:0 61:0 62:0 63:0 64:1 65:1 66:0 67:0 68:0 69:0 70:0 71:0 72:1 73:1 74:0 75:0 76:0 77:0 78:0 79:1 80:0 81:1 82:0 83:0 84:0 85:0 86:1 87:0 88:0 89:1 90:0 91:0 92:0 93:1 94:0 95:0 96:0 97:1 98:1 99:1 100:1 101:0 102:0 103:0 104:0 105:0 106:1 107:1 108:0 109:0 110:0 111:0 112:0 113:0 114:0 115:0 116:0 117:0 118:0 119:0 120:0 121:0 122:0 123:0 124:0 125:0 126:0 127:0 128:0 
0 0 0 0 0 0 0 0 0 0 0 0 0 0 0 0 1 0 0 0 0 0 0 0 0 1:0 2:0 3:0 4:0 5:0 6:0 7:0 8:0 9:0 10:0 11:0 12:0 13:0 14:0 15:0 16:0 17:0 18:0 19:0 20:0 21:0 22:0 23:0 24:0 25:0 26:0 27:1 28:1 29:1 30:0 31:0 32:0 33:0 34:0 35:0 36:0 37:1 38:1 39:0 40:0 41:1 42:0 43:0 44:0 45:0 46:1 47:1 48:0 49:1 50:0 51:0 52:0 53:0 54:0 55:1 56:1 57:1 58:0 59:0 60:0 61:0 62:0 63:0 64:1 65:1 66:0 67:0 68:0 69:0 70:0 71:0 72:1 73:1 74:0 75:0 76:0 77:0 78:0 79:0 80:1 81:1 82:0 83:0 84:0 85:0 86:0 87:1 88:1 89:0 90:1 91:1 92:0 93:0 94:0 95:1 96:0 97:0 98:0 99:1 100:1 101:1 102:1 103:1 104:0 105:0 106:0 107:0 108:0 109:0 110:0 111:0 112:0 113:0 114:0 115:0 116:0 117:0 118:0 119:0 120:0 121:0 122:0 123:0 124:0 125:0 126:0 127:0 128:0 
0 0.2187358764311431 1 0 0 0 0 0 0 0 0 0 0 0 0 0 1 0 0 0 0 0 0 0 0 1:0 2:0 3:0 4:0 5:0 6:0 7:0 8:0 9:0 10:0 11:0 12:1 13:1 14:0 15:0 16:0 17:0 18:0 19:0 20:0 21:1 22:1 23:0 24:0 25:1 26:1 27:0 28:0 29:0 30:1 31:0 32:0 33:1 34:0 35:0 36:0 37:0 38:1 39:1 40:0 41:1 42:0 43:0 44:0 45:0 46:0 47:1 48:0 49:1 50:0 51:0 52:0 53:0 54:0 55:1 56:1 57:1 58:0 59:0 60:0 61:0 62:0 63:0 64:1 65:1 66:0 67:0 68:0 69:0 70:0 71:0 72:1 73:1 74:0 75:0 76:0 77:0 78:0 79:0 80:1 81:1 82:0 83:0 84:0 85:0 86:0 87:0 88:1 89:1 90:1 91:0 92:0 93:0 94:0 95:0 96:1 97:0 98:1 99:0 100:0 101:0 102:0 103:1 104:1 105:0 106:1 107:1 108:0 109:0 110:0 111:1 112:0 113:0 114:0 115:0 116:1 117:1 118:1 119:1 120:0 121:0 122:0 123:0 124:0 125:0 126:0 127:0 128:0 
0.4348536081493697 1 1 1 0.9105946578107003 1 1 0.6637490540179734 1 1 1 0.2623714677053786 0.3108352049970062 0.7546181845707 1 1 1 0 1 1 0.4916096359253851 0.2018331482086498 0.03114600325156563 0 0.6887962135423669 1:0 2:1 3:1 4:1 5:1 6:1 7:0 8:0 9:1 10:1 11:0 12:0 13:0 14:1 15:1 16:0 17:1 18:0 19:0 20:0 21:0 22:0 23:1 24:0 25:1 26:0 27:0 28:0 29:0 30:0 31:1 32:0 33:1 34:0 35:0 36:0 37:0 38:0 39:1 40:0 41:1 42:0 43:0 44:0 45:0 46:0 47:1 48:0 49:1 50:0 51:0 52:0 53:0 54:0 55:1 56:0 57:1 58:0 59:0 60:0 61:0 62:0 63:1 64:0 65:1 66:0 67:0 68:0 69:0 70:0 71:1 72:1 73:1 74:0 75:0 76:0 77:0 78:0 79:0 80:1 81:1 82:0 83:0 84:0 85:0 86:0 87:0 88:1 89:1 90:0 91:0 92:0 93:0 94:0 95:0 96:1 97:1 98:1 99:0 100:0 101:0 102:0 103:1 104:1 105:0 106:0 107:1 108:0 109:0 110:0 111:1 112:0 113:0 114:0 115:0 116:1 117:0 118:1 119:1 120:0 121:0 122:0 123:0 124:0 125:1 126:1 127:0 128:0 
0 0 0 0 0 1 0 0 0 0.7814817869703441 0 0 0 0 0 0 0 0 0 0 0 0 0 0 0 1:0 2:0 3:0 4:0 5:0 6:0 7:0 8:0 9:1 10:1 11:1 12:0 13:0 14:0 15:0 16:0 17:0 18:0 19:1 20:1 21:1 22:0 23:0 24:0 25:0 26:0 27:0 28:0 29:1 30:1 31:0 32:0 33:1 34:1 35:1 36:0 37:0 38:1 39:1 40:0 41:1 42:0 43:0 44:0 45:0 46:0 47:1 48:0 49:1 50:0 51:0 52:0 53:0 54:0 55:1 56:1 57:1 58:0 59:0 60:0 61:0 62:0 63:0 64:1 65:1 66:0 67:0 68:0 69:0 70:0 71:0 72:1 73:1 74:0 75:0 76:0 77:0 78:0 79:0 80:1 81:1 82:1 83:0 84:0 85:0 86:0 87:0 88:1 89:0 90:1 91:0 92:0 93:0 94:0 95:0 96:1 97:0 98:1 99:1 100:0 101:0 102:0 103:0 104:1 105:0 106:0 107:1 108:1 109:1 110:0 111:0 112:1 113:0 114:0 115:0 116:0 117:1 118:1 119:1 120:1 121:0 122:0 123:0 124:0 125:0 126:0 127:0 128:0 
0 0 1 0 0 0 0.1871323353497849 0 0.7497060824427207 0 0 0 0 0 0 1 1 0 0 1 0 0 0 1 0.2269089234144651 1:0 2:0 3:0 4:0 5:0 6:0 7:0 8:0 9:0 10:0 11:0 12:0 13:0 14:0 15:0 16:0 17:0 18:0 19:0 20:0 21:0 22:0 23:0 24:0 25:0 26:0 27:0 28:0 29:0 30:0 31:0 32:0 33:1 34:1 35:1 36:1 37:0 38:0 39:0 40:1 41:1 42:0 43:0 44:0 45:0 46:0 47:0 48:1 49:1 50:0 51:0 52:0 53:0 54:0 55:0 56:1 57:1 58:0 59:0 60:0 61:0 62:0 63:0 64:1 65:1 66:0 67:0 68:0 69:0 70:0 71:0 72:1 73:1 74:1 75:0 76:0 77:0 78:0 79:0 80:1 81:0 82:1 83:1 84:0 85:0 86:0 87:1 88:1 89:0 90:0 91:1 92:1 93:1 94:1 95:1 96:0 97:0 98:0 99:0 100:0 101:0 102:0 103:0 104:0 105:0 106:0 107:0 108:0 109:0 110:0 111:0 112:0 113:0 114:0 115:0 116:0 117:0 118:0 119:0 120:0 121:0 122:0 123:0 124:0 125:0 126:0 127:0 128:0 
1 0.1328306203527171 1 0 0.7601758296033009 0 0.2839058979410797 0.5502348452260823 0.1423541943204282 0.8060332115606416 0 0 0 0 0 1 1 0 0 0.2245199386709734 0 0 0 0 0 1:0 2:0 3:0 4:0 5:0 6:0 7:0 8:0 9:0 10:0 11:0 12:0 13:0 14:0 15:0 16:0 17:0 18:0 19:0 20:0 21:0 22:0 23:0 24:1 25:0 26:0 27:0 28:0 29:0 30:0 31:0 32:1 33:0 34:0 35:0 36:0 37:0 38:0 39:0 40:1 41:0 42:0 43:0 44:0 45:0 46:0 47:0 48:1 49:0 50:1 51:1 52:1 53:0 54:0 55:0 56:1 57:0 58:1 59:0 60:0 61:0 62:0 63:0 64:1 65:1 66:1 67:0 68:0 69:0 70:0 71:0 72:1 73:1 74:0 75:0 76:0 77:0 78:0 79:0 80:1 81:1 82:0 83:0 84:0 85:0 86:0 87:0 88:1 89:1 90:0 91:0 92:0 93:0 94:0 95:0 96:1 97:1 98:0 99:0 100:0 101:0 102:0 103:1 104:1 105:0 106:1 107:1 108:1 109:1 110:1 111:1 112:0 113:0 114:0 115:0 116:0 117:0 118:0 119:0 120:0 121:0 122:0 123:0 124:0 125:0 126:0 127:0 128:0 
0 0 0 0 0 0 0 0 0 0 0 0 0 0 0 0 1 0 0 0 0 0 0 0 0 1:0 2:0 3:0 4:0 5:0 6:0 7:0 8:0 9:0 10:0 11:0 12:0 13:0 14:0 15:0 16:0 17:0 18:0 19:1 20:1 21:1 22:1 23:0 24:0 25:0 26:1 27:1 28:0 29:0 30:1 31:1 32:1 33:1 34:1 35:0 36:0 37:0 38:0 39:0 40:1 41:1 42:0 43:0 44:0 45:0 46:0 47:0 48:1 49:1 50:0 51:0 52:0 53:0 54:0 55:0 56:1 57:1 58:0 59:0 60:0 61:0 62:0 63:0 64:1 65:1 66:0 67:0 68:0 69:0 70:0 71:0 72:1 73:1 74:0 75:0 76:0 77:0 78:0 79:0 80:1 81:1 82:0 83:0 84:0 85:0 86:0 87:1 88:1 89:1 90:0 91:0 92:0 93:0 94:1 95:1 96:0 97:1 98:1 99:1 100:1 101:1 102:1 103:0 104:0 105:0 106:0 107:1 108:1 109:0 110:0 111:0 112:0 113:0 114:0 115:0 116:0 117:0 118:0 119:0 120:0 121:0 122:0 123:0 124:0 125:0 126:0 127:0 128:0 
0 0 0 0 0 0 0 0 0 0 0 0 0 0 0 0 0.493944016519971 0 0 0 0 0 0 0 0 1:0 2:0 3:0 4:0 5:0 6:0 7:0 8:0 9:0 10:0 11:0 12:0 13:0 14:0 15:0 16:0 17:0 18:0 19:0 20:0 21:0 22:0 23:0 24:0 25:0 26:0 27:0 28:0 29:0 30:0 31:0 32:0 33:0 34:1 35:1 36:1 37:1 38:1 39:1 40:1 41:1 42:1 43:0 44:0 45:0 46:0 47:0 48:1 49:1 50:0 51:0 52:0 53:0 54:0 55:0 56:1 57:1 58:0 59:0 60:0 61:0 62:0 63:0 64:1 65:1 66:0 67:0 68:0 69:0 70:0 71:0 72:1 73:1 74:0 75:0 76:0 77:0 78:0 79:0 80:1 81:1 82:0 83:0 84:0 85:0 86:1 87:1 88:1 89:1 90:1 91:1 92:1 93:1 94:1 95:0 96:0 97:0 98:0 99:0 100:0 101:0 102:0 103:0 104:0 105:0 106:0 107:0 108:0 109:0 110:0 111:0 112:0 113:0 114:0 115:0 116:0 117:0 118:0 119:0 120:0 121:0 122:0 123:0 124:0 125:0 126:0 127:0 128:0 
0 0.6304116513154661 1 0 0 0 0 0 0 1 0 0 0 0 0 0 0 0 0 0 0 0 0 0 0 1:0 2:0 3:0 4:0 5:0 6:0 7:0 8:0 9:0 10:0 11:0 12:0 13:0 14:0 15:0 16:0 17:0 18:0 19:0 20:0 21:0 22:0 23:0 24:0 25:0 26:0 27:1 28:1 29:1 30:1 31:1 32:0 33:0 34:0 35:1 36:0 37:0 38:0 39:1 40:1 41:0 42:1 43:1 44:0 45:0 46:0 47:0 48:1 49:0 50:1 51:1 52:0 53:0 54:0 55:0 56:1 57:0 58:1 59:0 60:0 61:0 62:0 63:0 64:1 65:1 66:1 67:0 68:0 69:0 70:0 71:0 72:1 73:1 74:0 75:0 76:0 77:0 78:0 79:0 80:1 81:1 82:0 83:0 84:0 85:0 86:0 87:0 88:1 89:1 90:1 91:1 92:0 93:0 94:0 95:1 96:1 97:0 98:0 99:1 100:1 101:1 102:1 103:1 104:0 105:0 106:0 107:0 108:0 109:0 110:0 111:0 112:0 113:0 114:0 115:0 116:0 117:0 118:0 119:0 120:0 121:0 122:0 123:0 124:0 125:0 126:0 127:0 128:0 
0 1 0 0 0 0 0 0 0 0 0 0 0 0 0 0 0 0 0 0 0 0 0 0 0 1:0 2:0 3:0 4:0 5:0 6:0 7:0 8:0 9:0 10:0 11:0 12:0 13:0 14:0 15:0 16:0 17:0 18:0 19:1 20:1 21:1 22:1 23:0 24:0 25:0 26:0 27:1 28:1 29:1 30:1 31:1 32:1 33:0 34:1 35:1 36:0 37:0 38:0 39:0 40:1 41:0 42:1 43:0 44:0 45:0 46:0 47:0 48:1 49:0 50:1 51:0 52:0 53:0 54:0 55:0 56:1 57:1 58:1 59:0 60:0 61:0 62:0 63:0 64:1 65:1 66:0 67:0 68:0 69:0 70:0 71:1 72:1 73:1 74:0 75:0 76:0 77:0 78:1 79:1 80:0 81:1 82:0 83:0 84:0 85:0 86:1 87:0 88:0 89:1 90:0 91:0 92:0 93:1 94:1 95:0 96:0 97:1 98:0 99:0 100:1 101:1 102:0 103:0 104:0 105:1 106:1 107:1 108:1 109:0 110:0 111:0 112:0 113:0 114:0 115:0 116:0 117:0 118:0 119:0 120:0 121:0 122:0 123:0 124:0 125:0 126:0 127:0 128:0 
0.2099018140971287 0.1193174497934465 1 0.4409524159844817 0.1015426399854816 1 0 0 0 0 0 0 0 0 0.4118272153587377 0 0 0 0 0 0 0 0 0 0 1:1 2:1 3:1 4:0 5:0 6:0 7:0 8:0 9:0 10:0 11:1 12:0 13:0 14:0 15:0 16:0 17:0 18:0 19:1 20:1 21:0 22:0 23:0 24:0 25:0 26:0 27:0 28:1 29:1 30:0 31:0 32:0 33:0 34:0 35:1 36:1 37:1 38:1 39:0 40:0 41:0 42:1 43:1 44:0 45:0 46:1 47:1 48:0 49:0 50:1 51:0 52:0 53:0 54:0 55:1 56:1 57:1 58:1 59:0 60:0 61:0 62:0 63:0 64:1 65:1 66:0 67:0 68:0 69:0 70:0 71:0 72:1 73:1 74:0 75:0 76:0 77:0 78:0 79:0 80:1 81:1 82:0 83:0 84:0 85:0 86:0 87:0 88:1 89:1 90:0 91:0 92:0 93:0 94:0 95:0 96:1 97:1 98:0 99:0 100:0 101:0 102:0 103:0 104:1 105:1 106:1 107:0 108:0 109:0 110:0 111:0 112:1 113:0 114:1 115:0 116:0 117:0 118:0 119:0 120:1 121:0 122:1 123:1 124:1 125:1 126:1 127:1 128:0 
0 1 1 0 0 0 0 0 0 0 0 0 0 0 0 0.211488254608564 1 0 0 0 0 0 0 0 0 1:0 2:0 3:0 4:0 5:0 6:0 7:0 8:0 9:0 10:0 11:0 12:0 13:0 14:0 15:0 16:0 17:0 18:0 19:0 20:0 21:0 22:0 23:0 24:0 25:0 26:0 27:0 28:0 29:0 30:0 31:0 32:0 33:0 34:0 35:0 36:1 37:1 38:1 39:1 40:1 41:0 42:0 43:0 44:0 45:0 46:0 47:0 48:1 49:0 50:1 51:1 52:0 53:0 54:0 55:0 56:1 57:0 58:1 59:0 60:0 61:0 62:0 63:0 64:1 65:1 66:1 67:0 68:0 69:0 70:0 71:1 72:1 73:1 74:0 75:0 76:0 77:0 78:1 79:1 80:0 81:1 82:0 83:0 84:0 85:1 86:1 87:0 88:0 89:1 90:1 91:1 92:1 93:1 94:0 95:0 96:0 97:0 98:0 99:0 100:0 101:0 102:0 103:0 104:0 105:0 106:0 107:0 108:0 109:0 110:0 111:0 112:0 113:0 114:0 115:0 116:0 117:0 118:0 119:0 120:0 121:0 122:0 123:0 124:0 125:0 126:0 127:0 128:0 
1 1 1 0 0 0 0 0.6188265101945801 0 1 0 0 0 0.5414458611598273 0 0 1 0 0 0 0 0 0 0 0 1:0 2:0 3:0 4:0 5:0 6:0 7:0 8:0 9:0 10:0 11:0 12:0 13:0 14:0 15:0 16:0 17:0 18:0 19:0 20:0 21:0 22:0 23:0 24:0 25:0 26:0 27:0 28:0 29:0 30:0 31:0 32:0 33:0 34:0 35:0 36:0 37:0 38:0 39:0 40:0 41:0 42:0 43:1 44:1 45:1 46:1 47:1 48:0 49:1 50:1 51:1 52:1 53:0 54:0 55:1 56:1 57:1 58:0 59:0 60:0 61:0 62:0 63:0 64:1 65:1 66:0 67:0 68:0 69:0 70:0 71:0 72:1 73:1 74:1 75:0 76:0 77:0 78:1 79:1 80:1 81:0 82:1 83:1 84:1 85:1 86:1 87:0 88:0 89:0 90:0 91:0 92:0 93:0 94:0 95:0 96:0 97:0 98:0 99:0 100:0 101:0 102:0 103:0 104:0 105:0 106:0 107:0 108:0 109:0 110:0 111:0 112:0 113:0 114:0 115:0 116:0 117:0 118:0 119:0 120:0 121:0 122:0 123:0 124:0 125:0 126:0 127:0 128:0 
0.8139320086156747 1 1 0 0 0 0 1 0 1 0 0 0.7454733159278191 0.6506711097552087 0 0 0 0.3317390492406768 1 0 0 0.08267227372583985 0.538812983896199 0 1 1:0 2:0 3:0 4:0 5:0 6:0 7:0 8:0 9:0 10:0 11:0 12:0 13:0 14:0 15:0 16:0 17:0 18:0 19:0 20:0 21:0 22:0 23:0 24:0 25:0 26:0 27:0 28:0 29:0 30:0 31:0 32:0 33:0 34:0 35:0 36:1 37:1 38:1 39:1 40:1 41:0 42:0 43:1 44:1 45:0 46:0 47:0 48:1 49:0 50:0 51:1 52:1 53:0 54:0 55:0 56:1 57:0 58:1 59:1 60:0 61:0 62:0 63:0 64:1 65:1 66:1 67:0 68:0 69:0 70:0 71:1 72:1 73:1 74:0 75:0 76:0 77:0 78:1 79:1 80:0 81:1 82:0 83:1 84:1 85:1 86:1 87:0 88:0 89:1 90:1 91:1 92:0 93:0 94:0 95:0 96:0 97:0 98:0 99:0 100:0 101:0 102:0 103:0 104:0 105:0 106:0 107:0 108:0 109:0 110:0 111:0 112:0 113:0 114:0 115:0 116:0 117:0 118:0 119:0 120:0 121:0 122:0 123:0 124:0 125:0 126:0 127:0 128:0 
1 1 1 0 0 0 0 0 0.4076287910087578 0 0.05992770758217358 0 0 0.5578354147970086 0 0 1 0 0 0 0 0 0 0 0 1:0 2:0 3:0 4:0 5:0 6:0 7:0 8:0 9:0 10:0 11:0 12:0 13:0 14:0 15:0 16:0 17:0 18:0 19:0 20:0 21:0 22:0 23:0 24:0 25:0 26:0 27:0 28:0 29:0 30:0 31:0 32:0 33:0 34:0 35:1 36:1 37:1 38:0 39:0 40:0 41:1 42:1 43:0 44:0 45:1 46:1 47:0 48:0 49:1 50:0 51:0 52:0 53:0 54:1 55:1 56:0 57:1 58:0 59:0 60:0 61:0 62:0 63:1 64:1 65:1 66:0 67:0 68:0 69:0 70:0 71:0 72:1 73:1 74:0 75:0 76:0 77:0 78:0 79:0 80:1 81:1 82:0 83:0 84:0 85:0 86:0 87:0 88:1 89:0 90:1 91:1 92:1 93:1 94:1 95:1 96:1 97:0 98:0 99:0 100:0 101:0 102:0 103:0 104:0 105:0 106:0 107:0 108:0 109:0 110:0 111:0 112:0 113:0 114:0 115:0 116:0 117:0 118:0 119:0 120:0 121:0 122:0 123:0 124:0 125:0 126:0 127:0 128:0 
0 1 1 0.5618723185571235 0.02334167124556298 1 1 1 1 0.7454206032199338 0 0.02740047286345806 0 0 0 0 0.5670303504552336 0 0 0.8737327128802274 0 0 0.1715843031089828 0 0.746112647160424 1:0 2:0 3:0 4:0 5:0 6:0 7:0 8:0 9:0 10:0 11:1 12:1 13:0 14:0 15:0 16:0 17:0 18:1 19:1 20:1 21:1 22:0 23:0 24:0 25:1 26:1 27:0 28:0 29:1 30:1 31:0 32:0 33:1 34:0 35:0 36:0 37:0 38:1 39:0 40:0 41:1 42:0 43:0 44:0 45:0 46:1 47:1 48:0 49:1 50:0 51:0 52:0 53:0 54:0 55:1 56:0 57:1 58:0 59:0 60:0 61:0 62:0 63:0 64:1 65:1 66:0 67:0 68:0 69:0 70:0 71:0 72:1 73:1 74:0 75:0 76:0 77:0 78:0 79:0 80:1 81:1 82:0 83:0 84:0 85:0 86:0 87:0 88:1 89:1 90:0 91:0 92:0 93:0 94:0 95:0 96:1 97:1 98:1 99:0 100:0 101:0 102:0 103:0 104:1 105:0 106:1 107:0 108:0 109:0 110:0 111:1 112:1 113:0 114:1 115:1 116:1 117:1 118:1 119:1 120:0 121:0 122:0 123:0 124:0 125:0 126:0 127:0 128:0 
0 0 0 0 0 0 0 0 0 0 0 0 0 0 0 0 0.548971813957191 0 0 0 0 0 0 0 0 1:0 2:0 3:0 4:0 5:0 6:0 7:0 8:0 9:0 10:0 11:0 12:0 13:0 14:0 15:0 16:0 17:0 18:0 19:0 20:0 21:0 22:0 23:0 24:0 25:0 26:0 27:0 28:0 29:0 30:0 31:0 32:0 33:1 34:1 35:1 36:1 37:1 38:1 39:0 40:0 41:1 42:0 43:0 44:0 45:0 46:1 47:1 48:0 49:1 50:0 51:0 52:0 53:0 54:0 55:1 56:1 57:1 58:0 59:0 60:0 61:0 62:0 63:0 64:1 65:1 66:0 67:0 68:0 69:0 70:0 71:0 72:1 73:1 74:0 75:0 76:0 77:0 78:0 79:1 80:1 81:1 82:1 83:0 84:0 85:1 86:1 87:1 88:0 89:0 90:1 91:1 92:1 93:1 94:0 95:0 96:0 97:0 98:0 99:0 100:0 101:0 102:0 103:0 104:0 105:0 106:0 107:0 108:0 109:0 110:0 111:0 112:0 113:0 114:0 115:0 116:0 117:0 118:0 119:0 120:0 121:0 122:0 123:0 124:0 125:0 126:0 127:0 128:0 
0 1 0 0 0 0 0 0 1 1 0.2336034147305053 0 0.9604991597312733 0 0 0.3926359818420013 1 0 0.7351477757365091 0 0 0 0 0 0 1:0 2:0 3:0 4:0 5:0 6:0 7:0 8:0 9:0 10:0 11:0 12:0 13:0 14:0 15:0 16:0 17:0 18:0 19:0 20:1 21:1 22:1 23:1 24:0 25:0 26:0 27:0 28:1 29:0 30:0 31:1 32:1 33:0 34:1 35:1 36:1 37:0 38:0 39:0 40:1 41:1 42:1 43:0 44:0 45:0 46:0 47:0 48:1 49:1 50:0 51:0 52:0 53:0 54:0 55:0 56:1 57:1 58:0 59:0 60:0 61:0 62:0 63:1 64:1 65:1 66:0 67:0 68:0 69:0 70:0 71:1 72:0 73:1 74:0 75:0 76:0 77:0 78:1 79:1 80:0 81:1 82:0 83:0 84:0 85:0 86:1 87:0 88:0 89:1 90:1 91:0 92:0 93:1 94:1 95:0 96:0 97:0 98:1 99:1 100:1 101:1 102:0 103:0 104:0 105:0 106:0 107:1 108:1 109:0 110:0 111:0 112:0 113:0 114:0 115:0 116:0 117:0 118:0 119:0 120:0 121:0 122:0 123:0 124:0 125:0 126:0 127:0 128:0 
0.1383460696635122 1 1 1 0.7176268758153197 1 1 1 0 0.08139041357689369 0.9318817261135323 0.7240899636982777 0.8375563115929228 1 1 1 1 1 1 0.6109288015041751 0 0 1 0.0628519187399335 1 1:0 2:0 3:0 4:0 5:0 6:0 7:0 8:0 9:0 10:0 11:0 12:0 13:0 14:0 15:1 16:0 17:0 18:0 19:0 20:0 21:0 22:0 23:1 24:0 25:0 26:0 27:0 28:0 29:0 30:0 31:1 32:0 33:0 34:0 35:0 36:0 37:0 38:0 39:1 40:1 41:0 42:0 43:0 44:1 45:1 46:1 47:0 48:1 49:0 50:0 51:0 52:1 53:0 54:0 55:0 56:1 57:0 58:0 59:0 60:1 61:0 62:0 63:0 64:1 65:0 66:0 67:1 68:1 69:0 70:0 71:0 72:1 73:0 74:1 75:1 76:0 77:0 78:0 79:1 80:1 81:1 82:1 83:0 84:0 85:0 86:0 87:1 88:0 89:1 90:0 91:0 92:0 93:0 94:1 95:1 96:0 97:1 98:0 99:0 100:0 101:1 102:1 103:0 104:0 105:1 106:1 107:0 108:1 109:1 110:0 111:0 112:0 113:0 114:1 115:1 116:1 117:0 118:0 119:0 120:0 121:0 122:0 123:0 124:0 125:0 126:0 127:0 128:0 
0 0 0.8003732779657704 0 0 0 0 0 0 0 0 0 0 0 0 0 0 0 0 0 0 0 0 0 0 1:0 2:0 3:0 4:0 5:0 6:0 7:0 8:0 9:0 10:0 11:0 12:0 13:0 14:0 15:0 16:0 17:0 18:0 19:0 20:0 21:0 22:0 23:0 24:0 25:0 26:0 27:1 28:1 29:1 30:1 31:1 32:1 33:0 34:0 35:1 36:1 37:0 38:0 39:0 40:1 41:0 42:1 43:1 44:0 45:0 46:0 47:0 48:1 49:1 50:1 51:0 52:0 53:0 54:0 55:0 56:1 57:1 58:0 59:0 60:0 61:0 62:0 63:0 64:1 65:1 66:0 67:0 68:0 69:0 70:0 71:0 72:1 73:1 74:0 75:0 76:0 77:0 78:0 79:0 80:1 81:1 82:0 83:0 84:0 85:0 86:0 87:0 88:1 89:1 90:1 91:0 92:0 93:0 94:0 95:1 96:1 97:0 98:1 99:1 100:1 101:1 102:1 103:1 104:0 105:0 106:0 107:0 108:0 109:0 110:0 111:0 112:0 113:0 114:0 115:0 116:0 117:0 118:0 119:0 120:0 121:0 122:0 123:0 124:0 125:0 126:0 127:0 128:0 
0.8857186717530641 0 1 1 0 1 0 0 0 0 0 0 0 0 0 0 0 0 0 0 0.1327649353217299 0 0 0 0 1:0 2:0 3:0 4:1 5:1 6:0 7:0 8:0 9:0 10:0 11:0 12:0 13:1 14:0 15:0 16:0 17:0 18:0 19:0 20:0 21:1 22:1 23:0 24:0 25:0 26:0 27:0 28:0 29:0 30:1 31:0 32:0 33:0 34:1 35:0 36:0 37:0 38:1 39:1 40:0 41:1 42:1 43:0 44:0 45:0 46:0 47:1 48:1 49:1 50:0 51:0 52:0 53:0 54:0 55:0 56:1 57:1 58:0 59:0 60:0 61:0 62:0 63:0 64:1 65:1 66:0 67:0 68:0 69:0 70:0 71:0 72:1 73:1 74:0 75:0 76:0 77:0 78:0 79:0 80:1 81:1 82:0 83:0 84:0 85:0 86:0 87:0 88:1 89:1 90:0 91:0 92:0 93:0 94:0 95:0 96:1 97:1 98:0 99:0 100:0 101:0 102:0 103:0 104:1 105:0 106:1 107:0 108:0 109:0 110:0 111:0 112:1 113:0 114:1 115:1 116:1 117:0 118:0 119:1 120:1 121:0 122:0 123:0 124:1 125:1 126:1 127:1 128:0 
0 0 0 0 0 0 0 0.3309663448117111 0 0 0 0 0 0 0 0 0 0 0 0 0 0 0 0 0 1:0 2:0 3:0 4:0 5:0 6:0 7:0 8:0 9:0 10:0 11:0 12:0 13:0 14:0 15:0 16:0 17:0 18:1 19:1 20:1 21:1 22:1 23:0 24:0 25:0 26:1 27:1 28:0 29:0 30:1 31:1 32:0 33:0 34:1 35:0 36:0 37:0 38:0 39:1 40:1 41:1 42:1 43:0 44:0 45:0 46:0 47:0 48:1 49:1 50:0 51:0 52:0 53:0 54:0 55:0 56:1 57:1 58:0 59:0 60:0 61:0 62:0 63:0 64:1 65:1 66:0 67:0 68:0 69:0 70:0 71:0 72:1 73:1 74:0 75:0 76:0 77:0 78:0 79:0 80:1 81:1 82:0 83:0 84:0 85:0 86:0 87:0 88:1 89:1 90:0 91:0 92:0 93:0 94:0 95:1 96:0 97:1 98:0 99:0 100:0 101:1 102:1 103:1 104:0 105:1 106:1 107:1 108:1 109:1 110:0 111:0 112:0 113:0 114:0 115:0 116:0 117:0 118:0 119:0 120:0 121:0 122:0 123:0 124:0 125:0 126:0 127:0 128:0 
0 0 0 0 0 0 0 0 0.5981243070552797 0 0 0 0 0 0 0 0 0 0 0 0 0 0 0 0 1:0 2:0 3:0 4:0 5:0 6:0 7:0 8:0 9:0 10:0 11:0 12:0 13:0 14:0 15:0 16:0 17:0 18:0 19:0 20:0 21:0 22:0 23:0 24:0 25:0 26:0 27:0 28:0 29:0 30:0 31:0 32:0 33:0 34:0 35:0 36:1 37:1 38:1 39:1 40:1 41:0 42:0 43:1 44:1 45:0 46:0 47:0 48:1 49:0 50:1 51:1 52:0 53:0 54:0 55:0 56:1 57:0 58:1 59:0 60:0 61:0 62:0 63:0 64:1 65:1 66:1 67:0 68:0 69:0 70:0 71:0 72:1 73:1 74:0 75:0 76:0 77:0 78:0 79:1 80:1 81:1 82:0 83:0 84:0 85:1 86:1 87:1 88:0 89:1 90:1 91:1 92:1 93:1 94:0 95:0 96:0 97:0 98:1 99:1 100:0 101:0 102:0 103:0 104:0 105:0 106:0 107:0 108:0 109:0 110:0 111:0 112:0 113:0 114:0 115:0 116:0 117:0 118:0 119:0 120:0 121:0 122:0 123:0 124:0 125:0 126:0 127:0 128:0 
1 1 1 0.01437084654395927 1 1 1 1 1 1 1 1 1 1 1 1 1 1 1 1 0.6001998761986471 0 1 1 1 1:0 2:0 3:0 4:0 5:0 6:0 7:0 8:0 9:0 10:0 11:0 12:0 13:0 14:0 15:0 16:0 17:0 18:0 19:0 20:0 21:0 22:0 23:0 24:0 25:0 26:0 27:0 28:0 29:0 30:0 31:0 32:0 33:0 34:0 35:0 36:0 37:0 38:0 39:0 40:0 41:0 42:0 43:0 44:0 45:0 46:0 47:0 48:0 49:1 50:1 51:1 52:0 53:0 54:0 55:0 56:0 57:1 58:1 59:1 60:1 61:1 62:0 63:0 64:0 65:1 66:0 67:1 68:0 69:1 70:1 71:1 72:1 73:1 74:1 75:1 76:0 77:0 78:0 79:0 80:0 81:0 82:0 83:0 84:0 85:0 86:0 87:0 88:0 89:0 90:0 91:0 92:0 93:0 94:0 95:0 96:0 97:0 98:0 99:0 100:0 101:0 102:0 103:0 104:0 105:0 106:0 107:0 108:0 109:0 110:0 111:0 112:0 113:0 114:0 115:0 116:0 117:0 118:0 119:0 120:0 121:0 122:0 123:0 124:0 125:0 126:0 127:0 128:0 
0 0 0 0 0 0.2087312909538228 0 0 0 0 0 0 0 0 0 0 0 0 0 0 0 0 0 0 0 1:0 2:0 3:0 4:0 5:0 6:0 7:0 8:0 9:0 10:0 11:0 12:0 13:0 14:0 15:1 16:0 17:0 18:0 19:0 20:0 21:0 22:1 23:1 24:1 25:0 26:0 27:0 28:0 29:0 30:1 31:0 32:1 33:0 34:0 35:1 36:1 37:1 38:1 39:0 40:1 41:0 42:1 43:1 44:1 45:1 46:1 47:0 48:1 49:1 50:1 51:0 52:0 53:0 54:0 55:0 56:1 57:1 58:0 59:0 60:0 61:0 62:0 63:0 64:1 65:1 66:0 67:0 68:0 69:0 70:0 71:0 72:1 73:1 74:0 75:0 76:0 77:0 78:0 79:0 80:1 81:1 82:0 83:0 84:0 85:0 86:0 87:1 88:1 89:1 90:0 91:0 92:0 93:0 94:0 95:1 96:0 97:1 98:0 99:0 100:0 101:0 102:1 103:1 104:0 105:1 106:0 107:0 108:0 109:1 110:1 111:0 112:0 113:1 114:1 115:1 116:1 117:1 118:0 119:0 120:0 121:0 122:0 123:0 124:0 125:0 126:0 127:0 128:0 
0 1 1 0 0 0 0 0 0 0 0 0 0 0 0 0 0 0 0 0 0 0 0 0 0 1:0 2:0 3:0 4:0 5:1 6:1 7:0 8:0 9:0 10:0 11:0 12:1 13:1 14:0 15:0 16:0 17:0 18:0 19:1 20:1 21:1 22:1 23:0 24:0 25:0 26:0 27:1 28:0 29:0 30:1 31:1 32:0 33:0 34:1 35:1 36:0 37:0 38:0 39:1 40:1 41:0 42:1 43:0 44:0 45:0 46:0 47:0 48:1 49:1 50:1 51:0 52:0 53:0 54:0 55:0 56:1 57:1 58:0 59:0 60:0 61:0 62:0 63:0 64:1 65:1 66:0 67:0 68:0 69:0 70:0 71:0 72:1 73:1 74:0 75:0 76:0 77:0 78:0 79:0 80:1 81:1 82:0 83:0 84:0 85:0 86:0 87:0 88:1 89:1 90:0 91:0 92:0 93:0 94:0 95:0 96:1 97:1 98:0 99:0 100:0 101:0 102:0 103:0 104:1 105:1 106:0 107:0 108:0 109:0 110:0 111:0 112:1 113:1 114:0 115:0 116:0 117:0 118:0 119:1 120:1 121:1 122:1 123:1 124:1 125:1 126:1 127:1 128:0 
0 1 1 1 1 1 1 0 0 0 1 1 1 1 1 1 0 1 0.4665626706276403 0.8455246629623567 0.6294424340170153 0.7766854121186919 1 0 1 1:0 2:0 3:0 4:0 5:0 6:0 7:0 8:0 9:0 10:0 11:0 12:0 13:0 14:0 15:0 16:0 17:0 18:0 19:0 20:0 21:0 22:0 23:0 24:0 25:0 26:0 27:0 28:0 29:0 30:0 31:0 32:0 33:1 34:1 35:1 36:1 37:1 38:0 39:0 40:0 41:0 42:0 43:0 44:0 45:1 46:1 47:1 48:0 49:0 50:0 51:1 52:0 53:0 54:0 55:1 56:1 57:0 58:0 59:1 60:0 61:0 62:0 63:0 64:1 65:0 66:0 67:1 68:0 69:0 70:0 71:0 72:1 73:0 74:0 75:1 76:0 77:0 78:0 79:0 80:1 81:0 82:0 83:1 84:1 85:0 86:1 87:1 88:1 89:0 90:0 91:0 92:1 93:1 94:1 95:0 96:0 97:0 98:0 99:0 100:0 101:0 102:0 103:0 104:0 105:0 106:0 107:0 108:0 109:0 110:0 111:0 112:0 113:0 114:0 115:0 116:0 117:0 118:0 119:0 120:0 121:0 122:0 123:0 124:0 125:0 126:0 127:0 128:0 
1 1 1 0.9313026704137221 1 1 0 1 0 1 0 0.2220148735304623 1 1 1 1 1 0.6100895633636827 1 0 0 0 0.621446997457364 0 0.5446003788845561 1:0 2:0 3:0 4:0 5:0 6:0 7:0 8:0 9:0 10:0 11:0 12:0 13:0 14:0 15:0 16:0 17:0 18:0 19:0 20:0 21:0 22:0 23:0 24:0 25:0 26:0 27:0 28:0 29:0 30:0 31:0 32:0 33:0 34:0 35:0 36:0 37:0 38:0 39:0 40:0 41:0 42:0 43:1 44:1 45:1 46:1 47:1 48:1 49:0 50:1 51:1 52:0 53:0 54:1 55:0 56:1 57:1 58:0 59:0 60:0 61:0 62:0 63:0 64:1 65:1 66:0 67:0 68:0 69:0 70:1 71:1 72:1 73:1 74:1 75:0 76:1 77:1 78:1 79:0 80:0 81:0 82:1 83:1 84:1 85:0 86:0 87:0 88:0 89:0 90:0 91:0 92:0 93:0 94:0 95:0 96:0 97:0 98:0 99:0 100:0 101:0 102:0 103:0 104:0 105:0 106:0 107:0 108:0 109:0 110:0 111:0 112:0 113:0 114:0 115:0 116:0 117:0 118:0 119:0 120:0 121:0 122:0 123:0 124:0 125:0 126:0 127:0 128:0 
0.493533291423117 1 1 1 1 1 1 1 1 1 1 1 1 1 1 1 1 1 1 1 0.5302515461970847 0.8020054943641555 1 0 1 1:0 2:0 3:0 4:1 5:1 6:1 7:1 8:1 9:0 10:0 11:1 12:1 13:0 14:0 15:0 16:0 17:0 18:0 19:1 20:0 21:0 22:0 23:0 24:1 25:0 26:0 27:1 28:0 29:0 30:0 31:0 32:1 33:0 34:1 35:1 36:0 37:0 38:0 39:1 40:1 41:0 42:1 43:0 44:0 45:0 46:0 47:1 48:0 49:0 50:1 51:0 52:0 53:0 54:0 55:1 56:0 57:0 58:1 59:0 60:0 61:0 62:1 63:0 64:0 65:0 66:1 67:0 68:0 69:0 70:1 71:0 72:0 73:0 74:1 75:0 76:0 77:1 78:1 79:0 80:0 81:0 82:1 83:0 84:0 85:1 86:0 87:0 88:0 89:1 90:1 91:0 92:1 93:1 94:0 95:0 96:0 97:1 98:0 99:0 100:1 101:0 102:0 103:0 104:0 105:1 106:0 107:1 108:1 109:0 110:0 111:0 112:0 113:1 114:0 115:1 116:0 117:0 118:0 119:0 120:0 121:1 122:1 123:1 124:0 125:0 126:0 127:0 128:0 
0 0 1 1 0.3126722433929388 1 0 0 0 0 0 0 0.2937409581181382 0.3532425490402915 0.1612805098546222 0 0 0 1 0 0 0 0 0 0 1:0 2:0 3:1 4:1 5:1 6:1 7:1 8:0 9:0 10:0 11:0 12:1 13:1 14:0 15:1 16:0 17:0 18:0 19:0 20:1 21:0 22:0 23:1 24:1 25:0 26:0 27:1 28:1 29:0 30:0 31:0 32:1 33:0 34:0 35:1 36:0 37:0 38:0 39:0 40:1 41:0 42:0 43:1 44:0 45:0 46:0 47:0 48:1 49:0 50:0 51:1 52:0 53:0 54:0 55:0 56:1 57:0 58:1 59:1 60:0 61:0 62:0 63:0 64:1 65:0 66:1 67:0 68:0 69:0 70:0 71:0 72:1 73:0 74:1 75:0 76:0 77:0 78:0 79:1 80:1 81:1 82:1 83:0 84:0 85:0 86:0 87:1 88:0 89:1 90:0 91:0 92:0 93:0 94:0 95:1 96:0 97:1 98:0 99:0 100:0 101:0 102:1 103:1 104:0 105:1 106:0 107:0 108:0 109:1 110:1 111:0 112:0 113:1 114:1 115:0 116:1 117:1 118:0 119:0 120:0 121:0 122:1 123:1 124:1 125:0 126:0 127:0 128:0 
0 0 0.6848446941783833 0 0 0 0 0 0 0 0.2134914446854566 0 0 0 0 0 0 0 0 0 0 0 0 0 0 1:0 2:0 3:0 4:0 5:0 6:0 7:0 8:0 9:0 10:0 11:0 12:0 13:0 14:0 15:0 16:0 17:0 18:0 19:0 20:1 21:0 22:0 23:0 24:0 25:0 26:1 27:1 28:1 29:1 30:1 31:1 32:0 33:1 34:1 35:0 36:1 37:1 38:0 39:1 40:1 41:1 42:0 43:1 44:1 45:0 46:0 47:0 48:1 49:0 50:1 51:1 52:0 53:0 54:0 55:0 56:1 57:0 58:1 59:0 60:0 61:0 62:0 63:0 64:1 65:0 66:1 67:0 68:0 69:0 70:0 71:0 72:1 73:1 74:1 75:0 76:0 77:0 78:0 79:1 80:1 81:1 82:0 83:0 84:0 85:0 86:1 87:1 88:0 89:1 90:0 91:0 92:0 93:0 94:1 95:0 96:0 97:1 98:1 99:0 100:1 101:1 102:1 103:0 104:0 105:0 106:1 107:1 108:1 109:0 110:0 111:0 112:0 113:0 114:0 115:0 116:0 117:0 118:0 119:0 120:0 121:0 122:0 123:0 124:0 125:0 126:0 127:0 128:0 
0 0 0 0 0 0 0 0 0 0 0.07102760785013605 0 0.7029359814642325 0 0 1 1 0 1 0.3126398206220547 0 0 0 0 0.7866755425896823 1:0 2:0 3:0 4:0 5:1 6:1 7:1 8:1 9:0 10:0 11:1 12:1 13:1 14:0 15:0 16:1 17:0 18:1 19:1 20:0 21:0 22:0 23:0 24:1 25:1 26:0 27:0 28:0 29:0 30:0 31:0 32:1 33:1 34:0 35:0 36:0 37:0 38:0 39:0 40:1 41:0 42:1 43:0 44:0 45:0 46:0 47:0 48:1 49:0 50:1 51:0 52:0 53:0 54:0 55:0 56:1 57:1 58:1 59:0 60:0 61:0 62:0 63:0 64:1 65:1 66:0 67:0 68:0 69:0 70:0 71:0 72:1 73:1 74:0 75:0 76:0 77:0 78:0 79:1 80:1 81:1 82:0 83:0 84:0 85:0 86:1 87:1 88:0 89:1 90:0 91:0 92:0 93:1 94:1 95:0 96:0 97:1 98:0 99:0 100:1 101:1 102:0 103:0 104:0 105:1 106:0 107:1 108:1 109:0 110:0 111:0 112:0 113:1 114:1 115:0 116:0 117:0 118:0 119:0 120:0 121:1 122:0 123:0 124:0 125:0 126:0 127:0 128:0 
0.4182525513707551 0 1 1 0.4008181930070346 1 0.4066423741402518 0 0 0 1 0.0455691498049467 0 0.6128393262130322 1 0 0 0.1540996765037781 0 0 0.2196434267378251 0 0.2453439435335109 0 0 1:0 2:0 3:0 4:0 5:0 6:0 7:0 8:1 9:0 10:0 11:0 12:0 13:0 14:0 15:1 16:0 17:0 18:0 19:0 20:0 21:0 22:1 23:0 24:0 25:0 26:0 27:0 28:0 29:1 30:0 31:0 32:0 33:0 34:0 35:0 36:1 37:1 38:1 39:1 40:1 41:0 42:0 43:1 44:1 45:0 46:0 47:0 48:1 49:0 50:0 51:1 52:0 53:0 54:0 55:0 56:1 57:0 58:0 59:1 60:0 61:0 62:0 63:0 64:1 65:0 66:1 67:0 68:0 69:0 70:0 71:0 72:1 73:0 74:1 75:0 76:0 77:0 78:0 79:0 80:1 81:1 82:0 83:0 84:0 85:0 86:0 87:0 88:1 89:1 90:0 91:0 92:0 93:0 94:0 95:0 96:1 97:1 98:0 99:0 100:0 101:0 102:0 103:1 104:1 105:1 106:0 107:0 108:0 109:0 110:1 111:1 112:0 113:1 114:0 115:0 116:0 117:1 118:1 119:0 120:0 121:1 122:1 123:1 124:1 125:1 126:0 127:0 128:0 
1 1 1 1 1 1 1 1 1 1 1 1 1 1 0.2880897645099948 1 1 1 0.7937856724014273 1 0.2444059750223267 0 1 0.2713804530694256 1 1:0 2:0 3:0 4:0 5:0 6:0 7:0 8:0 9:0 10:0 11:0 12:0 13:0 14:0 15:0 16:0 17:0 18:0 19:0 20:0 21:0 22:0 23:0 24:0 25:0 26:0 27:0 28:0 29:0 30:0 31:0 32:0 33:0 34:0 35:1 36:0 37:0 38:0 39:0 40:0 41:0 42:0 43:1 44:0 45:0 46:0 47:0 48:0 49:0 50:0 51:1 52:0 53:0 54:0 55:0 56:0 57:0 58:0 59:1 60:0 61:0 62:0 63:0 64:0 65:1 66:1 67:1 68:1 69:1 70:1 71:1 72:1 73:1 74:0 75:0 76:0 77:0 78:0 79:0 80:1 81:1 82:0 83:0 84:0 85:0 86:0 87:1 88:1 89:1 90:1 91:1 92:1 93:1 94:1 95:1 96:0 97:0 98:0 99:0 100:0 101:0 102:0 103:0 104:0 105:0 106:0 107:0 108:0 109:0 110:0 111:0 112:0 113:0 114:0 115:0 116:0 117:0 118:0 119:0 120:0 121:0 122:0 123:0 124:0 125:0 126:0 127:0 128:0 
1 1 1 1 1 1 1 1 1 1 1 1 1 1 1 1 1 1 1 1 1 0.2634190508643543 1 0.8882474607640307 1 1:0 2:0 3:0 4:0 5:0 6:0 7:0 8:0 9:0 10:0 11:0 12:0 13:0 14:0 15:0 16:0 17:0 18:0 19:0 20:0 21:0 22:0 23:0 24:0 25:0 26:0 27:0 28:0 29:0 30:0 31:0 32:0 33:0 34:0 35:0 36:0 37:0 38:0 39:0 40:0 41:0 42:0 43:0 44:0 45:0 46:0 47:0 48:0 49:0 50:0 51:1 52:1 53:0 54:0 55:0 56:1 57:0 58:1 59:1 60:0 61:0 62:0 63:0 64:1 65:0 66:1 67:0 68:0 69:0 70:0 71:1 72:1 73:1 74:1 75:1 76:1 77:1 78:1 79:1 80:0 81:0 82:0 83:0 84:0 85:0 86:0 87:0 88:0 89:0 90:0 91:0 92:0 93:0 94:0 95:0 96:0 97:0 98:0 99:0 100:0 101:0 102:0 103:0 104:0 105:0 106:0 107:0 108:0 109:0 110:0 111:0 112:0 113:0 114:0 115:0 116:0 117:0 118:0 119:0 120:0 121:0 122:0 123:0 124:0 125:0 126:0 127:0 128:0 
0 0 0 0 0 0 0 0 1 0 0 0 0 0 0 1 1 0 0 0.2051336402727333 0 0 0 0 0 1:0 2:0 3:0 4:0 5:0 6:0 7:0 8:0 9:0 10:0 11:0 12:0 13:0 14:0 15:0 16:0 17:0 18:0 19:0 20:0 21:0 22:0 23:0 24:0 25:0 26:1 27:0 28:0 29:1 30:1 31:1 32:1 33:1 34:1 35:0 36:0 37:0 38:0 39:0 40:1 41:1 42:0 43:0 44:0 45:0 46:0 47:0 48:1 49:1 50:0 51:0 52:0 53:0 54:0 55:0 56:1 57:1 58:0 59:0 60:0 61:0 62:0 63:0 64:1 65:1 66:0 67:0 68:0 69:0 70:0 71:0 72:1 73:1 74:0 75:0 76:0 77:0 78:0 79:1 80:1 81:1 82:0 83:0 84:0 85:0 86:1 87:1 88:0 89:1 90:0 91:0 92:0 93:1 94:1 95:0 96:0 97:1 98:1 99:1 100:1 101:1 102:0 103:0 104:0 105:0 106:0 107:0 108:0 109:0 110:0 111:0 112:0 113:0 114:0 115:0 116:0 117:0 118:0 119:0 120:0 121:0 122:0 123:0 124:0 125:0 126:0 127:0 128:0 
0 0 0 0 0 0 0 0 0 0 0 0 0 0 0 0 1 0 0 0 0 0 0 0 0 1:0 2:0 3:0 4:0 5:0 6:0 7:0 8:0 9:0 10:0 11:0 12:0 13:0 14:0 15:0 16:0 17:0 18:0 19:0 20:0 21:0 22:0 23:0 24:0 25:0 26:0 27:1 28:1 29:1 30:1 31:0 32:0 33:1 34:1 35:1 36:0 37:0 38:1 39:1 40:1 41:1 42:0 43:0 44:0 45:0 46:0 47:0 48:1 49:1 50:0 51:0 52:0 53:0 54:0 55:0 56:1 57:1 58:0 59:0 60:0 61:0 62:0 63:0 64:1 65:1 66:0 67:0 68:0 69:0 70:0 71:0 72:1 73:1 74:0 75:0 76:0 77:0 78:0 79:0 80:1 81:1 82:0 83:0 84:0 85:0 86:0 87:1 88:1 89:1 90:0 91:0 92:0 93:0 94:1 95:1 96:0 97:1 98:1 99:1 100:1 101:1 102:1 103:0 104:0 105:0 106:0 107:0 108:0 109:0 110:0 111:0 112:0 113:0 114:0 115:0 116:0 117:0 118:0 119:0 120:0 121:0 122:0 123:0 124:0 125:0 126:0 127:0 128:0 
0 0 0 0 0 0 0 0 0 0 0.1313160165234314 0 0 0 0 0 0 0 0 0 0 0 0 0 0 1:0 2:0 3:0 4:0 5:0 6:0 7:0 8:0 9:0 10:0 11:0 12:0 13:0 14:0 15:0 16:0 17:0 18:1 19:1 20:1 21:1 22:1 23:0 24:0 25:1 26:1 27:0 28:0 29:0 30:1 31:1 32:0 33:1 34:0 35:0 36:0 37:0 38:0 39:1 40:1 41:1 42:1 43:0 44:0 45:0 46:0 47:0 48:1 49:1 50:1 51:0 52:0 53:0 54:0 55:0 56:1 57:1 58:0 59:0 60:0 61:0 62:0 63:0 64:1 65:1 66:0 67:0 68:0 69:0 70:0 71:0 72:1 73:1 74:0 75:0 76:0 77:0 78:0 79:0 80:1 81:1 82:0 83:0 84:0 85:0 86:0 87:1 88:1 89:1 90:0 91:0 92:0 93:0 94:0 95:1 96:0 97:1 98:0 99:0 100:0 101:1 102:1 103:1 104:0 105:1 106:1 107:1 108:1 109:1 110:0 111:0 112:0 113:0 114:0 115:0 116:0 117:0 118:0 119:0 120:0 121:0 122:0 123:0 124:0 125:0 126:0 127:0 128:0 
0 0 0 0 0 0 0 0 1 0.599443656690731 0 0 0 0 0 0.4894195543407119 0 0 0 0 0 0 0 0 0 1:0 2:0 3:0 4:0 5:0 6:0 7:0 8:0 9:0 10:0 11:0 12:0 13:0 14:0 15:0 16:0 17:0 18:0 19:1 20:1 21:0 22:1 23:1 24:1 25:0 26:0 27:1 28:0 29:0 30:0 31:0 32:1 33:0 34:1 35:1 36:0 37:0 38:0 39:0 40:1 41:0 42:1 43:0 44:0 45:0 46:0 47:0 48:1 49:1 50:1 51:0 52:0 53:0 54:0 55:0 56:1 57:1 58:0 59:0 60:0 61:0 62:0 63:0 64:1 65:1 66:0 67:0 68:0 69:0 70:0 71:0 72:1 73:1 74:0 75:0 76:0 77:0 78:0 79:1 80:0 81:1 82:0 83:0 84:0 85:0 86:0 87:1 88:0 89:1 90:0 91:0 92:1 93:1 94:1 95:1 96:0 97:1 98:0 99:0 100:1 101:0 102:0 103:0 104:0 105:0 106:1 107:1 108:1 109:0 110:0 111:0 112:0 113:0 114:0 115:0 116:0 117:0 118:0 119:0 120:0 121:0 122:0 123:0 124:0 125:0 126:0 127:0 128:0 
0 0 0 0.2995087777293413 0 0 0 0 0 0 0 0.08570379237092436 0.3263645612079009 0 0.1011103047985774 0 1 0 0 0 0 0 0 0 0 1:0 2:0 3:0 4:0 5:0 6:0 7:0 8:0 9:0 10:0 11:0 12:0 13:0 14:0 15:0 16:0 17:0 18:0 19:0 20:0 21:1 22:1 23:1 24:1 25:0 26:0 27:0 28:1 29:1 30:0 31:0 32:1 33:0 34:0 35:1 36:1 37:0 38:0 39:0 40:1 41:0 42:0 43:1 44:0 45:0 46:0 47:0 48:1 49:0 50:0 51:0 52:0 53:0 54:0 55:0 56:1 57:0 58:1 59:0 60:0 61:0 62:0 63:0 64:1 65:1 66:0 67:0 68:0 69:0 70:0 71:1 72:1 73:1 74:0 75:0 76:0 77:0 78:1 79:1 80:0 81:1 82:0 83:0 84:0 85:1 86:1 87:0 88:0 89:1 90:0 91:0 92:1 93:1 94:0 95:0 96:0 97:1 98:1 99:1 100:1 101:0 102:0 103:0 104:0 105:0 106:1 107:1 108:0 109:0 110:0 111:0 112:0 113:0 114:0 115:0 116:0 117:0 118:0 119:0 120:0 121:0 122:0 123:0 124:0 125:0 126:0 127:0 128:0 
0 1 0 0 0 0 0 0 0 0 0 0 0 0 0 0 0 0 0 0 0 0 0 0 0 1:0 2:0 3:0 4:0 5:0 6:0 7:0 8:0 9:0 10:0 11:0 12:0 13:0 14:0 15:0 16:0 17:0 18:0 19:0 20:0 21:0 22:0 23:0 24:0 25:0 26:0 27:0 28:0 29:1 30:1 31:1 32:0 33:0 34:0 35:0 36:1 37:1 38:0 39:1 40:1 41:0 42:0 43:1 44:1 45:0 46:0 47:0 48:1 49:0 50:1 51:0 52:0 53:0 54:0 55:0 56:1 57:1 58:1 59:0 60:0 61:0 62:0 63:0 64:1 65:1 66:0 67:0 68:0 69:0 70:0 71:1 72:1 73:1 74:0 75:0 76:0 77:0 78:1 79:1 80:0 81:1 82:0 83:0 84:0 85:1 86:1 87:0 88:0 89:1 90:1 91:1 92:0 93:1 94:0 95:0 96:0 97:0 98:0 99:1 100:1 101:0 102:0 103:0 104:0 105:0 106:0 107:0 108:0 109:0 110:0 111:0 112:0 113:0 114:0 115:0 116:0 117:0 118:0 119:0 120:0 121:0 122:0 123:0 124:0 125:0 126:0 127:0 128:0 
0 1 0 0 0 0 0 0 0 0 0.9776336922664579 0 0 0 0 0 1 0 0 0 0 0 0 0 0 1:0 2:0 3:0 4:0 5:0 6:0 7:0 8:0 9:0 10:0 11:0 12:0 13:0 14:0 15:0 16:0 17:0 18:0 19:0 20:0 21:0 22:0 23:0 24:0 25:0 26:0 27:1 28:1 29:1 30:1 31:1 32:1 33:0 34:0 35:1 36:0 37:0 38:0 39:0 40:1 41:0 42:1 43:1 44:0 45:0 46:0 47:0 48:1 49:1 50:1 51:0 52:0 53:0 54:0 55:0 56:1 57:1 58:0 59:0 60:0 61:0 62:0 63:0 64:1 65:1 66:0 67:0 68:0 69:0 70:0 71:1 72:1 73:1 74:0 75:0 76:0 77:0 78:0 79:1 80:0 81:1 82:0 83:0 84:0 85:0 86:1 87:1 88:0 89:1 90:0 91:0 92:0 93:1 94:1 95:0 96:0 97:1 98:1 99:1 100:1 101:1 102:0 103:0 104:0 105:0 106:0 107:0 108:0 109:0 110:0 111:0 112:0 113:0 114:0 115:0 116:0 117:0 118:0 119:0 120:0 121:0 122:0 123:0 124:0 125:0 126:0 127:0 128:0 
0 1 0 1 0 0.5042991479895749 0 0.4473933542653172 1 1 0 0 0.7580424787482652 0.1892021207160839 0.5974793358082777 1 1 0 1 0 0 0 0 0 0 1:0 2:0 3:0 4:1 5:1 6:0 7:0 8:0 9:0 10:0 11:1 12:1 13:1 14:1 15:1 16:1 17:0 18:1 19:1 20:1 21:0 22:0 23:0 24:1 25:0 26:1 27:0 28:0 29:0 30:0 31:0 32:1 33:0 34:1 35:0 36:0 37:0 38:0 39:0 40:1 41:1 42:0 43:0 44:0 45:0 46:0 47:0 48:1 49:1 50:0 51:0 52:0 53:0 54:0 55:1 56:1 57:1 58:0 59:0 60:0 61:0 62:0 63:1 64:0 65:1 66:0 67:0 68:0 69:0 70:0 71:1 72:0 73:1 74:0 75:0 76:0 77:0 78:0 79:1 80:0 81:1 82:0 83:0 84:0 85:0 86:1 87:1 88:0 89:1 90:0 91:0 92:0 93:0 94:1 95:0 96:0 97:1 98:0 99:0 100:0 101:1 102:1 103:0 104:0 105:1 106:0 107:0 108:0 109:1 110:0 111:0 112:0 113:1 114:0 115:0 116:1 117:1 118:0 119:0 120:0 121:1 122:1 123:1 124:1 125:0 126:0 127:0 128:0 
0.06669300273207404 1 1 0 0 0.6573056029177203 0 0 0 0 0.6908417369557484 0 0 0 0 0 0 0 0 0 0 0 0 0 0 1:0 2:0 3:0 4:0 5:0 6:0 7:0 8:0 9:0 10:0 11:0 12:0 13:0 14:0 15:0 16:0 17:0 18:1 19:1 20:0 21:0 22:0 23:0 24:0 25:0 26:0 27:1 28:1 29:0 30:0 31:0 32:0 33:1 34:1 35:0 36:1 37:1 38:1 39:0 40:0 41:1 42:0 43:0 44:0 45:0 46:1 47:1 48:0 49:1 50:0 51:0 52:0 53:0 54:0 55:1 56:0 57:1 58:0 59:0 60:0 61:0 62:0 63:1 64:1 65:1 66:0 67:0 68:0 69:0 70:0 71:0 72:1 73:1 74:0 75:0 76:0 77:0 78:0 79:0 80:1 81:1 82:0 83:0 84:0 85:0 86:0 87:0 88:1 89:1 90:0 91:0 92:0 93:0 94:0 95:0 96:1 97:1 98:1 99:0 100:0 101:0 102:0 103:1 104:1 105:0 106:1 107:1 108:1 109:1 110:1 111:1 112:0 113:0 114:0 115:0 116:0 117:0 118:0 119:0 120:0 121:0 122:0 123:0 124:0 125:0 126:0 127:0 128:0 
0 0 0 0 0 0 0 0 0.7753022773990756 0 0 0 0 0 0 0 0 0 0 0 0 0 0 0 0 1:0 2:0 3:0 4:0 5:0 6:0 7:0 8:0 9:0 10:0 11:0 12:0 13:0 14:0 15:0 16:0 17:0 18:0 19:0 20:0 21:0 22:0 23:0 24:0 25:0 26:0 27:0 28:0 29:0 30:0 31:0 32:0 33:0 34:0 35:1 36:1 37:1 38:1 39:1 40:1 41:0 42:0 43:0 44:1 45:0 46:0 47:0 48:1 49:1 50:1 51:1 52:1 53:0 54:0 55:0 56:1 57:1 58:0 59:0 60:0 61:0 62:0 63:0 64:1 65:1 66:0 67:0 68:0 69:0 70:0 71:0 72:1 73:1 74:0 75:0 76:0 77:0 78:0 79:0 80:1 81:1 82:1 83:0 84:0 85:0 86:1 87:1 88:1 89:0 90:1 91:1 92:1 93:1 94:1 95:0 96:0 97:0 98:0 99:0 100:0 101:0 102:0 103:0 104:0 105:0 106:0 107:0 108:0 109:0 110:0 111:0 112:0 113:0 114:0 115:0 116:0 117:0 118:0 119:0 120:0 121:0 122:0 123:0 124:0 125:0 126:0 127:0 128:0 
0 0 0 0 0 0 0 0 0 0 0.0261708240469855 0 0 0 0 0 0 0 0 0 0 0 0 0 0 1:0 2:0 3:0 4:0 5:0 6:0 7:0 8:0 9:0 10:0 11:0 12:0 13:0 14:0 15:0 16:0 17:0 18:0 19:0 20:1 21:1 22:1 23:1 24:1 25:0 26:1 27:1 28:1 29:0 30:0 31:0 32:1 33:1 34:1 35:1 36:0 37:0 38:0 39:0 40:1 41:1 42:1 43:0 44:0 45:0 46:0 47:0 48:1 49:1 50:0 51:0 52:0 53:0 54:0 55:0 56:1 57:1 58:0 59:0 60:0 61:0 62:0 63:0 64:1 65:1 66:0 67:0 68:0 69:0 70:0 71:0 72:1 73:1 74:0 75:0 76:0 77:0 78:0 79:1 80:1 81:1 82:0 83:0 84:0 85:0 86:1 87:1 88:0 89:1 90:0 91:0 92:0 93:1 94:1 95:0 96:0 97:1 98:1 99:0 100:1 101:1 102:0 103:0 104:0 105:0 106:1 107:1 108:1 109:0 110:0 111:0 112:0 113:0 114:0 115:0 116:0 117:0 118:0 119:0 120:0 121:0 122:0 123:0 124:0 125:0 126:0 127:0 128:0 
0 0.7992235381116098 0 0 0 0 0 0 1 1 0 0 0 0 0 0 0 0 0 0 0 0 0 0 0 1:0 2:0 3:0 4:0 5:0 6:0 7:0 8:0 9:0 10:0 11:0 12:0 13:0 14:0 15:0 16:0 17:0 18:0 19:0 20:0 21:0 22:0 23:0 24:0 25:0 26:0 27:0 28:0 29:0 30:0 31:0 32:0 33:0 34:0 35:0 36:1 37:1 38:1 39:0 40:0 41:0 42:1 43:1 44:1 45:0 46:1 47:1 48:0 49:1 50:1 51:0 52:0 53:0 54:0 55:1 56:0 57:1 58:0 59:0 60:0 61:0 62:0 63:0 64:1 65:1 66:0 67:0 68:0 69:0 70:0 71:0 72:1 73:1 74:0 75:0 76:0 77:0 78:0 79:1 80:1 81:1 82:1 83:0 84:0 85:0 86:0 87:1 88:0 89:0 90:1 91:1 92:1 93:1 94:1 95:1 96:0 97:0 98:0 99:0 100:0 101:0 102:0 103:0 104:0 105:0 106:0 107:0 108:0 109:0 110:0 111:0 112:0 113:0 114:0 115:0 116:0 117:0 118:0 119:0 120:0 121:0 122:0 123:0 124:0 125:0 126:0 127:0 128:0 
0 0.2253044778324987 1 0 0 1 0.3615986943044012 0 0 0 0.456311810979557 0 0 0.2681797397205569 1 0 0 0 0.4402006517663299 0.4631244999681416 0 0 0 0 0 1:0 2:0 3:0 4:0 5:0 6:0 7:0 8:0 9:0 10:0 11:0 12:0 13:0 14:0 15:0 16:0 17:1 18:1 19:1 20:1 21:1 22:0 23:0 24:0 25:1 26:1 27:0 28:0 29:1 30:0 31:0 32:0 33:0 34:1 35:1 36:0 37:1 38:1 39:0 40:0 41:0 42:1 43:0 44:0 45:0 46:1 47:0 48:0 49:1 50:0 51:0 52:0 53:0 54:1 55:1 56:0 57:1 58:0 59:0 60:0 61:0 62:0 63:1 64:1 65:1 66:0 67:0 68:0 69:0 70:0 71:0 72:1 73:1 74:0 75:0 76:0 77:0 78:0 79:0 80:1 81:1 82:1 83:0 84:0 85:0 86:0 87:0 88:1 89:0 90:1 91:0 92:0 93:0 94:0 95:0 96:1 97:0 98:1 99:0 100:0 101:0 102:0 103:0 104:1 105:0 106:1 107:1 108:1 109:1 110:1 111:1 112:1 113:0 114:0 115:0 116:0 117:0 118:0 119:0 120:0 121:0 122:0 123:0 124:0 125:0 126:0 127:0 128:0 
0 1 1 0.0279362160008108 0 1 0 1 0.6600508093903312 1 1 0 1 0.2097786679055398 0.8836886044352422 0 0 0 1 0 0 0 0 0 1 1:0 2:0 3:0 4:0 5:0 6:0 7:0 8:0 9:0 10:0 11:0 12:0 13:0 14:0 15:0 16:0 17:0 18:0 19:0 20:1 21:1 22:1 23:1 24:1 25:0 26:0 27:0 28:1 29:1 30:0 31:0 32:1 33:0 34:0 35:0 36:1 37:1 38:0 39:0 40:1 41:0 42:0 43:1 44:1 45:0 46:0 47:0 48:1 49:0 50:0 51:1 52:0 53:0 54:0 55:0 56:1 57:0 58:1 59:1 60:0 61:0 62:0 63:1 64:1 65:0 66:1 67:0 68:0 69:0 70:0 71:1 72:0 73:1 74:1 75:0 76:0 77:0 78:1 79:0 80:0 81:1 82:0 83:0 84:0 85:1 86:1 87:0 88:0 89:1 90:0 91:0 92:1 93:1 94:0 95:0 96:0 97:1 98:1 99:1 100:1 101:0 102:0 103:0 104:0 105:1 106:1 107:0 108:0 109:0 110:0 111:0 112:0 113:0 114:0 115:0 116:0 117:0 118:0 119:0 120:0 121:0 122:0 123:0 124:0 125:0 126:0 127:0 128:0 
0 0 0 0.1119643120396569 0 0 0 0 0 0 0 0 0 0 0 0 0 0 0 0 0 0 0 0 0 1:0 2:0 3:0 4:0 5:0 6:0 7:0 8:0 9:0 10:0 11:0 12:0 13:1 14:1 15:0 16:0 17:0 18:0 19:0 20:1 21:1 22:1 23:0 24:0 25:0 26:0 27:1 28:1 29:0 30:1 31:1 32:1 33:0 34:0 35:1 36:1 37:0 38:0 39:0 40:1 41:0 42:1 43:1 44:0 45:0 46:0 47:0 48:1 49:0 50:1 51:0 52:0 53:0 54:0 55:0 56:1 57:1 58:0 59:0 60:0 61:0 62:0 63:0 64:1 65:1 66:0 67:0 68:0 69:0 70:0 71:0 72:1 73:1 74:0 75:0 76:0 77:0 78:0 79:0 80:1 81:1 82:0 83:0 84:0 85:0 86:0 87:1 88:1 89:1 90:0 91:0 92:0 93:0 94:1 95:1 96:0 97:1 98:0 99:0 100:0 101:1 102:1 103:0 104:0 105:1 106:0 107:1 108:1 109:1 110:0 111:0 112:0 113:1 114:1 115:1 116:0 117:0 118:0 119:0 120:0 121:0 122:0 123:0 124:0 125:0 126:0 127:0 128:0 
0 1 1 0 0 0 0 1 0.6445944957464498 1 0 0 0 1 0 0.1542566702697612 1 0 0 0 0 0 0 0 0 1:0 2:0 3:0 4:0 5:0 6:0 7:0 8:0 9:0 10:0 11:0 12:0 13:0 14:0 15:0 16:0 17:0 18:0 19:0 20:0 21:0 22:0 23:0 24:0 25:0 26:0 27:0 28:0 29:0 30:0 31:0 32:0 33:0 34:0 35:0 36:0 37:0 38:0 39:0 40:0 41:0 42:0 43:1 44:1 45:1 46:1 47:1 48:1 49:0 50:1 51:1 52:0 53:0 54:0 55:0 56:1 57:1 58:1 59:0 60:0 61:0 62:0 63:0 64:1 65:1 66:0 67:0 68:0 69:0 70:0 71:1 72:1 73:1 74:1 75:0 76:0 77:0 78:1 79:1 80:0 81:0 82:1 83:1 84:1 85:1 86:1 87:0 88:0 89:0 90:0 91:0 92:0 93:0 94:0 95:0 96:0 97:0 98:0 99:0 100:0 101:0 102:0 103:0 104:0 105:0 106:0 107:0 108:0 109:0 110:0 111:0 112:0 113:0 114:0 115:0 116:0 117:0 118:0 119:0 120:0 121:0 122:0 123:0 124:0 125:0 126:0 127:0 128:0 
0 0 0.9944547713216614 0 0 0 0 0 0 0 0 0 0 0 0 0 0 0 0 0 0 0 0 0 0 1:0 2:0 3:0 4:0 5:0 6:0 7:0 8:0 9:0 10:0 11:0 12:0 13:0 14:0 15:0 16:0 17:0 18:0 19:0 20:0 21:0 22:0 23:0 24:0 25:0 26:0 27:0 28:1 29:1 30:0 31:0 32:0 33:0 34:1 35:1 36:1 37:1 38:0 39:0 40:0 41:1 42:1 43:0 44:1 45:1 46:1 47:0 48:0 49:1 50:0 51:0 52:0 53:0 54:1 55:1 56:1 57:1 58:0 59:0 60:0 61:0 62:0 63:0 64:1 65:1 66:0 67:0 68:0 69:0 70:0 71:0 72:1 73:1 74:0 75:0 76:0 77:0 78:0 79:0 80:1 81:1 82:0 83:0 84:0 85:0 86:0 87:0 88:1 89:1 90:1 91:0 92:0 93:0 94:0 95:0 96:1 97:0 98:1 99:1 100:1 101:1 102:1 103:1 104:1 105:0 106:0 107:0 108:0 109:0 110:0 111:0 112:0 113:0 114:0 115:0 116:0 117:0 118:0 119:0 120:0 121:0 122:0 123:0 124:0 125:0 126:0 127:0 128:0 
1 1 1 0 0 0 0 0 0 0.4461989474818484 0 0 0 0 0 0 1 0 0 0 0 0 0 0 0 1:0 2:0 3:0 4:0 5:0 6:0 7:0 8:0 9:0 10:0 11:0 12:0 13:0 14:0 15:0 16:0 17:0 18:0 19:0 20:0 21:0 22:0 23:0 24:0 25:0 26:0 27:0 28:0 29:0 30:0 31:0 32:0 33:0 34:0 35:0 36:0 37:0 38:0 39:0 40:0 41:0 42:0 43:1 44:1 45:1 46:1 47:1 48:1 49:0 50:1 51:1 52:0 53:0 54:1 55:0 56:1 57:1 58:1 59:0 60:0 61:0 62:0 63:0 64:1 65:1 66:0 67:0 68:0 69:0 70:0 71:0 72:1 73:1 74:0 75:0 76:0 77:1 78:1 79:1 80:1 81:1 82:1 83:1 84:1 85:1 86:0 87:0 88:0 89:0 90:0 91:0 92:0 93:0 94:0 95:0 96:0 97:0 98:0 99:0 100:0 101:0 102:0 103:0 104:0 105:0 106:0 107:0 108:0 109:0 110:0 111:0 112:0 113:0 114:0 115:0 116:0 117:0 118:0 119:0 120:0 121:0 122:0 123:0 124:0 125:0 126:0 127:0 128:0 
0 0.006971501251922711 0.676877652178307 0 0 0 0.4998363670872764 0 0 0.6590946511663125 0 0 0 0 0 0 0 1 0 0 0 0 0 0 0 1:0 2:0 3:0 4:0 5:0 6:0 7:0 8:0 9:0 10:0 11:0 12:0 13:0 14:0 15:0 16:0 17:0 18:0 19:0 20:1 21:0 22:0 23:0 24:0 25:0 26:1 27:1 28:1 29:1 30:0 31:0 32:0 33:1 34:1 35:1 36:0 37:1 38:1 39:0 40:0 41:1 42:0 43:0 44:0 45:0 46:1 47:0 48:0 49:1 50:0 51:0 52:0 53:0 54:1 55:1 56:0 57:1 58:0 59:0 60:0 61:0 62:0 63:1 64:1 65:1 66:0 67:0 68:0 69:0 70:0 71:0 72:1 73:1 74:0 75:0 76:0 77:0 78:0 79:0 80:1 81:1 82:1 83:0 84:0 85:0 86:0 87:0 88:1 89:0 90:1 91:0 92:0 93:0 94:0 95:0 96:1 97:0 98:1 99:1 100:1 101:0 102:1 103:1 104:1 105:0 106:0 107:0 108:1 109:1 110:1 111:0 112:0 113:0 114:0 115:0 116:0 117:0 118:0 119:0 120:0 121:0 122:0 123:0 124:0 125:0 126:0 127:0 128:0 
0.8285238263175818 1 0.7849072622022347 0 0 1 0 0.1863609166318276 0 1 0 0 0 0 0 0 0 0 1 0 0 0.1284378005163103 0 0 0 1:0 2:0 3:0 4:0 5:0 6:0 7:0 8:0 9:0 10:0 11:0 12:0 13:0 14:0 15:0 16:0 17:0 18:0 19:0 20:0 21:0 22:1 23:1 24:1 25:0 26:0 27:0 28:0 29:1 30:1 31:0 32:1 33:0 34:0 35:1 36:1 37:1 38:0 39:0 40:1 41:0 42:0 43:1 44:1 45:1 46:1 47:0 48:1 49:0 50:1 51:1 52:1 53:0 54:1 55:0 56:1 57:1 58:1 59:0 60:0 61:0 62:0 63:1 64:1 65:1 66:0 67:0 68:0 69:0 70:1 71:1 72:0 73:1 74:0 75:0 76:0 77:1 78:1 79:0 80:0 81:1 82:0 83:0 84:0 85:1 86:0 87:0 88:0 89:1 90:0 91:0 92:1 93:1 94:0 95:0 96:0 97:1 98:1 99:1 100:1 101:0 102:0 103:0 104:0 105:1 106:1 107:0 108:0 109:0 110:0 111:0 112:0 113:0 114:0 115:0 116:0 117:0 118:0 119:0 120:0 121:0 122:0 123:0 124:0 125:0 126:0 127:0 128:0 
0 0 0 0 0 0 0 0 0 0 0 0 0 0 0 0 1 0 0 0 0 0 0 0 0 1:0 2:0 3:0 4:0 5:0 6:0 7:0 8:0 9:0 10:0 11:0 12:0 13:0 14:0 15:0 16:0 17:0 18:0 19:0 20:0 21:0 22:0 23:0 24:0 25:0 26:0 27:0 28:0 29:0 30:0 31:0 32:0 33:0 34:1 35:1 36:1 37:1 38:1 39:1 40:0 41:1 42:0 43:0 44:0 45:0 46:0 47:1 48:1 49:1 50:0 51:0 52:0 53:0 54:0 55:0 56:1 57:1 58:0 59:0 60:0 61:0 62:0 63:0 64:1 65:1 66:0 67:0 68:0 69:0 70:0 71:0 72:1 73:1 74:0 75:0 76:0 77:0 78:0 79:0 80:1 81:1 82:0 83:0 84:0 85:0 86:0 87:1 88:1 89:1 90:1 91:1 92:1 93:1 94:1 95:1 96:0 97:0 98:0 99:0 100:0 101:0 102:0 103:0 104:0 105:0 106:0 107:0 108:0 109:0 110:0 111:0 112:0 113:0 114:0 115:0 116:0 117:0 118:0 119:0 120:0 121:0 122:0 123:0 124:0 125:0 126:0 127:0 128:0 
0 0 1 0 0 0 0 0 0 0 0 0 0 0 0 0 0 0 0 0 0 0 0 0 0 1:0 2:0 3:0 4:0 5:0 6:0 7:0 8:0 9:0 10:0 11:0 12:0 13:0 14:0 15:0 16:0 17:0 18:0 19:0 20:1 21:1 22:0 23:0 24:0 25:0 26:0 27:1 28:1 29:1 30:0 31:0 32:0 33:0 34:1 35:1 36:0 37:0 38:0 39:1 40:1 41:1 42:1 43:0 44:0 45:0 46:0 47:0 48:1 49:1 50:0 51:0 52:0 53:0 54:0 55:0 56:1 57:1 58:0 59:0 60:0 61:0 62:0 63:0 64:1 65:1 66:0 67:0 68:0 69:0 70:0 71:0 72:1 73:1 74:0 75:0 76:0 77:0 78:0 79:0 80:1 81:1 82:0 83:0 84:0 85:0 86:0 87:1 88:1 89:1 90:0 91:0 92:0 93:0 94:0 95:1 96:0 97:1 98:0 99:0 100:0 101:0 102:1 103:0 104:0 105:1 106:1 107:1 108:1 109:1 110:0 111:0 112:0 113:0 114:0 115:0 116:0 117:0 118:0 119:0 120:0 121:0 122:0 123:0 124:0 125:0 126:0 127:0 128:0 
0 0 1 0 0 0 0 0 0 0 0 0 0 0 0 0 1 0 0 0 0 0 0 0 0 1:0 2:0 3:0 4:0 5:0 6:0 7:0 8:0 9:0 10:0 11:0 12:0 13:0 14:0 15:0 16:0 17:0 18:0 19:0 20:0 21:0 22:0 23:0 24:0 25:0 26:0 27:0 28:0 29:0 30:0 31:0 32:0 33:1 34:1 35:1 36:1 37:1 38:1 39:0 40:0 41:1 42:1 43:0 44:0 45:0 46:1 47:1 48:0 49:1 50:0 51:0 52:0 53:0 54:0 55:1 56:1 57:1 58:0 59:0 60:0 61:0 62:0 63:0 64:1 65:1 66:0 67:0 68:0 69:0 70:0 71:0 72:1 73:1 74:1 75:0 76:0 77:0 78:0 79:0 80:1 81:0 82:1 83:0 84:0 85:0 86:0 87:0 88:1 89:0 90:1 91:1 92:1 93:1 94:1 95:1 96:1 97:0 98:0 99:0 100:0 101:0 102:0 103:0 104:0 105:0 106:0 107:0 108:0 109:0 110:0 111:0 112:0 113:0 114:0 115:0 116:0 117:0 118:0 119:0 120:0 121:0 122:0 123:0 124:0 125:0 126:0 127:0 128:0 
0 0 1 0 0 0 0 0.8494865383772862 1 0.0338409194173603 0 0 0 0 0 1 1 0 0.4124758376921225 0 0 0 0 0 0 1:0 2:0 3:0 4:0 5:0 6:0 7:0 8:0 9:0 10:0 11:0 12:0 13:0 14:0 15:0 16:0 17:0 18:0 19:0 20:1 21:1 22:1 23:1 24:1 25:1 26:1 27:1 28:0 29:0 30:0 31:0 32:1 33:1 34:1 35:0 36:0 37:0 38:0 39:0 40:1 41:1 42:0 43:0 44:0 45:0 46:0 47:0 48:1 49:1 50:0 51:0 52:0 53:0 54:0 55:0 56:1 57:1 58:0 59:0 60:0 61:0 62:0 63:0 64:1 65:1 66:0 67:0 68:0 69:0 70:0 71:0 72:1 73:1 74:0 75:0 76:0 77:0 78:0 79:0 80:1 81:1 82:0 83:0 84:0 85:0 86:0 87:0 88:1 89:1 90:0 91:0 92:0 93:0 94:0 95:0 96:1 97:1 98:1 99:0 100:0 101:0 102:1 103:1 104:0 105:0 106:0 107:1 108:1 109:1 110:0 111:0 112:0 113:0 114:0 115:0 116:0 117:0 118:0 119:0 120:0 121:0 122:0 123:0 124:0 125:0 126:0 127:0 128:0 
0 0 1 0 0.7379560524940837 0 0 0 0.2088764346338575 0 0 0.2180926239514101 0 0 0 0 1 0 0 0 0 0 0 0 0 1:0 2:0 3:0 4:0 5:0 6:0 7:0 8:0 9:0 10:0 11:0 12:0 13:0 14:0 15:0 16:0 17:0 18:0 19:0 20:0 21:0 22:0 23:0 24:0 25:0 26:0 27:0 28:0 29:0 30:0 31:0 32:0 33:0 34:0 35:0 36:0 37:0 38:0 39:0 40:0 41:0 42:1 43:1 44:1 45:1 46:1 47:1 48:1 49:1 50:0 51:0 52:0 53:0 54:0 55:0 56:1 57:1 58:0 59:0 60:0 61:0 62:0 63:0 64:1 65:1 66:0 67:0 68:0 69:0 70:0 71:0 72:1 73:1 74:0 75:0 76:0 77:0 78:0 79:1 80:1 81:1 82:1 83:1 84:1 85:1 86:1 87:1 88:0 89:0 90:0 91:0 92:0 93:0 94:0 95:0 96:0 97:0 98:0 99:0 100:0 101:0 102:0 103:0 104:0 105:0 106:0 107:0 108:0 109:0 110:0 111:0 112:0 113:0 114:0 115:0 116:0 117:0 118:0 119:0 120:0 121:0 122:0 123:0 124:0 125:0 126:0 127:0 128:0 
0 0 0.7200444219315448 1 0 0.6020399166175863 0 1 1 1 0 0 0 0.7186807553460465 0 0 0 0 0 0 0 0 0.007893530526520434 0 0.4405140016813501 1:0 2:0 3:0 4:0 5:0 6:0 7:0 8:0 9:0 10:0 11:0 12:0 13:0 14:0 15:0 16:0 17:0 18:0 19:0 20:0 21:0 22:0 23:0 24:1 25:0 26:0 27:0 28:0 29:0 30:1 31:1 32:1 33:0 34:0 35:0 36:1 37:1 38:1 39:0 40:1 41:0 42:0 43:0 44:1 45:0 46:0 47:0 48:1 49:0 50:0 51:1 52:1 53:0 54:0 55:0 56:1 57:0 58:1 59:1 60:0 61:0 62:0 63:0 64:1 65:1 66:1 67:0 68:0 69:0 70:0 71:0 72:1 73:1 74:0 75:0 76:0 77:0 78:0 79:1 80:0 81:1 82:0 83:0 84:0 85:0 86:1 87:1 88:0 89:1 90:0 91:0 92:0 93:1 94:1 95:0 96:0 97:1 98:0 99:0 100:1 101:1 102:0 103:0 104:0 105:1 106:1 107:1 108:1 109:0 110:0 111:0 112:0 113:0 114:0 115:0 116:0 117:0 118:0 119:0 120:0 121:0 122:0 123:0 124:0 125:0 126:0 127:0 128:0 
1 1 1 1 1 1 1 1 0.6382475651056478 1 1 1 1 1 1 1 1 1 1 1 0.2522352784842495 0.3248677021730247 1 0.8821099314346377 1 1:0 2:0 3:0 4:0 5:0 6:0 7:0 8:0 9:0 10:0 11:0 12:0 13:0 14:0 15:0 16:0 17:0 18:0 19:0 20:0 21:0 22:0 23:0 24:0 25:0 26:0 27:0 28:0 29:0 30:0 31:0 32:0 33:0 34:0 35:0 36:0 37:0 38:0 39:0 40:0 41:0 42:0 43:0 44:0 45:1 46:1 47:1 48:1 49:0 50:0 51:1 52:1 53:1 54:0 55:0 56:1 57:0 58:1 59:1 60:1 61:0 62:0 63:1 64:1 65:1 66:1 67:0 68:0 69:0 70:1 71:1 72:0 73:1 74:0 75:0 76:1 77:1 78:1 79:0 80:0 81:1 82:1 83:1 84:1 85:0 86:0 87:0 88:0 89:0 90:0 91:0 92:0 93:0 94:0 95:0 96:0 97:0 98:0 99:0 100:0 101:0 102:0 103:0 104:0 105:0 106:0 107:0 108:0 109:0 110:0 111:0 112:0 113:0 114:0 115:0 116:0 117:0 118:0 119:0 120:0 121:0 122:0 123:0 124:0 125:0 126:0 127:0 128:0 
0 0 0 0 0 0 0 0.4887821828710912 0 0.0862355334254869 0 0 0 0 0 0.1166831696513441 0.781706502460814 0 0 0 0 0 0 0 0.6390234637092606 1:0 2:0 3:0 4:0 5:0 6:0 7:0 8:0 9:0 10:0 11:0 12:0 13:0 14:0 15:0 16:0 17:1 18:1 19:1 20:1 21:1 22:1 23:0 24:0 25:1 26:0 27:0 28:0 29:0 30:1 31:1 32:0 33:1 34:1 35:0 36:0 37:0 38:0 39:1 40:0 41:1 42:0 43:0 44:0 45:0 46:0 47:1 48:1 49:1 50:0 51:0 52:0 53:0 54:0 55:0 56:1 57:1 58:0 59:0 60:0 61:0 62:0 63:0 64:1 65:1 66:0 67:0 68:0 69:0 70:0 71:0 72:1 73:1 74:0 75:0 76:0 77:0 78:0 79:0 80:1 81:1 82:1 83:0 84:0 85:0 86:0 87:1 88:0 89:0 90:1 91:0 92:0 93:0 94:0 95:1 96:0 97:0 98:1 99:1 100:0 101:0 102:1 103:1 104:0 105:0 106:0 107:1 108:1 109:1 110:1 111:0 112:0 113:0 114:0 115:0 116:0 117:0 118:0 119:0 120:0 121:0 122:0 123:0 124:0 125:0 126:0 127:0 128:0 
0.5444495118696898 0 1 0 0.3481605702219579 1 0.1967497107408087 0 0 0.4459087356793997 1 0.1562777918917649 1 0.6282383777853062 1 1 1 0 0.5895372463410924 0 0 0.3363759211473352 0 0.1456695320380284 0 1:0 2:0 3:0 4:0 5:0 6:0 7:0 8:0 9:0 10:0 11:0 12:1 13:1 14:1 15:1 16:0 17:0 18:0 19:1 20:1 21:0 22:0 23:1 24:1 25:0 26:1 27:1 28:0 29:0 30:0 31:0 32:1 33:1 34:1 35:0 36:0 37:0 38:0 39:0 40:1 41:1 42:0 43:0 44:0 45:0 46:0 47:0 48:1 49:1 50:0 51:0 52:0 53:0 54:0 55:0 56:1 57:1 58:0 59:0 60:0 61:0 62:0 63:0 64:1 65:1 66:1 67:0 68:0 69:0 70:0 71:0 72:1 73:0 74:0 75:0 76:0 77:0 78:0 79:0 80:1 81:0 82:0 83:0 84:0 85:0 86:0 87:0 88:1 89:0 90:0 91:0 92:0 93:0 94:0 95:1 96:1 97:0 98:0 99:1 100:0 101:0 102:0 103:1 104:0 105:0 106:0 107:1 108:1 109:0 110:0 111:1 112:0 113:0 114:0 115:0 116:1 117:1 118:1 119:0 120:0 121:0 122:0 123:0 124:0 125:0 126:0 127:0 128:0 
0 1 1 1 1 1 1 0.2219654552361689 0 0 1 1 0.8052287614693712 1 1 1 1 1 0 1 0.2598421444132845 0 1 1 1 1:0 2:0 3:0 4:0 5:0 6:0 7:0 8:0 9:0 10:0 11:0 12:0 13:0 14:0 15:0 16:0 17:0 18:0 19:0 20:0 21:0 22:0 23:0 24:0 25:0 26:0 27:0 28:0 29:0 30:0 31:1 32:0 33:0 34:0 35:0 36:0 37:0 38:0 39:1 40:0 41:0 42:0 43:0 44:0 45:0 46:0 47:1 48:1 49:0 50:0 51:0 52:0 53:0 54:0 55:0 56:1 57:0 58:0 59:0 60:0 61:0 62:0 63:0 64:1 65:0 66:0 67:1 68:1 69:0 70:0 71:0 72:1 73:0 74:0 75:1 76:0 77:0 78:0 79:0 80:1 81:0 82:1 83:1 84:0 85:0 86:0 87:0 88:1 89:1 90:1 91:0 92:0 93:0 94:0 95:1 96:1 97:1 98:1 99:1 100:1 101:1 102:1 103:1 104:0 105:0 106:0 107:0 108:0 109:0 110:0 111:0 112:0 113:0 114:0 115:0 116:0 117:0 118:0 119:0 120:0 121:0 122:0 123:0 124:0 125:0 126:0 127:0 128:0 
1 1 1 0 0.5748877411057329 0 0 0 1 1 0.3136296944812829 0 0 1 0 0 1 0 0 0 0 0 0 0 0 1:0 2:0 3:0 4:0 5:0 6:0 7:0 8:0 9:0 10:0 11:0 12:0 13:0 14:0 15:0 16:0 17:0 18:0 19:0 20:0 21:0 22:0 23:0 24:0 25:0 26:0 27:0 28:0 29:0 30:0 31:0 32:0 33:0 34:0 35:0 36:0 37:0 38:0 39:0 40:0 41:0 42:0 43:1 44:1 45:1 46:1 47:0 48:0 49:1 50:1 51:1 52:0 53:0 54:1 55:1 56:0 57:1 58:0 59:0 60:0 61:0 62:0 63:1 64:1 65:1 66:0 67:0 68:0 69:0 70:0 71:0 72:1 73:1 74:0 75:0 76:0 77:0 78:0 79:0 80:1 81:1 82:1 83:1 84:1 85:1 86:1 87:1 88:1 89:0 90:0 91:0 92:0 93:0 94:0 95:0 96:0 97:0 98:0 99:0 100:0 101:0 102:0 103:0 104:0 105:0 106:0 107:0 108:0 109:0 110:0 111:0 112:0 113:0 114:0 115:0 116:0 117:0 118:0 119:0 120:0 121:0 122:0 123:0 124:0 125:0 126:0 127:0 128:0 
0.01485927003188797 1 1 1 1 1 1 0.8717300732240914 0.2741738211151086 1 1 1 1 1 1 1 0 1 1 1 0 1 1 0 1 1:0 2:0 3:0 4:0 5:0 6:0 7:0 8:0 9:0 10:0 11:0 12:0 13:0 14:0 15:0 16:0 17:1 18:1 19:1 20:0 21:0 22:0 23:0 24:0 25:1 26:1 27:1 28:0 29:0 30:0 31:0 32:0 33:0 34:1 35:1 36:1 37:1 38:0 39:0 40:0 41:0 42:1 43:0 44:0 45:1 46:1 47:0 48:0 49:0 50:1 51:0 52:0 53:0 54:1 55:1 56:0 57:0 58:1 59:0 60:0 61:0 62:0 63:1 64:0 65:0 66:1 67:1 68:0 69:0 70:0 71:1 72:1 73:0 74:0 75:1 76:0 77:0 78:0 79:0 80:1 81:0 82:0 83:1 84:0 85:0 86:0 87:0 88:1 89:0 90:0 91:1 92:1 93:0 94:0 95:0 96:1 97:0 98:0 99:0 100:1 101:0 102:0 103:0 104:1 105:0 106:0 107:0 108:1 109:1 110:0 111:1 112:1 113:0 114:0 115:0 116:0 117:1 118:1 119:1 120:0 121:0 122:0 123:0 124:0 125:0 126:0 127:0 128:0 
0.4362319939975524 0.6030582046524144 1 0 0 0 0 0 0.4932688047358693 0 0 0 0 0 0 1 1 0 0 0.6816388785888756 0 0 0 0.2172118131975317 0 1:0 2:0 3:0 4:0 5:0 6:0 7:0 8:0 9:0 10:0 11:0 12:0 13:0 14:0 15:0 16:0 17:0 18:0 19:0 20:0 21:0 22:0 23:0 24:0 25:0 26:0 27:0 28:0 29:0 30:0 31:0 32:0 33:0 34:0 35:0 36:0 37:0 38:0 39:0 40:0 41:1 42:1 43:1 44:1 45:1 46:1 47:1 48:0 49:1 50:0 51:0 52:0 53:0 54:0 55:1 56:1 57:1 58:0 59:0 60:0 61:0 62:0 63:0 64:1 65:1 66:0 67:0 68:0 69:0 70:0 71:0 72:1 73:1 74:1 75:0 76:0 77:0 78:0 79:1 80:1 81:0 82:1 83:1 84:1 85:1 86:1 87:1 88:0 89:0 90:0 91:0 92:0 93:0 94:0 95:0 96:0 97:0 98:0 99:0 100:0 101:0 102:0 103:0 104:0 105:0 106:0 107:0 108:0 109:0 110:0 111:0 112:0 113:0 114:0 115:0 116:0 117:0 118:0 119:0 120:0 121:0 122:0 123:0 124:0 125:0 126:0 127:0 128:0 
0 0 1 0 0 1 0 0 0 0.5810005969338525 0.5612429447067399 0 0.4725703282672341 0 0.6532306134622313 0 0 0 1 0 0 0 0 0 0 1:0 2:0 3:0 4:0 5:0 6:0 7:0 8:0 9:0 10:0 11:0 12:0 13:1 14:1 15:1 16:0 17:0 18:1 19:1 20:1 21:1 22:0 23:1 24:1 25:1 26:1 27:0 28:0 29:0 30:0 31:0 32:1 33:0 34:0 35:1 36:0 37:0 38:0 39:0 40:1 41:0 42:0 43:1 44:0 45:0 46:0 47:0 48:1 49:0 50:1 51:1 52:0 53:0 54:0 55:0 56:1 57:0 58:1 59:0 60:0 61:0 62:0 63:0 64:1 65:0 66:1 67:0 68:0 69:0 70:0 71:0 72:1 73:0 74:1 75:0 76:0 77:0 78:0 79:0 80:1 81:1 82:1 83:0 84:0 85:0 86:0 87:1 88:1 89:1 90:0 91:0 92:0 93:0 94:0 95:1 96:0 97:1 98:1 99:0 100:0 101:0 102:1 103:1 104:0 105:0 106:1 107:0 108:1 109:1 110:1 111:0 112:0 113:0 114:1 115:1 116:1 117:0 118:0 119:0 120:0 121:0 122:0 123:0 124:0 125:0 126:0 127:0 128:0 
0 0 0 0 0 0 0 0 0 0 0 0 0 0 0 0 1 0 0 0 0 0 0 0 0 1:0 2:0 3:0 4:0 5:0 6:0 7:0 8:0 9:0 10:0 11:0 12:0 13:0 14:0 15:0 16:0 17:0 18:0 19:0 20:0 21:0 22:0 23:0 24:0 25:0 26:1 27:1 28:1 29:1 30:1 31:1 32:0 33:0 34:1 35:0 36:0 37:0 38:0 39:1 40:1 41:1 42:1 43:0 44:0 45:0 46:0 47:0 48:1 49:1 50:0 51:0 52:0 53:0 54:0 55:0 56:1 57:1 58:0 59:0 60:0 61:0 62:0 63:0 64:1 65:1 66:0 67:0 68:0 69:0 70:0 71:0 72:1 73:1 74:0 75:0 76:0 77:0 78:0 79:1 80:1 81:1 82:0 83:0 84:0 85:0 86:1 87:1 88:0 89:1 90:0 91:0 92:0 93:1 94:1 95:0 96:0 97:1 98:1 99:1 100:1 101:1 102:0 103:0 104:0 105:0 106:0 107:0 108:0 109:0 110:0 111:0 112:0 113:0 114:0 115:0 116:0 117:0 118:0 119:0 120:0 121:0 122:0 123:0 124:0 125:0 126:0 127:0 128:0 
1 1 1 0 0 0.4587723180069503 0.5056043413789665 1 0 1 0.2098084655846036 0 0.02903070968861158 0.6879024996757527 0 0 1 1 0.04187858845462113 0 0 0 1 0 1 1:0 2:0 3:0 4:0 5:0 6:0 7:0 8:0 9:0 10:0 11:0 12:0 13:0 14:0 15:0 16:0 17:0 18:0 19:0 20:0 21:0 22:0 23:0 24:0 25:0 26:0 27:0 28:0 29:0 30:0 31:0 32:0 33:0 34:0 35:0 36:0 37:0 38:0 39:0 40:0 41:1 42:1 43:1 44:1 45:1 46:1 47:0 48:0 49:1 50:0 51:0 52:1 53:0 54:1 55:1 56:1 57:1 58:0 59:0 60:0 61:0 62:0 63:0 64:1 65:1 66:0 67:0 68:0 69:0 70:0 71:0 72:1 73:1 74:1 75:0 76:0 77:0 78:0 79:0 80:1 81:0 82:1 83:1 84:1 85:1 86:1 87:1 88:1 89:0 90:0 91:0 92:0 93:0 94:0 95:0 96:0 97:0 98:0 99:0 100:0 101:0 102:0 103:0 104:0 105:0 106:0 107:0 108:0 109:0 110:0 111:0 112:0 113:0 114:0 115:0 116:0 117:0 118:0 119:0 120:0 121:0 122:0 123:0 124:0 125:0 126:0 127:0 128:0 
0 0 1 0 0 0 0 0 0 0 0 0 0 0 0 0 0 0 0 0 0 0 0 0 0 1:0 2:0 3:0 4:0 5:0 6:0 7:0 8:0 9:0 10:0 11:0 12:0 13:0 14:0 15:0 16:0 17:0 18:0 19:0 20:0 21:0 22:0 23:0 24:0 25:0 26:1 27:1 28:1 29:1 30:0 31:0 32:0 33:1 34:1 35:1 36:0 37:1 38:1 39:1 40:0 41:1 42:0 43:0 44:0 45:0 46:0 47:1 48:1 49:1 50:0 51:0 52:0 53:0 54:0 55:0 56:1 57:1 58:0 59:0 60:0 61:0 62:0 63:0 64:1 65:1 66:0 67:0 68:0 69:0 70:0 71:0 72:1 73:1 74:0 75:0 76:0 77:0 78:0 79:0 80:1 81:1 82:1 83:0 84:0 85:0 86:0 87:0 88:1 89:0 90:1 91:0 92:0 93:0 94:0 95:0 96:1 97:0 98:1 99:1 100:1 101:1 102:1 103:1 104:1 105:0 106:0 107:0 108:0 109:0 110:0 111:0 112:0 113:0 114:0 115:0 116:0 117:0 118:0 119:0 120:0 121:0 122:0 123:0 124:0 125:0 126:0 127:0 128:0 
0 0 0.5087018504235319 0 0 0 0 0 0 0.3860645544454225 0 0 0 0 0 0 0 0 0 0 0 0 0 0 0 1:0 2:0 3:0 4:0 5:0 6:0 7:0 8:0 9:0 10:0 11:0 12:0 13:0 14:0 15:0 16:0 17:0 18:0 19:0 20:0 21:0 22:0 23:0 24:0 25:0 26:0 27:0 28:1 29:1 30:1 31:1 32:1 33:0 34:0 35:1 36:1 37:0 38:0 39:0 40:1 41:0 42:0 43:1 44:1 45:0 46:0 47:0 48:1 49:0 50:1 51:1 52:0 53:0 54:0 55:0 56:1 57:0 58:1 59:0 60:0 61:0 62:0 63:0 64:1 65:1 66:1 67:0 68:0 69:0 70:0 71:1 72:1 73:1 74:0 75:0 76:0 77:0 78:0 79:1 80:0 81:1 82:0 83:0 84:0 85:0 86:1 87:1 88:0 89:1 90:0 91:0 92:0 93:1 94:1 95:0 96:0 97:1 98:1 99:1 100:1 101:1 102:0 103:0 104:0 105:0 106:0 107:0 108:0 109:0 110:0 111:0 112:0 113:0 114:0 115:0 116:0 117:0 118:0 119:0 120:0 121:0 122:0 123:0 124:0 125:0 126:0 127:0 128:0 
0 0 0 0 0 0 0 0 0.5377905994707062 0 0 0 0 0 0 0 0 0 0 0 0 0 0 0 0 1:0 2:0 3:0 4:0 5:0 6:0 7:0 8:0 9:0 10:0 11:0 12:0 13:0 14:0 15:0 16:0 17:0 18:0 19:0 20:1 21:1 22:1 23:1 24:0 25:0 26:0 27:1 28:1 29:0 30:0 31:0 32:1 33:0 34:1 35:1 36:0 37:0 38:0 39:0 40:1 41:1 42:1 43:1 44:0 45:0 46:0 47:0 48:1 49:1 50:0 51:0 52:0 53:0 54:0 55:0 56:1 57:1 58:0 59:0 60:0 61:0 62:0 63:0 64:1 65:1 66:0 67:0 68:0 69:0 70:0 71:0 72:1 73:1 74:0 75:0 76:0 77:0 78:0 79:0 80:1 81:1 82:1 83:0 84:0 85:0 86:0 87:1 88:1 89:1 90:1 91:0 92:0 93:0 94:1 95:0 96:0 97:1 98:1 99:0 100:1 101:1 102:1 103:0 104:0 105:0 106:1 107:1 108:1 109:0 110:0 111:0 112:0 113:0 114:0 115:0 116:0 117:0 118:0 119:0 120:0 121:0 122:0 123:0 124:0 125:0 126:0 127:0 128:0 
0 0 0 0 0 0 0 0 0 0 0 0 0 0 0 0 1 0 0 0 0 0 0 0 0 1:0 2:0 3:0 4:0 5:0 6:0 7:0 8:0 9:0 10:0 11:0 12:1 13:1 14:1 15:1 16:0 17:0 18:0 19:1 20:1 21:0 22:0 23:1 24:1 25:0 26:1 27:1 28:0 29:0 30:0 31:0 32:1 33:1 34:1 35:0 36:0 37:0 38:0 39:0 40:1 41:1 42:0 43:0 44:0 45:0 46:0 47:0 48:1 49:1 50:0 51:0 52:0 53:0 54:0 55:0 56:1 57:1 58:0 59:0 60:0 61:0 62:0 63:0 64:1 65:1 66:0 67:0 68:0 69:0 70:0 71:0 72:1 73:1 74:0 75:0 76:0 77:0 78:0 79:1 80:1 81:1 82:0 83:0 84:0 85:0 86:0 87:1 88:0 89:1 90:0 91:0 92:0 93:0 94:1 95:1 96:0 97:1 98:0 99:0 100:0 101:1 102:1 103:0 104:0 105:1 106:0 107:0 108:1 109:1 110:0 111:0 112:0 113:0 114:1 115:1 116:1 117:0 118:0 119:0 120:0 121:0 122:0 123:0 124:0 125:0 126:0 127:0 128:0 
0 0 0 0 0 0 0 0 0 0 0 0 0 0 0 0 1 0 0 0 0 0 0 0.03862422259757054 0 1:0 2:0 3:1 4:0 5:0 6:0 7:0 8:0 9:0 10:1 11:1 12:1 13:1 14:0 15:0 16:0 17:0 18:1 19:1 20:0 21:1 22:1 23:1 24:0 25:1 26:1 27:0 28:0 29:0 30:0 31:1 32:1 33:1 34:0 35:0 36:0 37:0 38:0 39:0 40:1 41:1 42:0 43:0 44:0 45:0 46:0 47:0 48:1 49:1 50:0 51:0 52:0 53:0 54:0 55:0 56:1 57:1 58:0 59:0 60:0 61:0 62:0 63:0 64:1 65:1 66:0 67:0 68:0 69:0 70:0 71:0 72:1 73:1 74:0 75:0 76:0 77:0 78:0 79:0 80:1 81:1 82:0 83:0 84:0 85:0 86:0 87:1 88:1 89:1 90:0 91:0 92:0 93:0 94:0 95:1 96:0 97:1 98:0 99:0 100:0 101:0 102:1 103:1 104:0 105:1 106:0 107:0 108:0 109:0 110:1 111:0 112:0 113:1 114:1 115:1 116:1 117:1 118:1 119:0 120:0 121:0 122:0 123:0 124:1 125:0 126:0 127:0 128:0 
0 0 0 0 0 0 0 0 0 0 0 0 0 0 0 0 0.1922719758274552 0 0 0 0 0 0 0 0 1:0 2:0 3:0 4:0 5:0 6:0 7:0 8:0 9:0 10:0 11:0 12:0 13:0 14:0 15:1 16:0 17:0 18:0 19:0 20:0 21:0 22:0 23:1 24:0 25:0 26:0 27:0 28:0 29:0 30:0 31:1 32:0 33:0 34:0 35:1 36:1 37:1 38:0 39:1 40:1 41:1 42:1 43:1 44:0 45:0 46:0 47:0 48:1 49:1 50:0 51:0 52:0 53:0 54:0 55:0 56:1 57:1 58:0 59:0 60:0 61:0 62:0 63:0 64:1 65:1 66:0 67:0 68:0 69:0 70:0 71:0 72:1 73:1 74:0 75:0 76:0 77:0 78:0 79:0 80:1 81:1 82:0 83:0 84:0 85:0 86:0 87:0 88:1 89:1 90:0 91:0 92:0 93:0 94:0 95:1 96:1 97:1 98:0 99:0 100:0 101:1 102:1 103:1 104:0 105:1 106:1 107:0 108:0 109:1 110:0 111:0 112:0 113:0 114:1 115:1 116:1 117:1 118:0 119:0 120:0 121:0 122:0 123:0 124:0 125:0 126:0 127:0 128:0 
0 1 1 0 0 0 0 0 1 0 0 0 0 0 0 0 1 0 0 0 0 0 0 0 0 1:0 2:0 3:0 4:0 5:0 6:0 7:0 8:0 9:0 10:0 11:0 12:0 13:0 14:0 15:0 16:0 17:0 18:0 19:0 20:0 21:0 22:0 23:0 24:0 25:0 26:0 27:0 28:0 29:0 30:0 31:0 32:0 33:0 34:0 35:0 36:0 37:0 38:0 39:0 40:0 41:0 42:0 43:1 44:1 45:1 46:1 47:1 48:0 49:1 50:1 51:0 52:1 53:0 54:0 55:1 56:1 57:1 58:0 59:0 60:0 61:0 62:0 63:0 64:1 65:1 66:0 67:0 68:0 69:0 70:0 71:0 72:1 73:1 74:0 75:0 76:0 77:0 78:0 79:1 80:1 81:1 82:1 83:1 84:1 85:1 86:1 87:1 88:0 89:0 90:0 91:0 92:0 93:0 94:0 95:0 96:0 97:0 98:0 99:0 100:0 101:0 102:0 103:0 104:0 105:0 106:0 107:0 108:0 109:0 110:0 111:0 112:0 113:0 114:0 115:0 116:0 117:0 118:0 119:0 120:0 121:0 122:0 123:0 124:0 125:0 126:0 127:0 128:0 
0.8067758334924817 1 1 0.2984633356143002 0 1 1 0.421929520771078 1 1 1 0.61751549936032 0 0 1 0 0 0.5454037770922633 0.2061329434232112 1 0 0.3872296117803431 0.03940915239430327 0 1 1:0 2:0 3:0 4:0 5:0 6:0 7:0 8:0 9:1 10:1 11:0 12:0 13:0 14:0 15:0 16:0 17:1 18:1 19:1 20:0 21:0 22:0 23:0 24:0 25:1 26:1 27:1 28:1 29:0 30:0 31:0 32:0 33:0 34:1 35:0 36:1 37:1 38:0 39:0 40:0 41:1 42:1 43:0 44:0 45:1 46:1 47:0 48:0 49:1 50:0 51:0 52:0 53:0 54:1 55:1 56:0 57:1 58:0 59:0 60:0 61:0 62:0 63:1 64:0 65:1 66:0 67:0 68:0 69:0 70:0 71:1 72:1 73:1 74:0 75:0 76:0 77:0 78:0 79:0 80:1 81:1 82:0 83:0 84:0 85:0 86:0 87:0 88:1 89:1 90:0 91:0 92:0 93:0 94:0 95:0 96:1 97:1 98:0 99:0 100:0 101:0 102:0 103:0 104:1 105:1 106:1 107:1 108:0 109:1 110:1 111:1 112:1 113:0 114:0 115:1 116:1 117:1 118:0 119:0 120:0 121:0 122:0 123:0 124:0 125:0 126:0 127:0 128:0 
0 0 1 0 0 0 0 0 1 0 0 0 0 0 0 0 0 0 0 0 0 0 0 0 0 1:0 2:0 3:0 4:0 5:0 6:0 7:0 8:0 9:0 10:0 11:0 12:0 13:0 14:0 15:0 16:0 17:0 18:0 19:0 20:0 21:0 22:0 23:0 24:0 25:0 26:0 27:0 28:0 29:0 30:0 31:0 32:0 33:0 34:0 35:0 36:1 37:1 38:1 39:0 40:0 41:0 42:1 43:1 44:1 45:0 46:1 47:1 48:1 49:1 50:1 51:0 52:0 53:0 54:0 55:0 56:1 57:1 58:0 59:0 60:0 61:0 62:0 63:0 64:1 65:1 66:0 67:0 68:0 69:0 70:0 71:0 72:1 73:1 74:0 75:0 76:0 77:0 78:0 79:0 80:1 81:1 82:1 83:0 84:0 85:0 86:0 87:0 88:1 89:0 90:1 91:1 92:1 93:1 94:1 95:1 96:0 97:0 98:0 99:0 100:0 101:0 102:0 103:0 104:0 105:0 106:0 107:0 108:0 109:0 110:0 111:0 112:0 113:0 114:0 115:0 116:0 117:0 118:0 119:0 120:0 121:0 122:0 123:0 124:0 125:0 126:0 127:0 128:0 
0 0 0.4846233505936985 0 0 0 0 0 0 0 0 0 0 0 0 0 0 0 0 0 0 0 0 0 0 1:0 2:0 3:0 4:0 5:0 6:0 7:0 8:0 9:0 10:0 11:0 12:0 13:0 14:0 15:0 16:0 17:0 18:0 19:0 20:0 21:0 22:0 23:0 24:0 25:0 26:1 27:1 28:1 29:1 30:1 31:1 32:0 33:1 34:1 35:1 36:0 37:0 38:0 39:1 40:0 41:1 42:1 43:0 44:0 45:0 46:0 47:1 48:1 49:1 50:0 51:0 52:0 53:0 54:0 55:0 56:1 57:1 58:0 59:0 60:0 61:0 62:0 63:0 64:1 65:1 66:0 67:0 68:0 69:0 70:0 71:0 72:1 73:1 74:0 75:0 76:0 77:0 78:0 79:0 80:1 81:1 82:0 83:0 84:0 85:0 86:0 87:0 88:1 89:1 90:1 91:0 92:0 93:0 94:0 95:1 96:1 97:0 98:1 99:1 100:1 101:1 102:1 103:1 104:0 105:0 106:0 107:0 108:0 109:0 110:0 111:0 112:0 113:0 114:0 115:0 116:0 117:0 118:0 119:0 120:0 121:0 122:0 123:0 124:0 125:0 126:0 127:0 128:0 
0 0 0 0 0 0 0 0 0.2317614349215983 0 0 0 0 0 0 0 0 0 0 0 0 0 0 0 0 1:0 2:0 3:0 4:0 5:0 6:0 7:0 8:0 9:0 10:0 11:0 12:0 13:0 14:0 15:0 16:0 17:0 18:0 19:0 20:0 21:0 22:0 23:0 24:0 25:0 26:0 27:0 28:0 29:0 30:0 31:0 32:0 33:0 34:0 35:1 36:1 37:1 38:1 39:1 40:1 41:0 42:1 43:1 44:0 45:0 46:0 47:0 48:1 49:0 50:1 51:0 52:0 53:0 54:0 55:0 56:1 57:0 58:1 59:0 60:0 61:0 62:0 63:0 64:1 65:1 66:0 67:0 68:0 69:0 70:0 71:0 72:1 73:1 74:0 75:0 76:0 77:0 78:0 79:1 80:1 81:1 82:0 83:0 84:0 85:0 86:1 87:1 88:0 89:1 90:1 91:1 92:1 93:1 94:1 95:0 96:0 97:0 98:0 99:0 100:0 101:0 102:0 103:0 104:0 105:0 106:0 107:0 108:0 109:0 110:0 111:0 112:0 113:0 114:0 115:0 116:0 117:0 118:0 119:0 120:0 121:0 122:0 123:0 124:0 125:0 126:0 127:0 128:0 
0 1 0.7179446392173054 0.6206976209970141 0 0 0 0 0.7119126928932956 1 0 0 0 0 0 1 1 0 0.6951279452537732 0 0 0 0 0 0 1:0 2:0 3:0 4:0 5:0 6:0 7:0 8:0 9:0 10:0 11:1 12:1 13:1 14:1 15:1 16:1 17:0 18:0 19:1 20:0 21:0 22:0 23:1 24:1 25:0 26:1 27:1 28:0 29:0 30:0 31:1 32:1 33:0 34:1 35:0 36:0 37:0 38:0 39:0 40:1 41:0 42:1 43:0 44:0 45:0 46:0 47:0 48:1 49:1 50:1 51:0 52:0 53:0 54:0 55:0 56:1 57:1 58:0 59:0 60:0 61:0 62:0 63:1 64:1 65:1 66:0 67:0 68:0 69:0 70:0 71:1 72:0 73:1 74:0 75:0 76:0 77:0 78:0 79:1 80:0 81:1 82:0 83:0 84:0 85:0 86:0 87:1 88:0 89:1 90:0 91:0 92:0 93:0 94:1 95:1 96:0 97:1 98:0 99:0 100:0 101:0 102:1 103:0 104:0 105:1 106:0 107:0 108:1 109:1 110:1 111:0 112:0 113:1 114:1 115:1 116:1 117:0 118:0 119:0 120:0 121:0 122:0 123:0 124:0 125:0 126:0 127:0 128:0 
0 0 1 0 0 1 0 0 0 0 0 0 0 0 0 0 0 0 0 0 0 0.04407656004401223 0 0 0 1:0 2:0 3:0 4:0 5:0 6:0 7:0 8:0 9:0 10:0 11:1 12:1 13:1 14:0 15:0 16:0 17:0 18:0 19:0 20:0 21:1 22:1 23:0 24:0 25:1 26:1 27:1 28:1 29:0 30:1 31:1 32:0 33:1 34:0 35:0 36:0 37:1 38:0 39:1 40:0 41:1 42:0 43:0 44:0 45:0 46:0 47:1 48:1 49:1 50:0 51:0 52:0 53:0 54:0 55:0 56:1 57:1 58:0 59:0 60:0 61:0 62:0 63:0 64:1 65:1 66:0 67:0 68:0 69:0 70:0 71:0 72:1 73:1 74:0 75:0 76:0 77:0 78:0 79:0 80:1 81:1 82:0 83:0 84:0 85:0 86:0 87:0 88:1 89:0 90:1 91:0 92:0 93:0 94:0 95:0 96:1 97:0 98:0 99:1 100:0 101:0 102:0 103:0 104:1 105:0 106:0 107:0 108:1 109:1 110:0 111:1 112:1 113:0 114:0 115:0 116:0 117:1 118:1 119:1 120:0 121:0 122:0 123:0 124:0 125:0 126:0 127:0 128:0 
0 0 0 0 0 0 0 0 0 0 0 0 0 0 0 0 0 0 0.4799353023783973 0 0 0 0 0 0 1:0 2:1 3:1 4:1 5:1 6:0 7:0 8:0 9:0 10:1 11:1 12:0 13:0 14:1 15:0 16:0 17:0 18:1 19:1 20:0 21:0 22:1 23:1 24:0 25:0 26:1 27:0 28:0 29:0 30:0 31:1 32:0 33:1 34:1 35:0 36:0 37:0 38:0 39:1 40:1 41:1 42:0 43:0 44:0 45:0 46:0 47:0 48:1 49:1 50:0 51:0 52:0 53:0 54:0 55:0 56:1 57:1 58:0 59:0 60:0 61:0 62:0 63:0 64:1 65:1 66:0 67:0 68:0 69:0 70:0 71:0 72:1 73:1 74:0 75:0 76:0 77:0 78:0 79:0 80:1 81:1 82:0 83:0 84:0 85:0 86:0 87:0 88:1 89:1 90:0 91:0 92:0 93:0 94:0 95:1 96:1 97:1 98:0 99:0 100:0 101:0 102:0 103:1 104:0 105:1 106:1 107:0 108:0 109:0 110:1 111:1 112:0 113:0 114:1 115:1 116:0 117:0 118:1 119:0 120:0 121:0 122:0 123:1 124:1 125:1 126:0 127:0 128:0 
0 0 0 0 0 0 0 0 1 0 0 0 0 0 0 0 0 0 0 0 0 0 0 0 0 1:0 2:0 3:0 4:0 5:0 6:0 7:0 8:0 9:0 10:0 11:0 12:0 13:0 14:0 15:0 16:0 17:0 18:0 19:0 20:0 21:0 22:0 23:0 24:0 25:0 26:0 27:0 28:1 29:1 30:1 31:1 32:1 33:0 34:0 35:1 36:1 37:0 38:0 39:0 40:1 41:0 42:1 43:1 44:0 45:0 46:0 47:0 48:1 49:1 50:1 51:0 52:0 53:0 54:0 55:0 56:1 57:1 58:0 59:0 60:0 61:0 62:0 63:0 64:1 65:1 66:0 67:0 68:0 69:0 70:0 71:0 72:1 73:1 74:0 75:0 76:0 77:0 78:0 79:0 80:1 81:1 82:0 83:0 84:0 85:0 86:0 87:0 88:1 89:1 90:1 91:1 92:0 93:0 94:0 95:1 96:1 97:0 98:0 99:1 100:1 101:1 102:1 103:1 104:0 105:0 106:0 107:0 108:0 109:0 110:0 111:0 112:0 113:0 114:0 115:0 116:0 117:0 118:0 119:0 120:0 121:0 122:0 123:0 124:0 125:0 126:0 127:0 128:0 
0 0 0 0 0 0 0 0 0 0.07784372171172951 0 0 0 0 0 0.4506474505150025 1 0 0 0 0 0 0 0 0 1:0 2:0 3:0 4:0 5:0 6:0 7:0 8:0 9:0 10:0 11:0 12:0 13:0 14:0 15:0 16:0 17:0 18:0 19:0 20:0 21:0 22:0 23:0 24:0 25:0 26:0 27:0 28:0 29:0 30:0 31:0 32:0 33:0 34:1 35:1 36:1 37:1 38:1 39:1 40:0 41:1 42:1 43:0 44:0 45:0 46:0 47:1 48:1 49:1 50:1 51:0 52:0 53:0 54:0 55:0 56:1 57:1 58:0 59:0 60:0 61:0 62:0 63:0 64:1 65:1 66:0 67:0 68:0 69:0 70:0 71:0 72:1 73:1 74:1 75:0 76:0 77:0 78:0 79:1 80:1 81:0 82:1 83:1 84:0 85:0 86:0 87:1 88:0 89:0 90:0 91:1 92:1 93:1 94:1 95:1 96:0 97:0 98:0 99:0 100:0 101:1 102:1 103:0 104:0 105:0 106:0 107:0 108:0 109:0 110:0 111:0 112:0 113:0 114:0 115:0 116:0 117:0 118:0 119:0 120:0 121:0 122:0 123:0 124:0 125:0 126:0 127:0 128:0 
0 0.5317046807543861 1 0 0 0 0 0 0 0 0 0 0 0 0 0 0 0 0 0 0 0 0 0 0.4919558969071737 1:0 2:0 3:0 4:0 5:0 6:0 7:0 8:0 9:0 10:0 11:0 12:0 13:0 14:0 15:0 16:0 17:0 18:0 19:0 20:0 21:0 22:0 23:0 24:0 25:0 26:1 27:1 28:1 29:1 30:1 31:0 32:0 33:1 34:1 35:1 36:0 37:0 38:1 39:1 40:0 41:1 42:1 43:0 44:0 45:0 46:0 47:1 48:1 49:1 50:1 51:0 52:0 53:0 54:0 55:0 56:1 57:0 58:1 59:0 60:0 61:0 62:0 63:0 64:1 65:1 66:1 67:0 68:0 69:0 70:0 71:0 72:1 73:1 74:0 75:0 76:0 77:0 78:0 79:1 80:1 81:1 82:0 83:0 84:0 85:0 86:1 87:1 88:0 89:1 90:0 91:0 92:1 93:1 94:1 95:0 96:0 97:1 98:1 99:1 100:1 101:0 102:0 103:0 104:0 105:0 106:0 107:0 108:0 109:0 110:0 111:0 112:0 113:0 114:0 115:0 116:0 117:0 118:0 119:0 120:0 121:0 122:0 123:0 124:0 125:0 126:0 127:0 128:0 
0 0.1588098365383904 0 0 0 0 0 0 0 0 0 0 0 0 0 0 1 0 0 0 0 0 0 0.2357400183033511 0 1:0 2:0 3:0 4:0 5:0 6:0 7:0 8:0 9:0 10:0 11:0 12:0 13:0 14:0 15:0 16:0 17:0 18:0 19:0 20:0 21:0 22:0 23:0 24:0 25:0 26:0 27:1 28:1 29:1 30:1 31:0 32:0 33:1 34:1 35:0 36:0 37:0 38:1 39:1 40:0 41:1 42:0 43:0 44:0 45:0 46:0 47:1 48:1 49:1 50:0 51:0 52:0 53:0 54:0 55:0 56:1 57:1 58:0 59:0 60:0 61:0 62:0 63:0 64:1 65:1 66:0 67:0 68:0 69:0 70:0 71:0 72:1 73:1 74:0 75:0 76:0 77:0 78:0 79:0 80:1 81:1 82:0 83:0 84:0 85:0 86:0 87:0 88:1 89:1 90:1 91:1 92:1 93:0 94:0 95:1 96:1 97:0 98:0 99:0 100:1 101:1 102:1 103:1 104:0 105:0 106:0 107:0 108:0 109:0 110:0 111:0 112:0 113:0 114:0 115:0 116:0 117:0 118:0 119:0 120:0 121:0 122:0 123:0 124:0 125:0 126:0 127:0 128:0 
0 0 0 0 0 0 0 0 0.2170590592135843 0 0 0 0 0 0 0 0 0 0 0 0 0 0 0 0 1:0 2:0 3:0 4:0 5:0 6:0 7:0 8:0 9:0 10:0 11:0 12:0 13:0 14:0 15:0 16:0 17:0 18:0 19:0 20:0 21:0 22:0 23:0 24:0 25:0 26:0 27:0 28:0 29:0 30:1 31:1 32:0 33:0 34:0 35:0 36:1 37:1 38:1 39:1 40:1 41:0 42:0 43:1 44:0 45:0 46:0 47:0 48:1 49:0 50:1 51:0 52:0 53:0 54:0 55:0 56:1 57:1 58:1 59:0 60:0 61:0 62:0 63:0 64:1 65:1 66:0 67:0 68:0 69:0 70:0 71:0 72:1 73:1 74:0 75:0 76:0 77:0 78:0 79:1 80:1 81:1 82:0 83:0 84:0 85:0 86:0 87:1 88:0 89:1 90:0 91:0 92:0 93:1 94:1 95:1 96:0 97:1 98:1 99:1 100:1 101:1 102:0 103:0 104:0 105:0 106:0 107:0 108:0 109:0 110:0 111:0 112:0 113:0 114:0 115:0 116:0 117:0 118:0 119:0 120:0 121:0 122:0 123:0 124:0 125:0 126:0 127:0 128:0 
0.09881383034152871 1 0 1 1 1 1 1 1 1 1 1 1 1 1 1 1 1 1 1 0 0.314518514506603 0 0.1144693425452947 1 1:0 2:0 3:0 4:1 5:1 6:1 7:1 8:0 9:0 10:0 11:1 12:1 13:0 14:0 15:1 16:0 17:0 18:1 19:0 20:0 21:0 22:0 23:1 24:1 25:1 26:1 27:1 28:1 29:0 30:0 31:0 32:1 33:1 34:0 35:0 36:1 37:0 38:0 39:0 40:1 41:1 42:0 43:0 44:0 45:0 46:0 47:1 48:1 49:1 50:0 51:0 52:0 53:0 54:0 55:1 56:0 57:1 58:0 59:0 60:0 61:0 62:0 63:1 64:0 65:1 66:0 67:0 68:0 69:0 70:1 71:0 72:0 73:1 74:0 75:0 76:0 77:1 78:1 79:0 80:0 81:1 82:0 83:0 84:0 85:1 86:0 87:0 88:0 89:1 90:0 91:0 92:1 93:1 94:0 95:0 96:0 97:1 98:1 99:1 100:1 101:0 102:0 103:0 104:0 105:1 106:1 107:0 108:0 109:0 110:0 111:0 112:0 113:0 114:1 115:0 116:0 117:0 118:0 119:0 120:0 121:0 122:1 123:0 124:0 125:0 126:0 127:0 128:0 
0 0 0 0 0 0 0 0 0 0.02554027112759926 0 0 0 0 0 0 0 0 0 0 0 0 0 0 0 1:0 2:0 3:0 4:0 5:0 6:0 7:0 8:0 9:0 10:0 11:0 12:0 13:0 14:0 15:0 16:0 17:0 18:0 19:1 20:1 21:1 22:1 23:1 24:1 25:0 26:1 27:1 28:1 29:0 30:0 31:0 32:1 33:1 34:1 35:1 36:0 37:0 38:0 39:0 40:1 41:0 42:1 43:0 44:0 45:0 46:0 47:0 48:1 49:0 50:1 51:0 52:0 53:0 54:0 55:0 56:1 57:1 58:1 59:0 60:0 61:0 62:0 63:0 64:1 65:1 66:0 67:0 68:0 69:0 70:0 71:0 72:1 73:1 74:0 75:0 76:0 77:0 78:0 79:1 80:1 81:1 82:0 83:0 84:0 85:0 86:1 87:1 88:0 89:1 90:0 91:0 92:0 93:0 94:1 95:0 96:0 97:1 98:0 99:0 100:0 101:1 102:1 103:0 104:0 105:1 106:1 107:1 108:1 109:1 110:0 111:0 112:0 113:0 114:0 115:0 116:0 117:0 118:0 119:0 120:0 121:0 122:0 123:0 124:0 125:0 126:0 127:0 128:0 
0 0 1 0 0 0 0 0 0 0 0 0 0 0 0 0 0 0 0 0 0 0 0 0 0 1:0 2:0 3:0 4:0 5:0 6:0 7:0 8:0 9:0 10:0 11:0 12:1 13:1 14:0 15:0 16:0 17:0 18:0 19:0 20:1 21:0 22:0 23:0 24:0 25:0 26:0 27:1 28:1 29:1 30:1 31:1 32:0 33:0 34:0 35:1 36:0 37:0 38:0 39:1 40:1 41:0 42:0 43:1 44:0 45:0 46:0 47:0 48:1 49:0 50:1 51:1 52:0 53:0 54:0 55:0 56:1 57:0 58:1 59:0 60:0 61:0 62:0 63:0 64:1 65:1 66:1 67:0 68:0 69:0 70:0 71:0 72:1 73:1 74:0 75:0 76:0 77:0 78:0 79:0 80:1 81:1 82:0 83:0 84:0 85:0 86:0 87:0 88:1 89:1 90:0 91:0 92:0 93:0 94:0 95:1 96:1 97:1 98:0 99:0 100:0 101:0 102:1 103:1 104:0 105:1 106:0 107:0 108:0 109:1 110:1 111:0 112:0 113:1 114:1 115:1 116:1 117:1 118:0 119:0 120:0 121:0 122:0 123:0 124:0 125:0 126:0 127:0 128:0 
0 1 1 0 0 0 0 0 1 0 0 0 0 0 0 0 1 0 0 0 0 0 0 0 0 1:0 2:0 3:0 4:0 5:0 6:0 7:0 8:0 9:0 10:0 11:0 12:0 13:0 14:0 15:0 16:0 17:0 18:0 19:0 20:0 21:0 22:0 23:0 24:0 25:0 26:0 27:0 28:0 29:0 30:0 31:0 32:0 33:1 34:1 35:1 36:1 37:1 38:1 39:0 40:0 41:1 42:0 43:0 44:0 45:0 46:1 47:0 48:0 49:1 50:0 51:0 52:0 53:0 54:0 55:1 56:0 57:1 58:0 59:0 60:0 61:0 62:0 63:1 64:1 65:1 66:0 67:0 68:0 69:0 70:0 71:0 72:1 73:1 74:0 75:0 76:0 77:0 78:0 79:0 80:1 81:1 82:0 83:0 84:0 85:0 86:0 87:0 88:1 89:1 90:1 91:1 92:1 93:1 94:1 95:1 96:1 97:0 98:0 99:0 100:0 101:0 102:0 103:0 104:0 105:0 106:0 107:0 108:0 109:0 110:0 111:0 112:0 113:0 114:0 115:0 116:0 117:0 118:0 119:0 120:0 121:0 122:0 123:0 124:0 125:0 126:0 127:0 128:0 
0 0 0 0.4924999484216815 0.6334851768929072 1 0.6948154943759633 0 0 0 0.570888103468449 0.4479957461991978 0 0 1 0 0.7762932018560788 0.8558570938716481 0 0 0 0 0 0 0 1:0 2:0 3:0 4:0 5:0 6:0 7:0 8:0 9:0 10:0 11:0 12:0 13:0 14:0 15:0 16:0 17:1 18:1 19:1 20:1 21:1 22:1 23:0 24:0 25:1 26:0 27:0 28:0 29:0 30:1 31:1 32:0 33:1 34:0 35:0 36:0 37:0 38:0 39:1 40:1 41:0 42:0 43:0 44:0 45:0 46:0 47:0 48:1 49:0 50:0 51:0 52:0 53:0 54:0 55:0 56:1 57:0 58:0 59:0 60:0 61:0 62:0 63:0 64:1 65:1 66:0 67:0 68:0 69:0 70:0 71:0 72:1 73:1 74:0 75:0 76:0 77:0 78:0 79:0 80:1 81:1 82:0 83:0 84:0 85:0 86:0 87:0 88:1 89:1 90:0 91:0 92:0 93:0 94:0 95:1 96:1 97:1 98:1 99:0 100:0 101:1 102:1 103:1 104:0 105:0 106:1 107:1 108:1 109:1 110:0 111:0 112:0 113:0 114:0 115:0 116:0 117:0 118:0 119:0 120:0 121:0 122:0 123:0 124:0 125:0 126:0 127:0 128:0 
0 0 0 0 0 0 0 0 0 0 0 0 0 0 0 0 1 0 0 0 0 0 0 0 0 1:0 2:0 3:0 4:0 5:0 6:0 7:0 8:0 9:0 10:0 11:0 12:0 13:0 14:0 15:0 16:0 17:0 18:0 19:0 20:0 21:0 22:0 23:0 24:0 25:0 26:0 27:0 28:0 29:0 30:0 31:0 32:0 33:0 34:1 35:1 36:1 37:1 38:1 39:1 40:0 41:1 42:1 43:0 44:0 45:0 46:0 47:1 48:1 49:1 50:0 51:0 52:0 53:0 54:0 55:0 56:1 57:1 58:0 59:0 60:0 61:0 62:0 63:0 64:1 65:1 66:0 67:0 68:0 69:0 70:0 71:0 72:1 73:1 74:0 75:0 76:0 77:0 78:0 79:0 80:1 81:1 82:1 83:1 84:1 85:0 86:1 87:1 88:1 89:0 90:0 91:0 92:1 93:1 94:1 95:1 96:1 97:0 98:0 99:0 100:0 101:0 102:0 103:0 104:0 105:0 106:0 107:0 108:0 109:0 110:0 111:0 112:0 113:0 114:0 115:0 116:0 117:0 118:0 119:0 120:0 121:0 122:0 123:0 124:0 125:0 126:0 127:0 128:0 
1 0 1 0 0 0 0 1 1 0 0 0.6582398657259053 0 0 0 1 1 0 0 1 0 0 0 1 0 1:0 2:0 3:0 4:0 5:0 6:0 7:0 8:0 9:0 10:0 11:0 12:0 13:0 14:0 15:0 16:0 17:0 18:0 19:0 20:0 21:0 22:0 23:0 24:0 25:0 26:0 27:0 28:0 29:0 30:0 31:0 32:0 33:0 34:0 35:0 36:0 37:0 38:0 39:0 40:0 41:1 42:1 43:1 44:0 45:0 46:1 47:1 48:1 49:1 50:0 51:0 52:0 53:0 54:0 55:0 56:1 57:1 58:0 59:0 60:0 61:0 62:0 63:0 64:1 65:1 66:0 67:0 68:0 69:0 70:0 71:0 72:1 73:1 74:0 75:0 76:0 77:0 78:0 79:0 80:1 81:1 82:1 83:1 84:1 85:1 86:1 87:1 88:1 89:0 90:0 91:0 92:0 93:0 94:0 95:0 96:0 97:0 98:0 99:0 100:0 101:0 102:0 103:0 104:0 105:0 106:0 107:0 108:0 109:0 110:0 111:0 112:0 113:0 114:0 115:0 116:0 117:0 118:0 119:0 120:0 121:0 122:0 123:0 124:0 125:0 126:0 127:0 128:0 
0 0 1 0 0 0 0 0.0215645889612495 1 1 0 0 0 0 0 0 1 0 0 0 0 0 0 0 0.09261362084545301 1:0 2:0 3:0 4:0 5:0 6:0 7:0 8:0 9:0 10:0 11:0 12:0 13:0 14:0 15:0 16:0 17:0 18:0 19:0 20:0 21:0 22:0 23:0 24:0 25:0 26:0 27:0 28:0 29:0 30:0 31:0 32:0 33:0 34:0 35:0 36:0 37:1 38:0 39:0 40:0 41:1 42:1 43:1 44:1 45:1 46:1 47:0 48:0 49:1 50:0 51:0 52:0 53:0 54:1 55:1 56:0 57:1 58:0 59:0 60:0 61:0 62:0 63:0 64:1 65:1 66:0 67:0 68:0 69:0 70:0 71:0 72:1 73:1 74:0 75:0 76:0 77:0 78:0 79:0 80:1 81:1 82:1 83:0 84:0 85:0 86:0 87:1 88:1 89:0 90:1 91:1 92:1 93:1 94:1 95:1 96:0 97:0 98:0 99:0 100:0 101:0 102:0 103:0 104:0 105:0 106:0 107:0 108:0 109:0 110:0 111:0 112:0 113:0 114:0 115:0 116:0 117:0 118:0 119:0 120:0 121:0 122:0 123:0 124:0 125:0 126:0 127:0 128:0 
