svm_type c_svc
kernel_type polynomial
degree 3
gamma 0.1
coef0 0
nr_class 26
total_sv 3155
rho 0.0614268 0.217471 0.851762 -0.59109 0.98369 0.339432 -0.414357 0.797962 0.823441 0.365697 0.240367 0.722291 0.107285 0.777823 0.400163 0.210654 0.674358 0.297384 -0.354886 0.0912749 -0.0533081 -0.728173 -0.00884141 -0.630258 -0.132493 0.391275 1.18308 -0.422663 0.956706 0.158173 -0.369449 0.70157 0.428996 0.303856 0.0505656 0.598092 -0.0623615 0.71518 0.23885 0.0584211 0.517296 0.134625 -0.389659 -0.0182442 -0.16849 -0.679119 -0.0450846 -0.49349 -0.135812 0.93675 -0.638959 0.952092 -0.0648422 -0.62064 0.56019 0.429999 0.0176104 -0.142407 0.532553 -0.235583 0.644814 0.133522 -0.137796 0.260237 -0.0944351 -0.581877 -0.286324 -0.37112 -0.808099 -0.266372 -0.827815 -0.450558 -0.837189 0.888715 -0.531116 -0.812755 0.212674 -0.191606 -0.557754 -0.560067 0.199044 -0.550852 0.209328 -0.300553 -0.516324 -0.375656 -0.548167 -0.786753 -0.611764 -0.671035 -0.919358 -0.701075 -1.01013 -0.703408 1.03432 0.731446 0.0981311 0.860284 0.772442 0.639078 0.62579 0.957881 0.514878 0.95512 0.791363 0.636774 0.772529 0.661817 0.158321 0.483184 0.502601 -0.341078 0.480582 0.0954508 0.354284 -0.986903 -1.05989 -0.913678 -0.925725 -0.95434 -0.980045 -1.06249 -1.09034 -0.940561 -0.980394 -0.978589 -0.937219 -0.967199 -1.04832 -1.00823 -1.00424 -1.05703 -0.980078 -0.987646 -1.05676 -0.522178 0.596432 0.320502 0.111852 0.0337912 0.650819 -0.121253 0.731252 0.225965 -0.146828 0.187625 0.0236784 -0.465743 -0.165323 -0.293283 -0.877885 -0.216436 -0.615704 -0.296939 0.826644 0.77169 0.592295 0.581427 0.977307 0.419146 0.906903 0.628387 0.46429 0.77591 0.628241 0.012971 0.722092 0.271566 -0.48369 0.309297 -0.0455171 0.452612 -0.350998 -0.690157 -0.569442 0.212458 -0.80462 0.0795623 -0.440584 -0.630496 -0.402442 -0.575799 -1.08773 -0.636656 -0.681268 -0.939342 -0.74346 -0.884154 -0.850772 -0.908033 -0.402975 0.295984 -0.536036 0.301435 -0.153378 -0.457809 -0.147757 -0.321978 -0.779165 -0.598959 -0.541169 -0.885539 -0.537503 -0.828549 -0.792404 -0.106394 0.581963 -0.189439 0.731596 0.12369 -0.0898766 0.266096 -0.0433636 -0.620979 -0.22751 -0.285815 -0.82514 -0.309973 -0.759032 -0.554027 0.65758 -0.124567 0.661647 0.194997 -0.0447772 0.303512 0.0537452 -0.486705 -0.0681257 -0.224127 -0.891985 -0.213264 -0.496572 -0.2873 -0.933452 -0.36901 -0.611216 -0.676912 -0.424839 -0.639497 -0.951887 -0.774399 -0.777467 -1.00622 -0.755056 -0.861819 -0.934413 0.88188 0.348826 0.076572 0.406858 0.204687 -0.627155 0.0225788 -0.107423 -0.800663 -0.0843864 -0.428527 -0.219362 -0.581696 -0.668222 -0.455172 -0.781675 -0.971384 -0.685455 -0.736168 -1.07354 -0.865003 -0.862278 -0.894845 -0.290794 0.0522526 -0.194243 -0.719603 -0.311641 -0.421834 -0.962307 -0.396188 -0.620168 -0.458298 0.461257 0.106715 -0.517248 -0.0734263 -0.200746 -0.72201 -0.138956 -0.688086 -0.301976 -0.235793 -0.708858 -0.458799 -0.49869 -0.849232 -0.448948 -1.15735 -0.641462 -0.568731 -0.204201 -0.309547 -0.858398 -0.284927 -0.642778 -0.442631 0.392214 0.256248 -0.573879 0.411334 0.000647987 0.233136 -0.134835 -0.695526 -0.0738569 -0.526326 -0.401349 -0.629673 0.0392747 -0.318146 -0.0718755 0.67788 0.401961 0.622435 -0.437551 -0.230465 0.307335
label 14 12 0 13 3 8 6 1 17 2 4 18 11 5 19 24 21 20 25 15 7 9 16 23 22 10
nr_sv 207 89 227 282 68 306 177 69 174 145 274 100 180 55 118 85 63 161 66 83 55 13 15 49 12 82
SV
0 0 0 0.01922756307433292 0 0 0 0 0 0 0 0 0 0 0 0 0 0 0 0 0 0 0 0 0 1:0 2:0 3:0 4:0 5:0 6:0 7:0 8:0 9:0 10:0 11:0 12:0 13:0 14:0 15:0 16:0 17:0 18:0 19:0 20:0 21:0 22:0 23:0 24:0 25:0 26:1 27:1 28:1 29:0 30:0 31:0 32:0 33:0 34:1 35:1 36:1 37:1 38:1 39:0 40:0 41:0 42:1 43:0 44:0 45:0 46:1 47:1 48:0 49:1 50:1 51:0 52:0 53:0 54:0 55:1 56:1 57:1 58:0 59:0 60:0 61:0 62:0 63:0 64:1 65:1 66:0 67:0 68:0 69:0 70:0 71:0 72:1 73:1 74:0 75:0 76:0 77:0 78:0 79:0 80:1 81:1 82:0 83:0 84:0 85:0 86:0 87:1 88:1 89:1 90:0 91:0 92:0 93:1 94:1 95:1 96:0 97:1 98:1 99:1 100:1 101:1 102:0 103:0 104:0 105:0 106:0 107:0 108:0 109:0 110:0 111:0 112:0 113:0 114:0 115:0 116:0 117:0 118:0 119:0 120:0 121:0 122:0 123:0 124:0 125:0 126:0 127:0 128:0 
0 0 0.000648458107978918 0 0 0 0 0 0 0 0 0 0 0 0 0 0 0 0 0 0 0 0 0 0 1:0 2:0 3:0 4:0 5:0 6:0 7:0 8:0 9:0 10:0 11:0 12:0 13:0 14:0 15:0 16:0 17:0 18:0 19:0 20:0 21:0 22:0 23:0 24:0 25:0 26:0 27:0 28:0 29:0 30:0 31:0 32:0 33:0 34:0 35:1 36:1 37:1 38:1 39:0 40:0 41:0 42:1 43:1 44:1 45:0 46:1 47:1 48:1 49:1 50:1 51:0 52:0 53:0 54:0 55:0 56:1 57:1 58:0 59:0 60:0 61:0 62:0 63:0 64:1 65:1 66:0 67:0 68:0 69:0 70:0 71:0 72:1 73:1 74:0 75:0 76:0 77:0 78:0 79:0 80:1 81:1 82:0 83:0 84:0 85:0 86:0 87:1 88:1 89:1 90:1 91:1 92:1 93:1 94:1 95:0 96:0 97:0 98:0 99:0 100:0 101:0 102:0 103:0 104:0 105:0 106:0 107:0 108:0 109:0 110:0 111:0 112:0 113:0 114:0 115:0 116:0 117:0 118:0 119:0 120:0 121:0 122:0 123:0 124:0 125:0 126:0 127:0 128:0 
0 0 0 0 0 0 0 0 0.01604140184771721 0 0 0 0 0 0 0 0 0 0 0 0 0 0 0 0 1:0 2:0 3:0 4:0 5:0 6:0 7:0 8:0 9:0 10:0 11:0 12:0 13:0 14:0 15:0 16:0 17:0 18:0 19:0 20:0 21:0 22:0 23:0 24:0 25:0 26:0 27:0 28:0 29:1 30:1 31:1 32:0 33:0 34:0 35:0 36:1 37:1 38:0 39:1 40:1 41:0 42:0 43:1 44:1 45:0 46:0 47:0 48:1 49:0 50:1 51:1 52:0 53:0 54:0 55:0 56:1 57:1 58:1 59:0 60:0 61:0 62:0 63:0 64:1 65:1 66:0 67:0 68:0 69:0 70:0 71:0 72:1 73:1 74:0 75:0 76:0 77:0 78:0 79:1 80:1 81:1 82:0 83:0 84:0 85:0 86:1 87:1 88:0 89:1 90:0 91:0 92:1 93:1 94:1 95:0 96:0 97:1 98:1 99:1 100:1 101:0 102:0 103:0 104:0 105:0 106:0 107:0 108:0 109:0 110:0 111:0 112:0 113:0 114:0 115:0 116:0 117:0 118:0 119:0 120:0 121:0 122:0 123:0 124:0 125:0 126:0 127:0 128:0 
0 0 0 0 0 0 0 0 0 0.0007544631330160473 0 0 0 0 0 0 0 0 0 0 0 0 0 0 0 1:0 2:0 3:0 4:0 5:0 6:0 7:0 8:0 9:0 10:0 11:0 12:0 13:1 14:0 15:0 16:0 17:0 18:0 19:1 20:1 21:1 22:1 23:0 24:0 25:0 26:0 27:1 28:0 29:0 30:1 31:1 32:0 33:0 34:1 35:1 36:0 37:0 38:0 39:1 40:1 41:0 42:1 43:0 44:0 45:0 46:0 47:0 48:1 49:0 50:1 51:0 52:0 53:0 54:0 55:0 56:1 57:1 58:1 59:0 60:0 61:0 62:0 63:0 64:1 65:1 66:0 67:0 68:0 69:0 70:0 71:0 72:1 73:1 74:0 75:0 76:0 77:0 78:0 79:1 80:1 81:1 82:0 83:0 84:0 85:0 86:0 87:1 88:0 89:1 90:1 91:0 92:0 93:0 94:0 95:1 96:0 97:1 98:1 99:0 100:0 101:0 102:1 103:0 104:0 105:0 106:0 107:1 108:1 109:1 110:1 111:0 112:0 113:0 114:0 115:1 116:1 117:0 118:0 119:0 120:0 121:0 122:0 123:0 124:0 125:0 126:0 127:0 128:0 
0.0361619280580471 0.07182543044131989 0.04155556023334504 0.006197156655686277 0.01288113815818664 0.02743861317273702 0.004506717168607542 0.03883181714561258 0.05037180051748437 0.06659761706314923 0.01554598376854876 0.02297631106739341 0.01843161568449814 0.01032845570685095 0.01556490972794818 0.04528067608895842 0.04861085307724815 0.01339927561510912 0.01426890500138986 0.00898183385975293 0.002966082485383861 0.001732406881095383 0.004090392852461451 0.02061801513904596 0.01425096752730618 1:0 2:0 3:0 4:0 5:0 6:0 7:0 8:0 9:0 10:0 11:0 12:0 13:0 14:0 15:0 16:0 17:0 18:0 19:0 20:0 21:0 22:0 23:0 24:0 25:0 26:0 27:0 28:0 29:0 30:0 31:0 32:0 33:0 34:0 35:0 36:1 37:1 38:1 39:1 40:1 41:0 42:1 43:1 44:0 45:0 46:0 47:1 48:1 49:1 50:1 51:0 52:0 53:0 54:0 55:0 56:1 57:1 58:0 59:0 60:0 61:0 62:0 63:1 64:1 65:1 66:0 67:0 68:0 69:0 70:0 71:1 72:0 73:1 74:0 75:0 76:0 77:1 78:1 79:0 80:0 81:1 82:0 83:0 84:1 85:1 86:0 87:0 88:0 89:1 90:1 91:1 92:1 93:0 94:0 95:0 96:0 97:0 98:0 99:0 100:0 101:0 102:0 103:0 104:0 105:0 106:0 107:0 108:0 109:0 110:0 111:0 112:0 113:0 114:0 115:0 116:0 117:0 118:0 119:0 120:0 121:0 122:0 123:0 124:0 125:0 126:0 127:0 128:0 
0 0 0 0 0 0 0 0 0 0 0.003301675259374165 0 0 0 0 0 0 0 0 0 0 0 0 0 0 1:0 2:0 3:0 4:0 5:0 6:0 7:0 8:0 9:0 10:0 11:0 12:0 13:0 14:0 15:0 16:0 17:0 18:0 19:1 20:1 21:1 22:1 23:0 24:0 25:1 26:1 27:1 28:0 29:0 30:1 31:1 32:0 33:1 34:0 35:0 36:0 37:0 38:0 39:1 40:1 41:1 42:0 43:0 44:0 45:0 46:0 47:0 48:1 49:1 50:0 51:0 52:0 53:0 54:0 55:0 56:1 57:1 58:0 59:0 60:0 61:0 62:0 63:0 64:1 65:1 66:0 67:0 68:0 69:0 70:0 71:0 72:1 73:1 74:0 75:0 76:0 77:0 78:0 79:0 80:1 81:1 82:0 83:0 84:0 85:0 86:0 87:0 88:1 89:0 90:1 91:0 92:0 93:0 94:0 95:1 96:1 97:0 98:1 99:1 100:0 101:0 102:1 103:1 104:0 105:0 106:0 107:1 108:1 109:1 110:1 111:0 112:0 113:0 114:0 115:0 116:0 117:0 118:0 119:0 120:0 121:0 122:0 123:0 124:0 125:0 126:0 127:0 128:0 
0.006724142072234061 0.01539535854818604 0.02205199136023859 0.007285608399911231 0.005368992968611865 0.01284603457213043 0.007671976257314138 0.01262064487454484 0 0.01598561085217031 0.01494887649321322 0.00422156064866123 0.02082344608967425 0.01168308858125765 0.01716340216460917 0.005868116388967236 0 0.009300532790999509 0.02623515572749914 0.006516661448814118 0.001623617963408425 0.00346625558017101 0.006747209019399483 0 0.0157676324007694 1:0 2:0 3:0 4:0 5:0 6:0 7:0 8:0 9:0 10:0 11:0 12:0 13:0 14:0 15:0 16:0 17:0 18:0 19:0 20:1 21:1 22:1 23:1 24:1 25:0 26:0 27:1 28:1 29:1 30:0 31:0 32:1 33:0 34:1 35:1 36:1 37:0 38:0 39:0 40:1 41:0 42:0 43:1 44:1 45:0 46:0 47:0 48:1 49:0 50:0 51:1 52:0 53:0 54:0 55:0 56:1 57:0 58:0 59:1 60:0 61:0 62:0 63:1 64:1 65:0 66:1 67:1 68:0 69:0 70:0 71:1 72:0 73:0 74:1 75:0 76:0 77:0 78:1 79:0 80:0 81:0 82:1 83:0 84:0 85:1 86:1 87:0 88:0 89:1 90:1 91:0 92:1 93:1 94:0 95:0 96:0 97:1 98:0 99:1 100:1 101:0 102:0 103:0 104:0 105:1 106:1 107:1 108:0 109:0 110:0 111:0 112:0 113:0 114:0 115:0 116:0 117:0 118:0 119:0 120:0 121:0 122:0 123:0 124:0 125:0 126:0 127:0 128:0 
0.007067144244380789 0.03951456181617818 0.01717266094703613 0.00786785004727239 0.005970112078175706 0.01354558262932521 0.003649847430568712 0.01683407111774861 0.02921242652048643 0.02742603440985893 0.008872556367099629 0.008367825519024609 0.007111976680031907 0.006291714274717628 0.01010870033871322 0.008511160363778159 0.01246639950584844 0.006964077158938018 0.0119771533335817 0.005367765082303671 0.0009127749695923305 0.002915561386004355 0.00609097016752676 0 0.008145833585879799 1:0 2:0 3:0 4:0 5:0 6:0 7:0 8:0 9:0 10:0 11:0 12:0 13:0 14:0 15:0 16:0 17:0 18:0 19:1 20:1 21:1 22:0 23:1 24:0 25:0 26:1 27:1 28:0 29:1 30:0 31:1 32:0 33:0 34:1 35:0 36:0 37:1 38:1 39:1 40:0 41:1 42:1 43:0 44:0 45:0 46:1 47:1 48:1 49:1 50:0 51:0 52:0 53:0 54:0 55:1 56:0 57:1 58:0 59:0 60:0 61:0 62:0 63:1 64:0 65:1 66:0 67:0 68:0 69:0 70:0 71:1 72:0 73:1 74:0 75:0 76:0 77:0 78:1 79:1 80:0 81:1 82:0 83:0 84:0 85:1 86:0 87:0 88:0 89:1 90:0 91:0 92:1 93:0 94:0 95:0 96:0 97:1 98:1 99:1 100:1 101:0 102:0 103:0 104:0 105:0 106:1 107:0 108:0 109:0 110:0 111:0 112:0 113:0 114:0 115:0 116:0 117:0 118:0 119:0 120:0 121:0 122:0 123:0 124:0 125:0 126:0 127:0 128:0 
0.001454679651826096 0 0.01843663866747079 0 0 0 0.00589914358329059 0 0 0 0 0 0 0 0 0 0.01314359765381956 0 0 0.00854163841440205 0 0 0 0.004928798620502714 0 1:0 2:0 3:0 4:0 5:0 6:0 7:0 8:0 9:0 10:0 11:0 12:0 13:0 14:0 15:0 16:0 17:0 18:0 19:0 20:0 21:0 22:0 23:0 24:0 25:0 26:0 27:0 28:0 29:1 30:0 31:0 32:0 33:1 34:1 35:1 36:0 37:1 38:1 39:0 40:0 41:1 42:0 43:0 44:0 45:0 46:1 47:1 48:0 49:1 50:0 51:0 52:0 53:0 54:0 55:1 56:1 57:1 58:0 59:0 60:0 61:0 62:0 63:0 64:1 65:1 66:0 67:0 68:0 69:0 70:0 71:0 72:1 73:1 74:0 75:0 76:0 77:0 78:0 79:0 80:1 81:1 82:1 83:0 84:0 85:0 86:0 87:0 88:1 89:0 90:1 91:1 92:1 93:0 94:0 95:0 96:1 97:0 98:0 99:0 100:1 101:1 102:1 103:1 104:1 105:0 106:0 107:0 108:0 109:0 110:0 111:0 112:0 113:0 114:0 115:0 116:0 117:0 118:0 119:0 120:0 121:0 122:0 123:0 124:0 125:0 126:0 127:0 128:0 
0 0 0 0 0 0 0 0 0 0 0 0 0 0 0 0 0 0 0 0 0 0.001397626063088138 0 0 0 1:0 2:0 3:0 4:0 5:0 6:0 7:0 8:0 9:0 10:0 11:0 12:0 13:0 14:0 15:0 16:0 17:1 18:1 19:1 20:1 21:1 22:1 23:0 24:0 25:1 26:1 27:1 28:1 29:1 30:1 31:1 32:0 33:1 34:1 35:0 36:0 37:1 38:0 39:1 40:0 41:1 42:0 43:0 44:0 45:0 46:0 47:1 48:1 49:1 50:0 51:0 52:0 53:0 54:0 55:0 56:1 57:1 58:0 59:0 60:0 61:0 62:0 63:0 64:1 65:1 66:0 67:0 68:0 69:0 70:0 71:0 72:1 73:1 74:0 75:0 76:0 77:0 78:0 79:0 80:1 81:1 82:0 83:0 84:0 85:0 86:0 87:0 88:1 89:1 90:1 91:0 92:0 93:0 94:0 95:1 96:1 97:0 98:1 99:1 100:0 101:1 102:1 103:1 104:0 105:0 106:0 107:1 108:1 109:1 110:0 111:0 112:0 113:0 114:0 115:0 116:0 117:0 118:0 119:0 120:0 121:0 122:0 123:0 124:0 125:0 126:0 127:0 128:0 
0 0 0 0.001797504542189345 0 0 0 0 0 0 0 0 0 0 0 0 0 0 0 0 0 0 0 0 0 1:0 2:0 3:0 4:0 5:0 6:0 7:0 8:0 9:0 10:0 11:0 12:0 13:0 14:0 15:0 16:0 17:0 18:0 19:0 20:0 21:0 22:0 23:0 24:0 25:0 26:0 27:1 28:1 29:1 30:1 31:1 32:1 33:0 34:1 35:1 36:0 37:0 38:0 39:0 40:1 41:1 42:1 43:0 44:0 45:0 46:0 47:0 48:1 49:1 50:1 51:0 52:0 53:0 54:0 55:0 56:1 57:1 58:0 59:0 60:0 61:0 62:0 63:0 64:1 65:1 66:0 67:0 68:0 69:0 70:0 71:0 72:1 73:1 74:0 75:0 76:0 77:0 78:0 79:1 80:1 81:1 82:0 83:0 84:0 85:0 86:1 87:1 88:0 89:1 90:1 91:0 92:0 93:0 94:1 95:0 96:0 97:0 98:1 99:1 100:1 101:1 102:1 103:0 104:0 105:0 106:0 107:0 108:0 109:0 110:0 111:0 112:0 113:0 114:0 115:0 116:0 117:0 118:0 119:0 120:0 121:0 122:0 123:0 124:0 125:0 126:0 127:0 128:0 
0 0 0 0 0 0 0 0 0 0 0 0 0 0 0 0 0 0 0.001162017176839456 0 0 0 0 0 0 1:0 2:1 3:1 4:1 5:1 6:1 7:0 8:0 9:0 10:1 11:0 12:1 13:0 14:1 15:1 16:0 17:0 18:0 19:1 20:1 21:0 22:0 23:1 24:1 25:0 26:1 27:1 28:0 29:0 30:0 31:0 32:1 33:0 34:1 35:0 36:0 37:0 38:0 39:0 40:1 41:1 42:1 43:0 44:0 45:0 46:0 47:0 48:1 49:1 50:0 51:0 52:0 53:0 54:0 55:0 56:1 57:1 58:0 59:0 60:0 61:0 62:0 63:0 64:1 65:1 66:0 67:0 68:0 69:0 70:0 71:0 72:1 73:1 74:0 75:0 76:0 77:0 78:0 79:0 80:1 81:1 82:0 83:0 84:0 85:0 86:0 87:0 88:1 89:1 90:0 91:0 92:0 93:0 94:0 95:1 96:1 97:1 98:0 99:0 100:0 101:0 102:0 103:1 104:0 105:1 106:0 107:0 108:0 109:0 110:1 111:1 112:0 113:1 114:0 115:0 116:0 117:1 118:1 119:0 120:0 121:1 122:1 123:1 124:1 125:1 126:0 127:0 128:0 
0 0.009585555261174427 0 0 0 0 0 0.000988695108321032 0 0 0 0 0 0 0 0 0 0 0 0 0 0 0 0 0 1:0 2:0 3:0 4:0 5:0 6:0 7:0 8:0 9:0 10:0 11:0 12:0 13:0 14:0 15:0 16:0 17:0 18:0 19:0 20:0 21:0 22:0 23:0 24:0 25:0 26:0 27:0 28:1 29:1 30:1 31:1 32:0 33:0 34:1 35:1 36:1 37:0 38:0 39:1 40:1 41:1 42:1 43:0 44:0 45:0 46:0 47:0 48:1 49:1 50:0 51:0 52:0 53:0 54:0 55:0 56:1 57:1 58:0 59:0 60:0 61:0 62:0 63:0 64:1 65:1 66:0 67:0 68:0 69:0 70:0 71:0 72:1 73:1 74:0 75:0 76:0 77:0 78:0 79:1 80:0 81:1 82:0 83:0 84:0 85:0 86:1 87:1 88:0 89:1 90:0 91:0 92:1 93:1 94:1 95:0 96:0 97:1 98:1 99:1 100:0 101:0 102:0 103:0 104:0 105:0 106:0 107:0 108:0 109:0 110:0 111:0 112:0 113:0 114:0 115:0 116:0 117:0 118:0 119:0 120:0 121:0 122:0 123:0 124:0 125:0 126:0 127:0 128:0 
0.00107850003507842 0.009745054759637483 0.01444841573089453 0.01712755353820863 0.00304448303923021 0.01468665640775712 0.003539512021233425 0.006245015000217865 0 0.005745177694876711 0.005708660990078458 0.002243356497338182 0.005902726780833067 0.005909259415480568 0.01235066919434878 0.006508152907259522 0.0003514141065597922 0.007674759082396427 0.01019578026025342 0.002657332961355759 0 0.002389271456457949 0.004661698512061864 0.00123567761684379 0.007413172696876988 1:0 2:0 3:0 4:0 5:0 6:0 7:0 8:0 9:0 10:0 11:1 12:1 13:1 14:1 15:0 16:0 17:0 18:0 19:0 20:0 21:0 22:1 23:1 24:0 25:0 26:0 27:0 28:0 29:0 30:0 31:1 32:1 33:0 34:0 35:0 36:0 37:0 38:0 39:0 40:1 41:0 42:0 43:0 44:0 45:1 46:1 47:0 48:1 49:0 50:0 51:0 52:1 53:1 54:0 55:0 56:1 57:0 58:0 59:1 60:1 61:0 62:0 63:0 64:1 65:0 66:0 67:1 68:0 69:0 70:0 71:0 72:1 73:0 74:1 75:1 76:0 77:0 78:0 79:1 80:1 81:0 82:1 83:0 84:0 85:0 86:1 87:1 88:0 89:1 90:1 91:0 92:0 93:0 94:1 95:0 96:0 97:1 98:0 99:0 100:0 101:1 102:1 103:0 104:0 105:1 106:0 107:1 108:1 109:1 110:0 111:0 112:0 113:1 114:1 115:1 116:0 117:0 118:0 119:0 120:0 121:0 122:0 123:0 124:0 125:0 126:0 127:0 128:0 
0.0008079574417118888 0.01099441293507359 0.01446078927612811 0.01011156466949457 0.002131781178870485 0.009320613096431609 0.001438758325834612 0.002929800954639334 0.003613629829699917 0.004997287128503121 0.001385030126911681 0.001536762667205632 0.001725600237736484 0.000890237406267812 0 0 0.003200453320811724 0 0.005541869743961577 0 0.002289006535173335 0 0 0.0008407149344866724 0.0005634759289233468 1:0 2:0 3:1 4:1 5:1 6:1 7:0 8:0 9:0 10:0 11:1 12:0 13:0 14:0 15:1 16:0 17:0 18:0 19:1 20:0 21:0 22:0 23:1 24:1 25:0 26:0 27:1 28:0 29:0 30:0 31:0 32:1 33:0 34:1 35:1 36:0 37:0 38:0 39:0 40:1 41:0 42:1 43:0 44:0 45:0 46:0 47:0 48:1 49:0 50:1 51:0 52:0 53:0 54:0 55:0 56:1 57:1 58:1 59:0 60:0 61:0 62:0 63:0 64:1 65:1 66:0 67:0 68:0 69:0 70:0 71:0 72:1 73:1 74:0 75:0 76:0 77:0 78:0 79:0 80:1 81:1 82:0 83:0 84:0 85:0 86:0 87:0 88:1 89:1 90:0 91:0 92:0 93:0 94:0 95:0 96:1 97:1 98:0 99:0 100:0 101:0 102:0 103:0 104:1 105:1 106:0 107:0 108:0 109:0 110:0 111:0 112:1 113:1 114:1 115:0 116:0 117:0 118:0 119:1 120:1 121:0 122:1 123:1 124:1 125:1 126:1 127:1 128:0 
0 0.03590607477412661 0 0 0.008369857016175783 0 0 0.005206984867979426 0.0793368472238449 0.04147519779743299 0 0.01729876751697817 0 0.001747273626910263 0.001111027640978381 0.03707039897986151 0.09126374440595642 0 0.00304619927158413 0 0.005316562747817772 0 0 0.006456654109276172 0 1:0 2:0 3:0 4:0 5:0 6:0 7:0 8:0 9:0 10:0 11:0 12:0 13:0 14:0 15:0 16:0 17:0 18:0 19:0 20:0 21:0 22:0 23:0 24:0 25:0 26:0 27:0 28:0 29:0 30:0 31:0 32:0 33:0 34:1 35:1 36:1 37:0 38:0 39:0 40:1 41:1 42:1 43:0 44:0 45:0 46:0 47:0 48:1 49:1 50:0 51:0 52:0 53:0 54:0 55:0 56:1 57:1 58:0 59:0 60:0 61:0 62:0 63:0 64:1 65:1 66:0 67:0 68:0 69:0 70:0 71:0 72:1 73:1 74:0 75:0 76:0 77:0 78:0 79:1 80:1 81:1 82:1 83:0 84:0 85:0 86:1 87:1 88:0 89:0 90:1 91:1 92:1 93:1 94:1 95:0 96:0 97:0 98:0 99:0 100:0 101:0 102:0 103:0 104:0 105:0 106:0 107:0 108:0 109:0 110:0 111:0 112:0 113:0 114:0 115:0 116:0 117:0 118:0 119:0 120:0 121:0 122:0 123:0 124:0 125:0 126:0 127:0 128:0 
0 0 0.01860680357679006 0 0 0 0 0 0.01739764888743079 0 0 0.004344978475623141 0 0 0 0 0.07850948665218899 0 0 0.004692310107425546 0 0 0 0.002138062450882175 0 1:0 2:0 3:0 4:0 5:0 6:0 7:0 8:0 9:0 10:0 11:0 12:0 13:0 14:0 15:0 16:0 17:0 18:0 19:0 20:0 21:0 22:0 23:0 24:0 25:0 26:1 27:1 28:0 29:0 30:0 31:0 32:0 33:1 34:1 35:0 36:0 37:0 38:0 39:0 40:0 41:1 42:0 43:0 44:0 45:0 46:1 47:1 48:0 49:1 50:0 51:0 52:0 53:0 54:0 55:1 56:1 57:1 58:0 59:0 60:0 61:0 62:0 63:0 64:1 65:1 66:0 67:0 68:0 69:0 70:0 71:0 72:1 73:1 74:0 75:0 76:0 77:0 78:0 79:0 80:1 81:1 82:0 83:0 84:0 85:0 86:0 87:1 88:1 89:1 90:1 91:0 92:0 93:0 94:1 95:1 96:0 97:0 98:0 99:1 100:1 101:1 102:1 103:0 104:0 105:0 106:0 107:0 108:0 109:0 110:0 111:0 112:0 113:0 114:0 115:0 116:0 117:0 118:0 119:0 120:0 121:0 122:0 123:0 124:0 125:0 126:0 127:0 128:0 
0 0.004669776250113102 0 0 0 0 0 0 0 0 0 0 0 0 0 0 0 0 0 0 0 0 0 0 0.0009024743612823586 1:0 2:0 3:0 4:0 5:0 6:0 7:0 8:0 9:0 10:0 11:1 12:0 13:0 14:0 15:0 16:0 17:0 18:1 19:1 20:1 21:0 22:0 23:0 24:0 25:0 26:1 27:0 28:1 29:1 30:1 31:0 32:0 33:0 34:1 35:0 36:0 37:0 38:1 39:1 40:0 41:1 42:1 43:0 44:0 45:0 46:0 47:1 48:0 49:1 50:0 51:0 52:0 53:0 54:0 55:1 56:1 57:1 58:0 59:0 60:0 61:0 62:0 63:0 64:1 65:1 66:0 67:0 68:0 69:0 70:0 71:0 72:1 73:1 74:0 75:0 76:0 77:0 78:0 79:0 80:1 81:1 82:0 83:0 84:0 85:0 86:0 87:0 88:1 89:1 90:0 91:0 92:0 93:0 94:0 95:1 96:1 97:1 98:0 99:0 100:0 101:1 102:1 103:1 104:0 105:1 106:0 107:0 108:1 109:1 110:0 111:0 112:0 113:1 114:1 115:1 116:0 117:0 118:0 119:0 120:0 121:0 122:0 123:0 124:0 125:0 126:0 127:0 128:0 
0 0 0 0.001570478135178124 0 0 0 0 0 0 0 0 0 0 0 0 0 0 0 0 0 0 0 0 0 1:0 2:0 3:1 4:1 5:1 6:0 7:0 8:0 9:0 10:0 11:0 12:0 13:1 14:1 15:1 16:1 17:0 18:0 19:0 20:0 21:1 22:1 23:0 24:1 25:0 26:0 27:0 28:1 29:1 30:1 31:0 32:1 33:0 34:0 35:1 36:1 37:0 38:0 39:0 40:1 41:0 42:1 43:1 44:0 45:0 46:0 47:0 48:1 49:0 50:1 51:0 52:0 53:0 54:0 55:0 56:1 57:0 58:1 59:0 60:0 61:0 62:0 63:0 64:1 65:1 66:1 67:0 68:0 69:0 70:0 71:0 72:1 73:1 74:0 75:0 76:0 77:0 78:0 79:1 80:1 81:1 82:0 83:0 84:0 85:0 86:0 87:1 88:0 89:1 90:0 91:0 92:0 93:0 94:0 95:1 96:0 97:1 98:0 99:0 100:0 101:0 102:1 103:1 104:0 105:1 106:0 107:0 108:0 109:0 110:1 111:0 112:0 113:1 114:0 115:0 116:0 117:1 118:1 119:0 120:0 121:1 122:1 123:1 124:1 125:1 126:0 127:0 128:0 
0.002890117826060446 0.09970249870646686 0.03549608332403451 0.003308430035292753 0.02541944894232484 0.01907100690388081 0.006621068017039563 0.03216754460245853 0.04348342615197696 0.01140129375431227 0.01186533979968851 0.01336930325199972 0.007788921979293435 0.02433470274387457 0.02774976938917277 0 0.02076787679798456 0.01245898146322797 0.0006326884804282323 0.008655870053484269 0.0182108213958563 0 0.01610671079137924 0 0.00543103711728044 1:0 2:0 3:0 4:0 5:0 6:0 7:0 8:0 9:0 10:0 11:0 12:0 13:0 14:0 15:0 16:0 17:0 18:0 19:0 20:0 21:0 22:0 23:0 24:0 25:0 26:0 27:0 28:0 29:0 30:0 31:0 32:0 33:0 34:0 35:1 36:1 37:1 38:1 39:1 40:0 41:0 42:0 43:1 44:0 45:0 46:1 47:1 48:1 49:0 50:1 51:0 52:0 53:0 54:0 55:0 56:1 57:1 58:0 59:0 60:0 61:0 62:0 63:1 64:1 65:1 66:0 67:0 68:0 69:0 70:0 71:1 72:0 73:1 74:0 75:0 76:0 77:0 78:1 79:1 80:0 81:1 82:0 83:0 84:0 85:1 86:1 87:0 88:0 89:1 90:1 91:1 92:1 93:0 94:0 95:0 96:0 97:0 98:0 99:0 100:0 101:0 102:0 103:0 104:0 105:0 106:0 107:0 108:0 109:0 110:0 111:0 112:0 113:0 114:0 115:0 116:0 117:0 118:0 119:0 120:0 121:0 122:0 123:0 124:0 125:0 126:0 127:0 128:0 
0 0 0.003055689105263678 0 0 0 0 0 0 0.02338582009230573 0 0 0 0 0 0 0 0 0.0004646830248317091 0 0 0 0 0 0 1:0 2:0 3:0 4:0 5:0 6:0 7:0 8:0 9:0 10:0 11:0 12:0 13:0 14:0 15:0 16:0 17:0 18:0 19:0 20:0 21:0 22:0 23:0 24:0 25:0 26:0 27:0 28:0 29:0 30:0 31:0 32:0 33:0 34:0 35:1 36:1 37:1 38:1 39:1 40:1 41:1 42:1 43:1 44:0 45:0 46:0 47:0 48:1 49:1 50:1 51:1 52:0 53:0 54:0 55:0 56:1 57:0 58:1 59:0 60:0 61:0 62:0 63:0 64:1 65:0 66:1 67:0 68:0 69:0 70:0 71:1 72:1 73:1 74:1 75:0 76:0 77:0 78:0 79:1 80:0 81:1 82:1 83:0 84:0 85:0 86:1 87:1 88:0 89:0 90:1 91:1 92:1 93:1 94:1 95:0 96:0 97:0 98:0 99:0 100:0 101:0 102:0 103:0 104:0 105:0 106:0 107:0 108:0 109:0 110:0 111:0 112:0 113:0 114:0 115:0 116:0 117:0 118:0 119:0 120:0 121:0 122:0 123:0 124:0 125:0 126:0 127:0 128:0 
0 0 0 0 0 0 0 0 0 0.0111458890066963 0 0 0 0 0 0 0 0 0 0 0 0 0 0 0 1:0 2:0 3:0 4:0 5:0 6:0 7:0 8:0 9:0 10:0 11:0 12:0 13:0 14:0 15:0 16:0 17:0 18:0 19:0 20:0 21:0 22:0 23:0 24:0 25:0 26:0 27:0 28:1 29:1 30:1 31:1 32:0 33:0 34:0 35:1 36:1 37:0 38:0 39:1 40:1 41:0 42:1 43:1 44:1 45:1 46:0 47:0 48:1 49:0 50:1 51:0 52:0 53:1 54:0 55:0 56:1 57:1 58:1 59:0 60:0 61:0 62:0 63:0 64:1 65:1 66:0 67:0 68:0 69:0 70:0 71:1 72:1 73:1 74:0 75:0 76:0 77:0 78:1 79:1 80:0 81:1 82:0 83:0 84:0 85:1 86:1 87:0 88:0 89:1 90:0 91:1 92:1 93:1 94:0 95:0 96:0 97:1 98:1 99:1 100:0 101:0 102:0 103:0 104:0 105:0 106:0 107:0 108:0 109:0 110:0 111:0 112:0 113:0 114:0 115:0 116:0 117:0 118:0 119:0 120:0 121:0 122:0 123:0 124:0 125:0 126:0 127:0 128:0 
0 0 0 0 0 0 0.0006538007549147641 0 0 0 0 0 0 0 0 0 0 0 0 0 0 0 0 0 0 1:0 2:0 3:0 4:0 5:0 6:0 7:0 8:0 9:0 10:0 11:0 12:1 13:1 14:1 15:1 16:1 17:0 18:0 19:0 20:1 21:0 22:0 23:0 24:1 25:0 26:0 27:1 28:1 29:0 30:0 31:0 32:1 33:0 34:0 35:1 36:0 37:0 38:0 39:0 40:0 41:0 42:0 43:1 44:1 45:1 46:1 47:1 48:1 49:0 50:0 51:1 52:0 53:0 54:0 55:0 56:1 57:1 58:1 59:1 60:0 61:0 62:0 63:0 64:1 65:1 66:0 67:0 68:0 69:0 70:0 71:0 72:1 73:1 74:0 75:0 76:0 77:0 78:0 79:0 80:1 81:1 82:0 83:0 84:0 85:0 86:0 87:0 88:1 89:1 90:0 91:0 92:0 93:0 94:0 95:1 96:1 97:1 98:0 99:0 100:1 101:1 102:1 103:1 104:0 105:1 106:0 107:0 108:1 109:0 110:0 111:0 112:0 113:1 114:1 115:1 116:1 117:0 118:0 119:0 120:0 121:0 122:0 123:0 124:0 125:0 126:0 127:0 128:0 
0 0 0.0002288776757047882 0 0 0 0 0 0 0 0 0 0 0 0 0 0 0 0 0 0 0.003371339617244153 0 0 0 1:0 2:0 3:0 4:0 5:0 6:0 7:0 8:0 9:0 10:0 11:0 12:0 13:0 14:0 15:0 16:0 17:0 18:0 19:1 20:1 21:1 22:1 23:1 24:0 25:0 26:0 27:1 28:0 29:0 30:0 31:1 32:0 33:0 34:0 35:1 36:1 37:0 38:0 39:1 40:1 41:0 42:0 43:1 44:1 45:0 46:0 47:0 48:1 49:0 50:1 51:1 52:0 53:0 54:0 55:0 56:1 57:0 58:1 59:0 60:0 61:0 62:0 63:0 64:1 65:1 66:1 67:0 68:0 69:0 70:0 71:0 72:1 73:1 74:0 75:0 76:0 77:0 78:0 79:0 80:1 81:1 82:0 83:0 84:0 85:0 86:0 87:1 88:0 89:1 90:0 91:0 92:0 93:0 94:1 95:1 96:0 97:1 98:0 99:0 100:1 101:1 102:1 103:0 104:0 105:1 106:1 107:1 108:1 109:0 110:0 111:0 112:0 113:0 114:0 115:0 116:0 117:0 118:0 119:0 120:0 121:0 122:0 123:0 124:0 125:0 126:0 127:0 128:0 
0 0 0 0.0009626409151746837 0 0 0 0 0 0 0 0 0 0 0 0 0 0 0 0 0 0 0 0 0 1:0 2:0 3:0 4:0 5:0 6:0 7:0 8:0 9:0 10:0 11:0 12:0 13:0 14:0 15:0 16:0 17:0 18:0 19:0 20:0 21:0 22:0 23:0 24:0 25:0 26:0 27:0 28:0 29:0 30:1 31:1 32:0 33:0 34:0 35:0 36:1 37:1 38:1 39:1 40:1 41:0 42:1 43:1 44:0 45:0 46:0 47:0 48:1 49:1 50:1 51:0 52:0 53:0 54:0 55:0 56:1 57:1 58:0 59:0 60:0 61:0 62:0 63:0 64:1 65:1 66:0 67:0 68:0 69:0 70:0 71:0 72:1 73:1 74:0 75:0 76:0 77:0 78:0 79:1 80:1 81:1 82:0 83:0 84:0 85:0 86:1 87:1 88:0 89:1 90:0 91:0 92:0 93:1 94:1 95:0 96:0 97:1 98:1 99:1 100:1 101:1 102:0 103:0 104:0 105:0 106:0 107:0 108:0 109:0 110:0 111:0 112:0 113:0 114:0 115:0 116:0 117:0 118:0 119:0 120:0 121:0 122:0 123:0 124:0 125:0 126:0 127:0 128:0 
0.001058043311091982 0.01711540505017634 0.01606695888533216 0.006578429135193807 0.0002473761947074387 0.001403538242154592 0 0.001051838145621224 0 0.001707578269025584 0 0.002855578281489575 0.0007294862839941005 0.0003712407173322773 0.003592921500473921 0.002139389458745818 0 0 0 0.00433445389866356 0 0 0 0 0.001810622054795804 1:0 2:0 3:0 4:0 5:0 6:0 7:0 8:0 9:0 10:0 11:0 12:0 13:0 14:0 15:0 16:0 17:0 18:1 19:1 20:0 21:0 22:0 23:0 24:0 25:0 26:1 27:0 28:0 29:1 30:0 31:0 32:0 33:0 34:1 35:0 36:0 37:1 38:1 39:0 40:0 41:1 42:1 43:0 44:0 45:0 46:1 47:1 48:0 49:1 50:0 51:0 52:0 53:0 54:0 55:1 56:0 57:1 58:0 59:0 60:0 61:0 62:0 63:1 64:1 65:1 66:0 67:0 68:0 69:0 70:0 71:0 72:1 73:1 74:0 75:0 76:0 77:0 78:0 79:0 80:1 81:1 82:1 83:0 84:0 85:0 86:0 87:0 88:1 89:0 90:1 91:1 92:0 93:0 94:0 95:0 96:1 97:0 98:0 99:1 100:1 101:0 102:0 103:0 104:1 105:0 106:0 107:0 108:1 109:1 110:1 111:1 112:1 113:0 114:0 115:0 116:0 117:0 118:0 119:0 120:0 121:0 122:0 123:0 124:0 125:0 126:0 127:0 128:0 
0.01671143165708958 0.01908958002185523 0.02929864681027839 0.01330078895134829 0 0.002828409478388932 0 0.003199428951468944 0 0.008462432179027982 0 0 0 0 0 0 0 0 0 0 0 0.01299897125160937 0 0 0 1:0 2:0 3:0 4:0 5:0 6:0 7:0 8:0 9:0 10:0 11:0 12:0 13:0 14:0 15:0 16:0 17:0 18:0 19:0 20:0 21:0 22:0 23:0 24:0 25:0 26:0 27:0 28:0 29:0 30:1 31:0 32:0 33:0 34:0 35:0 36:0 37:0 38:1 39:1 40:0 41:0 42:0 43:0 44:1 45:1 46:0 47:1 48:1 49:0 50:0 51:1 52:1 53:0 54:0 55:0 56:1 57:0 58:1 59:1 60:0 61:0 62:0 63:0 64:1 65:1 66:1 67:0 68:0 69:0 70:0 71:0 72:1 73:1 74:0 75:0 76:0 77:0 78:0 79:0 80:1 81:1 82:0 83:0 84:0 85:0 86:0 87:0 88:1 89:1 90:1 91:0 92:0 93:0 94:0 95:1 96:1 97:0 98:1 99:1 100:1 101:1 102:1 103:1 104:0 105:0 106:0 107:0 108:0 109:0 110:0 111:0 112:0 113:0 114:0 115:0 116:0 117:0 118:0 119:0 120:0 121:0 122:0 123:0 124:0 125:0 126:0 127:0 128:0 
0 0.0187157988702721 0 0.009361290717389404 0 0.006445342949281429 0 0 0 0 0 0.001254209359542183 0 0 0.01305831199803486 0 0.04091962468091057 0.002006726011244635 0 0.0009881677461119015 0.009150164946707482 0 0 0 0 1:0 2:0 3:0 4:0 5:0 6:0 7:0 8:0 9:0 10:0 11:0 12:0 13:0 14:0 15:0 16:0 17:0 18:0 19:0 20:0 21:0 22:0 23:0 24:0 25:0 26:1 27:1 28:1 29:0 30:0 31:0 32:0 33:0 34:0 35:0 36:1 37:1 38:1 39:1 40:0 41:0 42:0 43:0 44:0 45:0 46:0 47:1 48:1 49:0 50:0 51:0 52:0 53:0 54:0 55:0 56:1 57:1 58:0 59:0 60:0 61:0 62:0 63:0 64:1 65:1 66:0 67:0 68:0 69:0 70:0 71:0 72:1 73:1 74:0 75:0 76:0 77:0 78:0 79:1 80:1 81:1 82:0 83:0 84:0 85:1 86:1 87:1 88:0 89:1 90:1 91:1 92:1 93:1 94:0 95:0 96:0 97:0 98:1 99:1 100:0 101:0 102:0 103:0 104:0 105:0 106:0 107:0 108:0 109:0 110:0 111:0 112:0 113:0 114:0 115:0 116:0 117:0 118:0 119:0 120:0 121:0 122:0 123:0 124:0 125:0 126:0 127:0 128:0 
0.006949810159523979 0.002270084012616766 0.02444523605126131 0 0.01526491803413938 0 0.005027352253640946 0.03057296084806795 0.02401029391286305 0.02310434171300565 0.00455632786283086 0.01494778141174562 0.01044320349034455 0.0109661897235961 0.0003308325297514425 0.01282943251903221 0.01235617319447748 0.008538897578978581 0.02641611847602261 0.01203035601139587 0.005974336152908408 0 0.005293310505925244 0.001911846041777648 0.007790774263038945 1:0 2:0 3:0 4:0 5:0 6:0 7:0 8:0 9:0 10:0 11:0 12:0 13:0 14:0 15:0 16:0 17:0 18:0 19:0 20:1 21:1 22:1 23:0 24:0 25:0 26:1 27:1 28:1 29:0 30:1 31:1 32:1 33:1 34:0 35:0 36:0 37:0 38:0 39:0 40:1 41:1 42:0 43:0 44:0 45:0 46:0 47:0 48:1 49:1 50:0 51:0 52:0 53:0 54:0 55:0 56:1 57:1 58:0 59:0 60:0 61:0 62:0 63:0 64:1 65:1 66:0 67:0 68:0 69:0 70:0 71:0 72:1 73:1 74:0 75:0 76:0 77:0 78:0 79:1 80:0 81:1 82:0 83:0 84:0 85:0 86:1 87:0 88:0 89:1 90:0 91:0 92:0 93:1 94:0 95:0 96:0 97:1 98:1 99:1 100:1 101:0 102:0 103:0 104:0 105:0 106:1 107:1 108:0 109:0 110:0 111:0 112:0 113:0 114:0 115:0 116:0 117:0 118:0 119:0 120:0 121:0 122:0 123:0 124:0 125:0 126:0 127:0 128:0 
0 0 0.001374561014364586 0.002713528467877445 0.003460233013006371 0.004443389417084343 0.004570927215136636 0 0 0 0 0 0 0.003318178181435317 0.0130785706404971 0.002939090558154049 0.0137878281589129 0 0 0 0.0007842864793372103 0 0 0 0 1:0 2:0 3:0 4:0 5:0 6:0 7:0 8:0 9:0 10:0 11:0 12:0 13:0 14:0 15:0 16:0 17:0 18:0 19:0 20:0 21:0 22:0 23:0 24:0 25:0 26:0 27:1 28:1 29:1 30:0 31:0 32:0 33:0 34:0 35:0 36:0 37:1 38:1 39:0 40:0 41:1 42:0 43:0 44:0 45:0 46:1 47:1 48:0 49:1 50:0 51:0 52:0 53:0 54:0 55:1 56:1 57:1 58:0 59:0 60:0 61:0 62:0 63:0 64:1 65:1 66:0 67:0 68:0 69:0 70:0 71:0 72:1 73:1 74:0 75:0 76:0 77:0 78:0 79:0 80:1 81:1 82:0 83:0 84:0 85:0 86:0 87:1 88:1 89:0 90:1 91:1 92:0 93:0 94:0 95:1 96:0 97:0 98:0 99:1 100:1 101:1 102:1 103:1 104:0 105:0 106:0 107:0 108:0 109:0 110:0 111:0 112:0 113:0 114:0 115:0 116:0 117:0 118:0 119:0 120:0 121:0 122:0 123:0 124:0 125:0 126:0 127:0 128:0 
0.000130947204091312 0.002817873439019182 0.01565902906232389 0 0 0 0.003320231435168588 0 0 0 0 0 0 0 0 0 0.001789430048791956 0 0 0 0 0 0 0.001943893359347135 0 1:0 2:0 3:0 4:0 5:0 6:0 7:0 8:0 9:0 10:0 11:0 12:1 13:1 14:0 15:0 16:0 17:0 18:0 19:0 20:0 21:1 22:1 23:0 24:0 25:1 26:1 27:0 28:0 29:0 30:1 31:0 32:0 33:1 34:0 35:0 36:0 37:0 38:1 39:1 40:0 41:1 42:0 43:0 44:0 45:0 46:0 47:1 48:0 49:1 50:0 51:0 52:0 53:0 54:0 55:1 56:1 57:1 58:0 59:0 60:0 61:0 62:0 63:0 64:1 65:1 66:0 67:0 68:0 69:0 70:0 71:0 72:1 73:1 74:0 75:0 76:0 77:0 78:0 79:0 80:1 81:1 82:0 83:0 84:0 85:0 86:0 87:0 88:1 89:1 90:1 91:0 92:0 93:0 94:0 95:0 96:1 97:0 98:1 99:0 100:0 101:0 102:0 103:1 104:1 105:0 106:1 107:1 108:0 109:0 110:0 111:1 112:0 113:0 114:0 115:0 116:1 117:1 118:1 119:1 120:0 121:0 122:0 123:0 124:0 125:0 126:0 127:0 128:0 
0.00550966676738557 0.01541588832140672 0.01353023892435041 0.007709232791215301 0.007563519772631571 0.01282107906005054 0.01138468485028061 0.007929676763086401 0.01052492456265824 0.007440216807843716 0.007817154696386762 0.007031945930010374 0.005329866145365911 0.008519533872094117 0.01116735549421161 0.01088679366969904 0.019404185847957 0.003226123691765969 0.009183331051138194 0.01353254326311297 0.006205427494935692 0.006194059203235062 0.003058024889591194 0.002594993567018452 0.006085971181581943 1:0 2:1 3:1 4:1 5:1 6:1 7:0 8:0 9:1 10:1 11:0 12:0 13:0 14:1 15:1 16:0 17:1 18:0 19:0 20:0 21:0 22:0 23:1 24:0 25:1 26:0 27:0 28:0 29:0 30:0 31:1 32:0 33:1 34:0 35:0 36:0 37:0 38:0 39:1 40:0 41:1 42:0 43:0 44:0 45:0 46:0 47:1 48:0 49:1 50:0 51:0 52:0 53:0 54:0 55:1 56:0 57:1 58:0 59:0 60:0 61:0 62:0 63:1 64:0 65:1 66:0 67:0 68:0 69:0 70:0 71:1 72:1 73:1 74:0 75:0 76:0 77:0 78:0 79:0 80:1 81:1 82:0 83:0 84:0 85:0 86:0 87:0 88:1 89:1 90:0 91:0 92:0 93:0 94:0 95:0 96:1 97:1 98:1 99:0 100:0 101:0 102:0 103:1 104:1 105:0 106:0 107:1 108:0 109:0 110:0 111:1 112:0 113:0 114:0 115:0 116:1 117:0 118:1 119:1 120:0 121:0 122:0 123:0 124:0 125:1 126:1 127:0 128:0 
0 0 0 0 0 0 0 0 0 0.0004032682127448692 0 0 0 0 0 0 0 0 0 0 0 0 0 0 0 1:0 2:0 3:0 4:0 5:0 6:0 7:0 8:0 9:1 10:1 11:1 12:0 13:0 14:0 15:0 16:0 17:0 18:0 19:1 20:1 21:1 22:0 23:0 24:0 25:0 26:0 27:0 28:0 29:1 30:1 31:0 32:0 33:1 34:1 35:1 36:0 37:0 38:1 39:1 40:0 41:1 42:0 43:0 44:0 45:0 46:0 47:1 48:0 49:1 50:0 51:0 52:0 53:0 54:0 55:1 56:1 57:1 58:0 59:0 60:0 61:0 62:0 63:0 64:1 65:1 66:0 67:0 68:0 69:0 70:0 71:0 72:1 73:1 74:0 75:0 76:0 77:0 78:0 79:0 80:1 81:1 82:1 83:0 84:0 85:0 86:0 87:0 88:1 89:0 90:1 91:0 92:0 93:0 94:0 95:0 96:1 97:0 98:1 99:1 100:0 101:0 102:0 103:0 104:1 105:0 106:0 107:1 108:1 109:1 110:0 111:0 112:1 113:0 114:0 115:0 116:0 117:1 118:1 119:1 120:1 121:0 122:0 123:0 124:0 125:0 126:0 127:0 128:0 
0.001768112997850177 0 0.03656926699045315 0 0.01500810089441942 0 0.008361965212573239 0.0172480288830627 0.0149403786908016 0.02692078117450874 0 0.0115383675068678 0.008212106847174095 0.02177640063643895 0.01220060196110141 0.05172676512573299 0.1 0.007990143879478124 0.002437964450344699 0.03052881624870674 0.008517081093537207 0 0.005296625724197005 0.0359490722329651 0.04078449767959557 1:0 2:0 3:0 4:0 5:0 6:0 7:0 8:0 9:0 10:0 11:0 12:0 13:0 14:0 15:0 16:0 17:0 18:0 19:0 20:0 21:0 22:0 23:0 24:0 25:0 26:0 27:0 28:0 29:0 30:0 31:0 32:0 33:1 34:1 35:1 36:1 37:0 38:0 39:0 40:1 41:1 42:0 43:0 44:0 45:0 46:0 47:0 48:1 49:1 50:0 51:0 52:0 53:0 54:0 55:0 56:1 57:1 58:0 59:0 60:0 61:0 62:0 63:0 64:1 65:1 66:0 67:0 68:0 69:0 70:0 71:0 72:1 73:1 74:1 75:0 76:0 77:0 78:0 79:0 80:1 81:0 82:1 83:1 84:0 85:0 86:0 87:1 88:1 89:0 90:0 91:1 92:1 93:1 94:1 95:1 96:0 97:0 98:0 99:0 100:0 101:0 102:0 103:0 104:0 105:0 106:0 107:0 108:0 109:0 110:0 111:0 112:0 113:0 114:0 115:0 116:0 117:0 118:0 119:0 120:0 121:0 122:0 123:0 124:0 125:0 126:0 127:0 128:0 
0.03274739248634335 0.03981968338482123 0.08332620225471629 0.01714285167206347 0.03969717416048429 0.02931217791113761 0.01700603003412203 0.03921718263866459 0.03385319763781564 0.03084518132526094 0.01964236579345364 0.034172789977658 0.01444611593548195 0.03196548714708867 0.03782158269600634 0.05777529459938346 0.08748332746287329 0.02562775819448947 0.00632038499153533 0.02379130368708555 0.0144421611391746 0.0005715428769812197 0.02011522397713687 0.01545714489225799 0.01834433949302453 1:0 2:0 3:0 4:0 5:0 6:0 7:0 8:0 9:0 10:0 11:0 12:0 13:0 14:0 15:0 16:0 17:0 18:0 19:0 20:0 21:0 22:0 23:0 24:1 25:0 26:0 27:0 28:0 29:0 30:0 31:0 32:1 33:0 34:0 35:0 36:0 37:0 38:0 39:0 40:1 41:0 42:0 43:0 44:0 45:0 46:0 47:0 48:1 49:0 50:1 51:1 52:1 53:0 54:0 55:0 56:1 57:0 58:1 59:0 60:0 61:0 62:0 63:0 64:1 65:1 66:1 67:0 68:0 69:0 70:0 71:0 72:1 73:1 74:0 75:0 76:0 77:0 78:0 79:0 80:1 81:1 82:0 83:0 84:0 85:0 86:0 87:0 88:1 89:1 90:0 91:0 92:0 93:0 94:0 95:0 96:1 97:1 98:0 99:0 100:0 101:0 102:0 103:1 104:1 105:0 106:1 107:1 108:1 109:1 110:1 111:1 112:0 113:0 114:0 115:0 116:0 117:0 118:0 119:0 120:0 121:0 122:0 123:0 124:0 125:0 126:0 127:0 128:0 
0 0 0.003466623423442712 0 0 0 0 0 0 0.008356988334242765 0 0 0 0 0 0 0 0 0 0 0 0 0 0 0 1:0 2:0 3:0 4:0 5:0 6:0 7:0 8:0 9:0 10:0 11:0 12:0 13:0 14:0 15:0 16:0 17:0 18:0 19:0 20:0 21:0 22:0 23:0 24:0 25:0 26:0 27:1 28:1 29:1 30:1 31:1 32:0 33:0 34:0 35:1 36:0 37:0 38:0 39:1 40:1 41:0 42:1 43:1 44:0 45:0 46:0 47:0 48:1 49:0 50:1 51:1 52:0 53:0 54:0 55:0 56:1 57:0 58:1 59:0 60:0 61:0 62:0 63:0 64:1 65:1 66:1 67:0 68:0 69:0 70:0 71:0 72:1 73:1 74:0 75:0 76:0 77:0 78:0 79:0 80:1 81:1 82:0 83:0 84:0 85:0 86:0 87:0 88:1 89:1 90:1 91:1 92:0 93:0 94:0 95:1 96:1 97:0 98:0 99:1 100:1 101:1 102:1 103:1 104:0 105:0 106:0 107:0 108:0 109:0 110:0 111:0 112:0 113:0 114:0 115:0 116:0 117:0 118:0 119:0 120:0 121:0 122:0 123:0 124:0 125:0 126:0 127:0 128:0 
0 0 0 0 0 0 0 0 0.002588936079971702 0 0 0 0 0 0 0 0 0 0 0 0 0 0 0 0 1:0 2:0 3:0 4:0 5:0 6:0 7:0 8:0 9:0 10:0 11:0 12:0 13:0 14:0 15:0 16:0 17:0 18:0 19:0 20:0 21:0 22:0 23:0 24:0 25:0 26:0 27:0 28:1 29:1 30:1 31:1 32:0 33:0 34:1 35:1 36:0 37:1 38:0 39:1 40:1 41:0 42:1 43:0 44:0 45:0 46:0 47:0 48:1 49:0 50:1 51:0 52:0 53:0 54:0 55:0 56:1 57:1 58:1 59:0 60:0 61:0 62:0 63:0 64:1 65:1 66:0 67:0 68:0 69:0 70:0 71:0 72:1 73:1 74:0 75:0 76:0 77:0 78:0 79:0 80:1 81:1 82:0 83:0 84:0 85:0 86:0 87:1 88:1 89:1 90:0 91:0 92:0 93:1 94:1 95:1 96:0 97:1 98:1 99:1 100:1 101:1 102:0 103:0 104:0 105:0 106:0 107:0 108:0 109:0 110:0 111:0 112:0 113:0 114:0 115:0 116:0 117:0 118:0 119:0 120:0 121:0 122:0 123:0 124:0 125:0 126:0 127:0 128:0 
0 0.00729399533110301 0 0 0 0 0.00919121356846573 0 0 0 0 0 0 0 0 0 0 0 0.0007728171985665533 0 0 0 0 0 0 1:0 2:0 3:0 4:0 5:0 6:0 7:0 8:0 9:0 10:0 11:0 12:0 13:0 14:0 15:0 16:0 17:0 18:0 19:1 20:1 21:1 22:1 23:0 24:0 25:0 26:0 27:1 28:1 29:1 30:1 31:1 32:1 33:0 34:1 35:1 36:0 37:0 38:0 39:0 40:1 41:0 42:1 43:0 44:0 45:0 46:0 47:0 48:1 49:0 50:1 51:0 52:0 53:0 54:0 55:0 56:1 57:1 58:1 59:0 60:0 61:0 62:0 63:0 64:1 65:1 66:0 67:0 68:0 69:0 70:0 71:1 72:1 73:1 74:0 75:0 76:0 77:0 78:1 79:1 80:0 81:1 82:0 83:0 84:0 85:0 86:1 87:0 88:0 89:1 90:0 91:0 92:0 93:1 94:1 95:0 96:0 97:1 98:0 99:0 100:1 101:1 102:0 103:0 104:0 105:1 106:1 107:1 108:1 109:0 110:0 111:0 112:0 113:0 114:0 115:0 116:0 117:0 118:0 119:0 120:0 121:0 122:0 123:0 124:0 125:0 126:0 127:0 128:0 
0.004161626207570734 0.003377297714955502 0.01471213190944563 0.008112344183874748 0 0.005121642317995777 0.000427130765406907 0.001468565356348898 0.003233461758438126 0 0.000401738993623399 0 0 0 0.00548204724269468 0 0 0 0 0 0 0 0 0 0 1:1 2:1 3:1 4:0 5:0 6:0 7:0 8:0 9:0 10:0 11:1 12:0 13:0 14:0 15:0 16:0 17:0 18:0 19:1 20:1 21:0 22:0 23:0 24:0 25:0 26:0 27:0 28:1 29:1 30:0 31:0 32:0 33:0 34:0 35:1 36:1 37:1 38:1 39:0 40:0 41:0 42:1 43:1 44:0 45:0 46:1 47:1 48:0 49:0 50:1 51:0 52:0 53:0 54:0 55:1 56:1 57:1 58:1 59:0 60:0 61:0 62:0 63:0 64:1 65:1 66:0 67:0 68:0 69:0 70:0 71:0 72:1 73:1 74:0 75:0 76:0 77:0 78:0 79:0 80:1 81:1 82:0 83:0 84:0 85:0 86:0 87:0 88:1 89:1 90:0 91:0 92:0 93:0 94:0 95:0 96:1 97:1 98:0 99:0 100:0 101:0 102:0 103:0 104:1 105:1 106:1 107:0 108:0 109:0 110:0 111:0 112:1 113:0 114:1 115:0 116:0 117:0 118:0 119:0 120:1 121:0 122:1 123:1 124:1 125:1 126:1 127:1 128:0 
0.001793621410999485 0.03537357297556406 0.05533330655221478 0 0.01839514767096151 0.001763243942412438 0 0.02071184341530353 0.02354583495286959 0 0 0.0201175090903043 0.007520894179694324 0.01450224261206733 0.003365778462421514 0.01362952653214789 0.02347468103754715 0.0112659318464612 0 0.009930399629722624 0.005767220884907667 0 0.004276500298999241 0.004207563507970819 0.002786794924370486 1:0 2:0 3:0 4:0 5:0 6:0 7:0 8:0 9:0 10:0 11:0 12:0 13:0 14:0 15:0 16:0 17:0 18:0 19:0 20:0 21:0 22:0 23:0 24:0 25:0 26:0 27:0 28:0 29:0 30:0 31:0 32:0 33:0 34:0 35:0 36:1 37:1 38:1 39:1 40:1 41:0 42:0 43:0 44:0 45:0 46:0 47:0 48:1 49:0 50:1 51:1 52:0 53:0 54:0 55:0 56:1 57:0 58:1 59:0 60:0 61:0 62:0 63:0 64:1 65:1 66:1 67:0 68:0 69:0 70:0 71:1 72:1 73:1 74:0 75:0 76:0 77:0 78:1 79:1 80:0 81:1 82:0 83:0 84:0 85:1 86:1 87:0 88:0 89:1 90:1 91:1 92:1 93:1 94:0 95:0 96:0 97:0 98:0 99:0 100:0 101:0 102:0 103:0 104:0 105:0 106:0 107:0 108:0 109:0 110:0 111:0 112:0 113:0 114:0 115:0 116:0 117:0 118:0 119:0 120:0 121:0 122:0 123:0 124:0 125:0 126:0 127:0 128:0 
0.002299671722781069 0 0 0 0 0 0 0 0 0 0 0 0 0 0 0 0 0 0 0 0 0 0 0 0 1:0 2:0 3:0 4:0 5:0 6:0 7:0 8:0 9:0 10:0 11:0 12:0 13:0 14:0 15:0 16:0 17:0 18:0 19:0 20:0 21:0 22:0 23:0 24:0 25:0 26:0 27:0 28:0 29:0 30:0 31:0 32:0 33:0 34:0 35:0 36:0 37:0 38:0 39:0 40:0 41:0 42:0 43:1 44:1 45:1 46:1 47:1 48:0 49:1 50:1 51:1 52:1 53:0 54:0 55:1 56:1 57:1 58:0 59:0 60:0 61:0 62:0 63:0 64:1 65:1 66:0 67:0 68:0 69:0 70:0 71:0 72:1 73:1 74:1 75:0 76:0 77:0 78:1 79:1 80:1 81:0 82:1 83:1 84:1 85:1 86:1 87:0 88:0 89:0 90:0 91:0 92:0 93:0 94:0 95:0 96:0 97:0 98:0 99:0 100:0 101:0 102:0 103:0 104:0 105:0 106:0 107:0 108:0 109:0 110:0 111:0 112:0 113:0 114:0 115:0 116:0 117:0 118:0 119:0 120:0 121:0 122:0 123:0 124:0 125:0 126:0 127:0 128:0 
0.009551287784518584 0.01601324123600393 0.02829397730448083 0 0 0 0 0 0.003070762987729095 0.06541729042042145 0 0 0.002842558148357753 0 0 0 0 0 0.008967104450132083 0 0 0.02561848194812225 0.005161730048096831 0 0.007157737918514899 1:0 2:0 3:0 4:0 5:0 6:0 7:0 8:0 9:0 10:0 11:0 12:0 13:0 14:0 15:0 16:0 17:0 18:0 19:0 20:0 21:0 22:0 23:0 24:0 25:0 26:0 27:0 28:0 29:0 30:0 31:0 32:0 33:0 34:0 35:0 36:1 37:1 38:1 39:1 40:1 41:0 42:0 43:1 44:1 45:0 46:0 47:0 48:1 49:0 50:0 51:1 52:1 53:0 54:0 55:0 56:1 57:0 58:1 59:1 60:0 61:0 62:0 63:0 64:1 65:1 66:1 67:0 68:0 69:0 70:0 71:1 72:1 73:1 74:0 75:0 76:0 77:0 78:1 79:1 80:0 81:1 82:0 83:1 84:1 85:1 86:1 87:0 88:0 89:1 90:1 91:1 92:0 93:0 94:0 95:0 96:0 97:0 98:0 99:0 100:0 101:0 102:0 103:0 104:0 105:0 106:0 107:0 108:0 109:0 110:0 111:0 112:0 113:0 114:0 115:0 116:0 117:0 118:0 119:0 120:0 121:0 122:0 123:0 124:0 125:0 126:0 127:0 128:0 
0.01236992706251063 0.001249545046187744 0.0341815784841985 0 0.006074671957285603 0.00313217593292332 0 0 0 0 0.01138970580259125 0.0002079594929262292 0 0.003106069434004814 0.001630377206084644 0 0.008656546218709702 0.00236028976739737 0 0 0.004193032148170993 0 0 0.0006284614021008648 0 1:0 2:0 3:0 4:0 5:0 6:0 7:0 8:0 9:0 10:0 11:0 12:0 13:0 14:0 15:0 16:0 17:0 18:0 19:0 20:0 21:0 22:0 23:0 24:0 25:0 26:0 27:0 28:0 29:0 30:0 31:0 32:0 33:0 34:0 35:1 36:1 37:1 38:0 39:0 40:0 41:1 42:1 43:0 44:0 45:1 46:1 47:0 48:0 49:1 50:0 51:0 52:0 53:0 54:1 55:1 56:0 57:1 58:0 59:0 60:0 61:0 62:0 63:1 64:1 65:1 66:0 67:0 68:0 69:0 70:0 71:0 72:1 73:1 74:0 75:0 76:0 77:0 78:0 79:0 80:1 81:1 82:0 83:0 84:0 85:0 86:0 87:0 88:1 89:0 90:1 91:1 92:1 93:1 94:1 95:1 96:1 97:0 98:0 99:0 100:0 101:0 102:0 103:0 104:0 105:0 106:0 107:0 108:0 109:0 110:0 111:0 112:0 113:0 114:0 115:0 116:0 117:0 118:0 119:0 120:0 121:0 122:0 123:0 124:0 125:0 126:0 127:0 128:0 
0.003079806350749073 0 0.01153568096531047 0.0005230641430057051 0.003224238414993451 0.009284953010391599 0.004361681502501108 0.00740024973210666 0.007686389274210029 0.008702650639816329 0.005537276504299873 0.005048524644441644 0.002238660332411402 0.003037168038961473 0.00513510578979412 0 0.001293409635605575 0.001920021526065953 0 0.008053502281214301 0 0 0.001818391539157858 0 0.004265686707738608 1:0 2:0 3:0 4:0 5:0 6:0 7:0 8:0 9:0 10:0 11:1 12:1 13:0 14:0 15:0 16:0 17:0 18:1 19:1 20:1 21:1 22:0 23:0 24:0 25:1 26:1 27:0 28:0 29:1 30:1 31:0 32:0 33:1 34:0 35:0 36:0 37:0 38:1 39:0 40:0 41:1 42:0 43:0 44:0 45:0 46:1 47:1 48:0 49:1 50:0 51:0 52:0 53:0 54:0 55:1 56:0 57:1 58:0 59:0 60:0 61:0 62:0 63:0 64:1 65:1 66:0 67:0 68:0 69:0 70:0 71:0 72:1 73:1 74:0 75:0 76:0 77:0 78:0 79:0 80:1 81:1 82:0 83:0 84:0 85:0 86:0 87:0 88:1 89:1 90:0 91:0 92:0 93:0 94:0 95:0 96:1 97:1 98:1 99:0 100:0 101:0 102:0 103:0 104:1 105:0 106:1 107:0 108:0 109:0 110:0 111:1 112:1 113:0 114:1 115:1 116:1 117:1 118:1 119:1 120:0 121:0 122:0 123:0 124:0 125:0 126:0 127:0 128:0 
0 0.01569370659268676 0 0 0 0 0 0 0 0 0 0 0 0 0 0 0 0 0 0 0 0 0 0 0 1:0 2:0 3:0 4:0 5:0 6:0 7:0 8:0 9:0 10:0 11:0 12:0 13:0 14:0 15:0 16:0 17:0 18:0 19:0 20:0 21:0 22:0 23:0 24:0 25:0 26:0 27:0 28:0 29:0 30:0 31:0 32:0 33:1 34:1 35:1 36:1 37:1 38:1 39:0 40:0 41:1 42:0 43:0 44:0 45:0 46:1 47:1 48:0 49:1 50:0 51:0 52:0 53:0 54:0 55:1 56:1 57:1 58:0 59:0 60:0 61:0 62:0 63:0 64:1 65:1 66:0 67:0 68:0 69:0 70:0 71:0 72:1 73:1 74:0 75:0 76:0 77:0 78:0 79:1 80:1 81:1 82:1 83:0 84:0 85:1 86:1 87:1 88:0 89:0 90:1 91:1 92:1 93:1 94:0 95:0 96:0 97:0 98:0 99:0 100:0 101:0 102:0 103:0 104:0 105:0 106:0 107:0 108:0 109:0 110:0 111:0 112:0 113:0 114:0 115:0 116:0 117:0 118:0 119:0 120:0 121:0 122:0 123:0 124:0 125:0 126:0 127:0 128:0 
0 0.02158362289626767 0 0.003367909047428454 0 0 0 0 0.002613341042329809 0.01402657364820136 0.0007184078720349075 0 0.005558802161682406 0 0 0.006767559089785245 0.02633024155677817 0 0.003239386604371004 0 0 0 0 0 0 1:0 2:0 3:0 4:0 5:0 6:0 7:0 8:0 9:0 10:0 11:0 12:0 13:0 14:0 15:0 16:0 17:0 18:0 19:0 20:1 21:1 22:1 23:1 24:0 25:0 26:0 27:0 28:1 29:0 30:0 31:1 32:1 33:0 34:1 35:1 36:1 37:0 38:0 39:0 40:1 41:1 42:1 43:0 44:0 45:0 46:0 47:0 48:1 49:1 50:0 51:0 52:0 53:0 54:0 55:0 56:1 57:1 58:0 59:0 60:0 61:0 62:0 63:1 64:1 65:1 66:0 67:0 68:0 69:0 70:0 71:1 72:0 73:1 74:0 75:0 76:0 77:0 78:1 79:1 80:0 81:1 82:0 83:0 84:0 85:0 86:1 87:0 88:0 89:1 90:1 91:0 92:0 93:1 94:1 95:0 96:0 97:0 98:1 99:1 100:1 101:1 102:0 103:0 104:0 105:0 106:0 107:1 108:1 109:0 110:0 111:0 112:0 113:0 114:0 115:0 116:0 117:0 118:0 119:0 120:0 121:0 122:0 123:0 124:0 125:0 126:0 127:0 128:0 
0.0134482680888571 0.01913887497449887 0.03102907185752282 0.01477362065839519 0.009690573889863286 0.01597657095919939 0.004743986230897288 0.01110390018350081 0 0.007330184397139359 0.00985623970975345 0.008637877640373638 0.01106192265002155 0.01184951100862448 0.02549476818924681 0.01474737020250542 0.0176919954987023 0.01059440742644207 0.009365966974793567 0.00741037333827117 0.002761601030488454 0.005923296055685901 0.0161676572432092 0.007124527891887605 0.01178449961588014 1:0 2:0 3:0 4:0 5:0 6:0 7:0 8:0 9:0 10:0 11:0 12:0 13:0 14:0 15:1 16:0 17:0 18:0 19:0 20:0 21:0 22:0 23:1 24:0 25:0 26:0 27:0 28:0 29:0 30:0 31:1 32:0 33:0 34:0 35:0 36:0 37:0 38:0 39:1 40:1 41:0 42:0 43:0 44:1 45:1 46:1 47:0 48:1 49:0 50:0 51:0 52:1 53:0 54:0 55:0 56:1 57:0 58:0 59:0 60:1 61:0 62:0 63:0 64:1 65:0 66:0 67:1 68:1 69:0 70:0 71:0 72:1 73:0 74:1 75:1 76:0 77:0 78:0 79:1 80:1 81:1 82:1 83:0 84:0 85:0 86:0 87:1 88:0 89:1 90:0 91:0 92:0 93:0 94:1 95:1 96:0 97:1 98:0 99:0 100:0 101:1 102:1 103:0 104:0 105:1 106:1 107:0 108:1 109:1 110:0 111:0 112:0 113:0 114:1 115:1 116:1 117:0 118:0 119:0 120:0 121:0 122:0 123:0 124:0 125:0 126:0 127:0 128:0 
0 0 0 0 0 0 0 0 0.03226518146611548 0 0 0 0 0 0 0 0 0 0 0 0 0 0 0 0 1:0 2:0 3:0 4:0 5:0 6:0 7:0 8:0 9:0 10:0 11:0 12:0 13:0 14:0 15:0 16:0 17:0 18:0 19:0 20:0 21:0 22:0 23:0 24:0 25:0 26:0 27:1 28:1 29:1 30:1 31:1 32:1 33:0 34:0 35:1 36:1 37:0 38:0 39:0 40:1 41:0 42:1 43:1 44:0 45:0 46:0 47:0 48:1 49:1 50:1 51:0 52:0 53:0 54:0 55:0 56:1 57:1 58:0 59:0 60:0 61:0 62:0 63:0 64:1 65:1 66:0 67:0 68:0 69:0 70:0 71:0 72:1 73:1 74:0 75:0 76:0 77:0 78:0 79:0 80:1 81:1 82:0 83:0 84:0 85:0 86:0 87:0 88:1 89:1 90:1 91:0 92:0 93:0 94:0 95:1 96:1 97:0 98:1 99:1 100:1 101:1 102:1 103:1 104:0 105:0 106:0 107:0 108:0 109:0 110:0 111:0 112:0 113:0 114:0 115:0 116:0 117:0 118:0 119:0 120:0 121:0 122:0 123:0 124:0 125:0 126:0 127:0 128:0 
0.00735321067482447 0.00912728819949819 0.01268319076596579 0.004874695006511383 0.002128865569843226 0.002867866715652457 0 0.002864426245683923 0 0.001370958736147859 0.001290473326832566 0.003926417566153413 0 0.002656382296544841 0 0 0.0008612555181959135 0 0 0 0.001481771121598707 0 0.0009131134768416187 0 0 1:0 2:0 3:0 4:1 5:1 6:0 7:0 8:0 9:0 10:0 11:0 12:0 13:1 14:0 15:0 16:0 17:0 18:0 19:0 20:0 21:1 22:1 23:0 24:0 25:0 26:0 27:0 28:0 29:0 30:1 31:0 32:0 33:0 34:1 35:0 36:0 37:0 38:1 39:1 40:0 41:1 42:1 43:0 44:0 45:0 46:0 47:1 48:1 49:1 50:0 51:0 52:0 53:0 54:0 55:0 56:1 57:1 58:0 59:0 60:0 61:0 62:0 63:0 64:1 65:1 66:0 67:0 68:0 69:0 70:0 71:0 72:1 73:1 74:0 75:0 76:0 77:0 78:0 79:0 80:1 81:1 82:0 83:0 84:0 85:0 86:0 87:0 88:1 89:1 90:0 91:0 92:0 93:0 94:0 95:0 96:1 97:1 98:0 99:0 100:0 101:0 102:0 103:0 104:1 105:0 106:1 107:0 108:0 109:0 110:0 111:0 112:1 113:0 114:1 115:1 116:1 117:0 118:0 119:1 120:1 121:0 122:0 123:0 124:1 125:1 126:1 127:1 128:0 
0 0 0 0 0 0 0 0 0.006183937923769194 0 0 0 0 0 0 0 0 0 0 0 0 0.002960647844159896 0 0 0 1:0 2:0 3:0 4:0 5:0 6:0 7:0 8:0 9:0 10:0 11:0 12:0 13:0 14:0 15:0 16:0 17:0 18:0 19:0 20:0 21:0 22:0 23:0 24:0 25:0 26:0 27:0 28:0 29:0 30:0 31:0 32:0 33:0 34:0 35:0 36:1 37:1 38:1 39:1 40:1 41:0 42:0 43:1 44:1 45:0 46:0 47:0 48:1 49:0 50:1 51:1 52:0 53:0 54:0 55:0 56:1 57:0 58:1 59:0 60:0 61:0 62:0 63:0 64:1 65:1 66:1 67:0 68:0 69:0 70:0 71:0 72:1 73:1 74:0 75:0 76:0 77:0 78:0 79:1 80:1 81:1 82:0 83:0 84:0 85:1 86:1 87:1 88:0 89:1 90:1 91:1 92:1 93:1 94:0 95:0 96:0 97:0 98:1 99:1 100:0 101:0 102:0 103:0 104:0 105:0 106:0 107:0 108:0 109:0 110:0 111:0 112:0 113:0 114:0 115:0 116:0 117:0 118:0 119:0 120:0 121:0 122:0 123:0 124:0 125:0 126:0 127:0 128:0 
0 0 0 0 0 0 0 0 0 0.0002229688780700185 0 0 0 0 0 0 0 0 0 0 0 0 0 0 0 1:0 2:0 3:0 4:0 5:0 6:0 7:0 8:0 9:0 10:0 11:0 12:0 13:0 14:0 15:0 16:0 17:0 18:0 19:0 20:0 21:0 22:0 23:0 24:0 25:0 26:0 27:1 28:0 29:1 30:1 31:1 32:1 33:0 34:0 35:1 36:1 37:1 38:0 39:0 40:1 41:0 42:1 43:1 44:0 45:0 46:0 47:0 48:1 49:1 50:1 51:1 52:0 53:0 54:0 55:0 56:1 57:1 58:0 59:0 60:0 61:0 62:0 63:0 64:1 65:1 66:0 67:0 68:0 69:0 70:0 71:1 72:1 73:1 74:0 75:0 76:0 77:0 78:0 79:1 80:0 81:1 82:0 83:0 84:0 85:1 86:1 87:1 88:0 89:1 90:0 91:0 92:1 93:1 94:0 95:0 96:0 97:1 98:1 99:1 100:0 101:0 102:0 103:0 104:0 105:0 106:0 107:0 108:0 109:0 110:0 111:0 112:0 113:0 114:0 115:0 116:0 117:0 118:0 119:0 120:0 121:0 122:0 123:0 124:0 125:0 126:0 127:0 128:0 
0 0 0 0.001854820912134274 0 0 0 0 0 0 0 0 0 0 0 0 0 0 0 0 0 0 0 0 0 1:0 2:0 3:0 4:0 5:0 6:0 7:0 8:0 9:0 10:0 11:0 12:0 13:0 14:0 15:0 16:0 17:0 18:0 19:0 20:0 21:0 22:0 23:0 24:0 25:0 26:0 27:0 28:0 29:0 30:0 31:1 32:0 33:0 34:0 35:0 36:1 37:1 38:1 39:1 40:1 41:0 42:0 43:1 44:1 45:0 46:0 47:0 48:1 49:0 50:1 51:1 52:0 53:0 54:0 55:0 56:1 57:0 58:1 59:0 60:0 61:0 62:0 63:0 64:1 65:1 66:1 67:0 68:0 69:0 70:0 71:0 72:1 73:1 74:0 75:0 76:0 77:0 78:0 79:1 80:1 81:1 82:0 83:0 84:0 85:0 86:1 87:1 88:0 89:1 90:0 91:0 92:0 93:1 94:1 95:0 96:0 97:1 98:1 99:1 100:1 101:1 102:0 103:0 104:0 105:0 106:0 107:0 108:0 109:0 110:0 111:0 112:0 113:0 114:0 115:0 116:0 117:0 118:0 119:0 120:0 121:0 122:0 123:0 124:0 125:0 126:0 127:0 128:0 
0.1 0.1 0.1 0.07345801041621412 0.1 0.1 0.1 0.1 0.1 0.1 0.1 0.1 0.1 0.1 0.1 0.1 0.1 0.1 0.1 0.1 0.1 0.0420972807776444 0.1 0.1 0.1 1:0 2:0 3:0 4:0 5:0 6:0 7:0 8:0 9:0 10:0 11:0 12:0 13:0 14:0 15:0 16:0 17:0 18:0 19:0 20:0 21:0 22:0 23:0 24:0 25:0 26:0 27:0 28:0 29:0 30:0 31:0 32:0 33:0 34:0 35:0 36:0 37:0 38:0 39:0 40:0 41:0 42:0 43:0 44:0 45:0 46:0 47:0 48:0 49:1 50:1 51:1 52:0 53:0 54:0 55:0 56:0 57:1 58:1 59:1 60:1 61:1 62:0 63:0 64:0 65:1 66:0 67:1 68:0 69:1 70:1 71:1 72:1 73:1 74:1 75:1 76:0 77:0 78:0 79:0 80:0 81:0 82:0 83:0 84:0 85:0 86:0 87:0 88:0 89:0 90:0 91:0 92:0 93:0 94:0 95:0 96:0 97:0 98:0 99:0 100:0 101:0 102:0 103:0 104:0 105:0 106:0 107:0 108:0 109:0 110:0 111:0 112:0 113:0 114:0 115:0 116:0 117:0 118:0 119:0 120:0 121:0 122:0 123:0 124:0 125:0 126:0 127:0 128:0 
0 0 0.0004007067113438032 0.001469299585957917 0 0 0 0 0 0 0 0 0 0 0 0 0 0 0 0 0 0 0 0 0 1:0 2:0 3:0 4:0 5:0 6:0 7:0 8:0 9:0 10:0 11:0 12:0 13:0 14:0 15:1 16:0 17:0 18:0 19:0 20:0 21:0 22:1 23:1 24:1 25:0 26:0 27:0 28:0 29:0 30:1 31:0 32:1 33:0 34:0 35:1 36:1 37:1 38:1 39:0 40:1 41:0 42:1 43:1 44:1 45:1 46:1 47:0 48:1 49:1 50:1 51:0 52:0 53:0 54:0 55:0 56:1 57:1 58:0 59:0 60:0 61:0 62:0 63:0 64:1 65:1 66:0 67:0 68:0 69:0 70:0 71:0 72:1 73:1 74:0 75:0 76:0 77:0 78:0 79:0 80:1 81:1 82:0 83:0 84:0 85:0 86:0 87:1 88:1 89:1 90:0 91:0 92:0 93:0 94:0 95:1 96:0 97:1 98:0 99:0 100:0 101:0 102:1 103:1 104:0 105:1 106:0 107:0 108:0 109:1 110:1 111:0 112:0 113:1 114:1 115:1 116:1 117:1 118:0 119:0 120:0 121:0 122:0 123:0 124:0 125:0 126:0 127:0 128:0 
0 0.00179531436583139 0.006382151176771481 0 0 0 0.001176111908609994 0 0 0 0 0 0 0 0 0 0 0 0 0 0 0 0 0 0 1:0 2:0 3:0 4:0 5:1 6:1 7:0 8:0 9:0 10:0 11:0 12:1 13:1 14:0 15:0 16:0 17:0 18:0 19:1 20:1 21:1 22:1 23:0 24:0 25:0 26:0 27:1 28:0 29:0 30:1 31:1 32:0 33:0 34:1 35:1 36:0 37:0 38:0 39:1 40:1 41:0 42:1 43:0 44:0 45:0 46:0 47:0 48:1 49:1 50:1 51:0 52:0 53:0 54:0 55:0 56:1 57:1 58:0 59:0 60:0 61:0 62:0 63:0 64:1 65:1 66:0 67:0 68:0 69:0 70:0 71:0 72:1 73:1 74:0 75:0 76:0 77:0 78:0 79:0 80:1 81:1 82:0 83:0 84:0 85:0 86:0 87:0 88:1 89:1 90:0 91:0 92:0 93:0 94:0 95:0 96:1 97:1 98:0 99:0 100:0 101:0 102:0 103:0 104:1 105:1 106:0 107:0 108:0 109:0 110:0 111:0 112:1 113:1 114:0 115:0 116:0 117:0 118:0 119:1 120:1 121:1 122:1 123:1 124:1 125:1 126:1 127:1 128:0 
0.03219056340550591 0.08453849300715063 0.0672066198536886 0.01967470119478325 0.0712224947381439 0.07236716435368232 0.03483107093792993 0.061939042555006 0.04842742929891612 0.06265665715320344 0.0612715613766363 0.05888873530197497 0.04761017689926341 0.07167031669878371 0.07891737234452473 0.04748696704829052 0.04469733012509894 0.08086430542468591 0.02714321882996049 0.04286895598767246 0.03450386779089214 0.01650690279331904 0.04165055554479768 0.008346958470414351 0.04215803561006715 1:0 2:0 3:0 4:0 5:0 6:0 7:0 8:0 9:0 10:0 11:0 12:0 13:0 14:0 15:0 16:0 17:0 18:0 19:0 20:0 21:0 22:0 23:0 24:0 25:0 26:0 27:0 28:0 29:0 30:0 31:0 32:0 33:1 34:1 35:1 36:1 37:1 38:0 39:0 40:0 41:0 42:0 43:0 44:0 45:1 46:1 47:1 48:0 49:0 50:0 51:1 52:0 53:0 54:0 55:1 56:1 57:0 58:0 59:1 60:0 61:0 62:0 63:0 64:1 65:0 66:0 67:1 68:0 69:0 70:0 71:0 72:1 73:0 74:0 75:1 76:0 77:0 78:0 79:0 80:1 81:0 82:0 83:1 84:1 85:0 86:1 87:1 88:1 89:0 90:0 91:0 92:1 93:1 94:1 95:0 96:0 97:0 98:0 99:0 100:0 101:0 102:0 103:0 104:0 105:0 106:0 107:0 108:0 109:0 110:0 111:0 112:0 113:0 114:0 115:0 116:0 117:0 118:0 119:0 120:0 121:0 122:0 123:0 124:0 125:0 126:0 127:0 128:0 
0 0 0 0.001377127808411609 0 0 0 0 0 0 0 0 0 0 0 0 0 0 0 0 0 0 0 0 0 1:0 2:0 3:1 4:1 5:1 6:0 7:0 8:0 9:0 10:0 11:0 12:0 13:1 14:1 15:1 16:0 17:0 18:0 19:0 20:1 21:1 22:0 23:1 24:0 25:0 26:0 27:1 28:1 29:0 30:0 31:0 32:1 33:0 34:1 35:1 36:0 37:0 38:0 39:0 40:1 41:0 42:1 43:0 44:0 45:0 46:0 47:0 48:1 49:0 50:1 51:0 52:0 53:0 54:0 55:0 56:1 57:1 58:1 59:0 60:0 61:0 62:0 63:0 64:1 65:1 66:0 67:0 68:0 69:0 70:0 71:0 72:1 73:1 74:0 75:0 76:0 77:0 78:0 79:1 80:1 81:1 82:0 83:0 84:0 85:0 86:0 87:1 88:0 89:1 90:0 91:0 92:0 93:0 94:1 95:1 96:0 97:1 98:0 99:0 100:0 101:0 102:1 103:0 104:0 105:1 106:0 107:0 108:0 109:1 110:1 111:0 112:0 113:1 114:0 115:0 116:1 117:1 118:0 119:0 120:0 121:1 122:1 123:1 124:1 125:0 126:0 127:0 128:0 
0.05490525696696127 0.1 0.05894090374103684 0.008977432898971488 0.0286107082640747 0.0524567530733108 0.004833468244319155 0.03329628861019487 0.03192616433207308 0.04485033132720367 0.01677220250348785 0.03271852715719741 0.03129764958297511 0.04226547646271122 0.02384431218587612 0.02680410661617094 0.04346603844500833 0.01713994843462681 0.02176489236590613 0.01407764761874545 0.01195587964595817 0.002037196211752534 0.01492568392512385 0.01861103213665962 0.003107083929138752 1:0 2:0 3:0 4:0 5:0 6:0 7:0 8:0 9:0 10:0 11:0 12:0 13:0 14:0 15:0 16:0 17:0 18:0 19:0 20:0 21:0 22:0 23:0 24:0 25:0 26:0 27:0 28:0 29:0 30:0 31:0 32:0 33:0 34:0 35:0 36:0 37:0 38:0 39:0 40:0 41:0 42:0 43:1 44:1 45:1 46:1 47:1 48:1 49:0 50:1 51:1 52:0 53:0 54:1 55:0 56:1 57:1 58:0 59:0 60:0 61:0 62:0 63:0 64:1 65:1 66:0 67:0 68:0 69:0 70:1 71:1 72:1 73:1 74:1 75:0 76:1 77:1 78:1 79:0 80:0 81:0 82:1 83:1 84:1 85:0 86:0 87:0 88:0 89:0 90:0 91:0 92:0 93:0 94:0 95:0 96:0 97:0 98:0 99:0 100:0 101:0 102:0 103:0 104:0 105:0 106:0 107:0 108:0 109:0 110:0 111:0 112:0 113:0 114:0 115:0 116:0 117:0 118:0 119:0 120:0 121:0 122:0 123:0 124:0 125:0 126:0 127:0 128:0 
0.01271307247483347 0.02004114217324554 0.01896425211161686 0.01402382777179863 0.01967339575923924 0.02136407760069598 0.01100985726708503 0.02198838824884064 0.01776714816397437 0.02347420051793549 0.0169534749344111 0.01733699501561147 0.02136554409439708 0.01866040780540235 0.02011528606509038 0.01399813497369396 0.01922265403808682 0.01717848499153933 0.02055746525731549 0.01540174233407519 0.008970134351376485 0.005141689547191266 0.01147281521819403 0.002958982850444063 0.01842489140454341 1:0 2:0 3:0 4:1 5:1 6:1 7:1 8:1 9:0 10:0 11:1 12:1 13:0 14:0 15:0 16:0 17:0 18:0 19:1 20:0 21:0 22:0 23:0 24:1 25:0 26:0 27:1 28:0 29:0 30:0 31:0 32:1 33:0 34:1 35:1 36:0 37:0 38:0 39:1 40:1 41:0 42:1 43:0 44:0 45:0 46:0 47:1 48:0 49:0 50:1 51:0 52:0 53:0 54:0 55:1 56:0 57:0 58:1 59:0 60:0 61:0 62:1 63:0 64:0 65:0 66:1 67:0 68:0 69:0 70:1 71:0 72:0 73:0 74:1 75:0 76:0 77:1 78:1 79:0 80:0 81:0 82:1 83:0 84:0 85:1 86:0 87:0 88:0 89:1 90:1 91:0 92:1 93:1 94:0 95:0 96:0 97:1 98:0 99:0 100:1 101:0 102:0 103:0 104:0 105:1 106:0 107:1 108:1 109:0 110:0 111:0 112:0 113:1 114:0 115:1 116:0 117:0 118:0 119:0 120:0 121:1 122:1 123:1 124:0 125:0 126:0 127:0 128:0 
0 0.001329801238690703 0.002815476849731415 0.002650008759541365 0 0.002376181611450863 0 0 0 0 0 0 0 0 0 0 0 0 0.0050343389524986 0 0 0 0 0 0 1:0 2:0 3:1 4:1 5:1 6:1 7:1 8:0 9:0 10:0 11:0 12:1 13:1 14:0 15:1 16:0 17:0 18:0 19:0 20:1 21:0 22:0 23:1 24:1 25:0 26:0 27:1 28:1 29:0 30:0 31:0 32:1 33:0 34:0 35:1 36:0 37:0 38:0 39:0 40:1 41:0 42:0 43:1 44:0 45:0 46:0 47:0 48:1 49:0 50:0 51:1 52:0 53:0 54:0 55:0 56:1 57:0 58:1 59:1 60:0 61:0 62:0 63:0 64:1 65:0 66:1 67:0 68:0 69:0 70:0 71:0 72:1 73:0 74:1 75:0 76:0 77:0 78:0 79:1 80:1 81:1 82:1 83:0 84:0 85:0 86:0 87:1 88:0 89:1 90:0 91:0 92:0 93:0 94:0 95:1 96:0 97:1 98:0 99:0 100:0 101:0 102:1 103:1 104:0 105:1 106:0 107:0 108:0 109:1 110:1 111:0 112:0 113:1 114:1 115:0 116:1 117:1 118:0 119:0 120:0 121:0 122:1 123:1 124:1 125:0 126:0 127:0 128:0 
0 0 0 0.001957590732961803 0 0 0 0 0 0 0 0 0 0 0 0 0 0 0 0 0 0 0 0 0 1:0 2:0 3:0 4:1 5:1 6:1 7:0 8:0 9:0 10:0 11:1 12:1 13:1 14:1 15:1 16:0 17:0 18:1 19:1 20:0 21:0 22:1 23:1 24:0 25:0 26:1 27:0 28:0 29:0 30:0 31:1 32:1 33:0 34:1 35:0 36:0 37:0 38:0 39:0 40:1 41:1 42:1 43:0 44:0 45:0 46:0 47:0 48:1 49:1 50:0 51:0 52:0 53:0 54:0 55:0 56:1 57:1 58:0 59:0 60:0 61:0 62:0 63:0 64:1 65:1 66:0 67:0 68:0 69:0 70:0 71:0 72:1 73:1 74:0 75:0 76:0 77:0 78:0 79:0 80:1 81:1 82:0 83:0 84:0 85:0 86:0 87:0 88:1 89:1 90:0 91:0 92:0 93:0 94:0 95:1 96:1 97:1 98:0 99:0 100:0 101:0 102:0 103:1 104:0 105:1 106:1 107:0 108:0 109:0 110:1 111:1 112:0 113:0 114:1 115:0 116:0 117:1 118:1 119:0 120:0 121:0 122:1 123:1 124:1 125:1 126:0 127:0 128:0 
0 0 0 0.009975867359819954 0 0 0 0 0 0 0 0 0 0 0 0 0 0 0.0006079962314750204 0 0 0 0 0 0 1:0 2:0 3:0 4:0 5:0 6:0 7:0 8:0 9:0 10:0 11:0 12:0 13:0 14:0 15:0 16:0 17:0 18:0 19:0 20:1 21:0 22:0 23:0 24:0 25:0 26:1 27:1 28:1 29:1 30:1 31:1 32:0 33:1 34:1 35:0 36:1 37:1 38:0 39:1 40:1 41:1 42:0 43:1 44:1 45:0 46:0 47:0 48:1 49:0 50:1 51:1 52:0 53:0 54:0 55:0 56:1 57:0 58:1 59:0 60:0 61:0 62:0 63:0 64:1 65:0 66:1 67:0 68:0 69:0 70:0 71:0 72:1 73:1 74:1 75:0 76:0 77:0 78:0 79:1 80:1 81:1 82:0 83:0 84:0 85:0 86:1 87:1 88:0 89:1 90:0 91:0 92:0 93:0 94:1 95:0 96:0 97:1 98:1 99:0 100:1 101:1 102:1 103:0 104:0 105:0 106:1 107:1 108:1 109:0 110:0 111:0 112:0 113:0 114:0 115:0 116:0 117:0 118:0 119:0 120:0 121:0 122:0 123:0 124:0 125:0 126:0 127:0 128:0 
0 0 0 0 0 0 0.002784074164636198 0 0 0 0 0 0.0030228660172183 0 0 0.007411470165240517 0.01186357155098105 0 0.001115408989529453 0 0 0 0 0 0.001094254438077085 1:0 2:0 3:0 4:0 5:1 6:1 7:1 8:1 9:0 10:0 11:1 12:1 13:1 14:0 15:0 16:1 17:0 18:1 19:1 20:0 21:0 22:0 23:0 24:1 25:1 26:0 27:0 28:0 29:0 30:0 31:0 32:1 33:1 34:0 35:0 36:0 37:0 38:0 39:0 40:1 41:0 42:1 43:0 44:0 45:0 46:0 47:0 48:1 49:0 50:1 51:0 52:0 53:0 54:0 55:0 56:1 57:1 58:1 59:0 60:0 61:0 62:0 63:0 64:1 65:1 66:0 67:0 68:0 69:0 70:0 71:0 72:1 73:1 74:0 75:0 76:0 77:0 78:0 79:1 80:1 81:1 82:0 83:0 84:0 85:0 86:1 87:1 88:0 89:1 90:0 91:0 92:0 93:1 94:1 95:0 96:0 97:1 98:0 99:0 100:1 101:1 102:0 103:0 104:0 105:1 106:0 107:1 108:1 109:0 110:0 111:0 112:0 113:1 114:1 115:0 116:0 117:0 118:0 119:0 120:0 121:1 122:0 123:0 124:0 125:0 126:0 127:0 128:0 
0.009632902210980766 0.01240611899654638 0.02615499621031196 0.01287137649403649 0.009418617124082544 0.02724542120871536 0.00492202086720914 0.0117666106031145 0.008810711852933677 0.005948063585936725 0.008290092077963758 0.00707423779162467 0.006160057265206235 0.009644527055568508 0.02094861271361733 0.003795008360031106 0.008986099511829024 0.008069139178059093 0.003325092917420882 0.002638564067963569 0.007418471417181542 0.002140889522421985 0.007398512729279521 0 0.003553411731560867 1:0 2:0 3:0 4:0 5:0 6:0 7:0 8:1 9:0 10:0 11:0 12:0 13:0 14:0 15:1 16:0 17:0 18:0 19:0 20:0 21:0 22:1 23:0 24:0 25:0 26:0 27:0 28:0 29:1 30:0 31:0 32:0 33:0 34:0 35:0 36:1 37:1 38:1 39:1 40:1 41:0 42:0 43:1 44:1 45:0 46:0 47:0 48:1 49:0 50:0 51:1 52:0 53:0 54:0 55:0 56:1 57:0 58:0 59:1 60:0 61:0 62:0 63:0 64:1 65:0 66:1 67:0 68:0 69:0 70:0 71:0 72:1 73:0 74:1 75:0 76:0 77:0 78:0 79:0 80:1 81:1 82:0 83:0 84:0 85:0 86:0 87:0 88:1 89:1 90:0 91:0 92:0 93:0 94:0 95:0 96:1 97:1 98:0 99:0 100:0 101:0 102:0 103:1 104:1 105:1 106:0 107:0 108:0 109:0 110:1 111:1 112:0 113:1 114:0 115:0 116:0 117:1 118:1 119:0 120:0 121:1 122:1 123:1 124:1 125:1 126:0 127:0 128:0 
0.08944401677126286 0.1 0.1 0.03102381681278202 0.08165697593134143 0.1 0.03589456423613117 0.08644340950948157 0.09325561241888036 0.1 0.1 0.07489130918705114 0.06522799597059194 0.1 0.04517561991132232 0.04426417480443611 0.1 0.07686800969982203 0.02702067703732154 0.07297979500328891 0.0357724648095212 0.03227272551210825 0.05834150413025261 0.03055224635571338 0.06683400090346034 1:0 2:0 3:0 4:0 5:0 6:0 7:0 8:0 9:0 10:0 11:0 12:0 13:0 14:0 15:0 16:0 17:0 18:0 19:0 20:0 21:0 22:0 23:0 24:0 25:0 26:0 27:0 28:0 29:0 30:0 31:0 32:0 33:0 34:0 35:1 36:0 37:0 38:0 39:0 40:0 41:0 42:0 43:1 44:0 45:0 46:0 47:0 48:0 49:0 50:0 51:1 52:0 53:0 54:0 55:0 56:0 57:0 58:0 59:1 60:0 61:0 62:0 63:0 64:0 65:1 66:1 67:1 68:1 69:1 70:1 71:1 72:1 73:1 74:0 75:0 76:0 77:0 78:0 79:0 80:1 81:1 82:0 83:0 84:0 85:0 86:0 87:1 88:1 89:1 90:1 91:1 92:1 93:1 94:1 95:1 96:0 97:0 98:0 99:0 100:0 101:0 102:0 103:0 104:0 105:0 106:0 107:0 108:0 109:0 110:0 111:0 112:0 113:0 114:0 115:0 116:0 117:0 118:0 119:0 120:0 121:0 122:0 123:0 124:0 125:0 126:0 127:0 128:0 
0.1 0.1 0.1 0.0890328204658732 0.1 0.1 0.1 0.1 0.1 0.1 0.1 0.1 0.1 0.1 0.1 0.1 0.1 0.1 0.1 0.1 0.1 0.05361374570570502 0.1 0.1 0.1 1:0 2:0 3:0 4:0 5:0 6:0 7:0 8:0 9:0 10:0 11:0 12:0 13:0 14:0 15:0 16:0 17:0 18:0 19:0 20:0 21:0 22:0 23:0 24:0 25:0 26:0 27:0 28:0 29:0 30:0 31:0 32:0 33:0 34:0 35:0 36:0 37:0 38:0 39:0 40:0 41:0 42:0 43:0 44:0 45:0 46:0 47:0 48:0 49:0 50:0 51:1 52:1 53:0 54:0 55:0 56:1 57:0 58:1 59:1 60:0 61:0 62:0 63:0 64:1 65:0 66:1 67:0 68:0 69:0 70:0 71:1 72:1 73:1 74:1 75:1 76:1 77:1 78:1 79:1 80:0 81:0 82:0 83:0 84:0 85:0 86:0 87:0 88:0 89:0 90:0 91:0 92:0 93:0 94:0 95:0 96:0 97:0 98:0 99:0 100:0 101:0 102:0 103:0 104:0 105:0 106:0 107:0 108:0 109:0 110:0 111:0 112:0 113:0 114:0 115:0 116:0 117:0 118:0 119:0 120:0 121:0 122:0 123:0 124:0 125:0 126:0 127:0 128:0 
0 0 0 0.0270879311678951 0 0 0 0 0.02541664517499149 0 0 0 0 0 0 0.004609134774564226 0.09582349445291985 0 0 0 0 0 0 0 0 1:0 2:0 3:0 4:0 5:0 6:0 7:0 8:0 9:0 10:0 11:0 12:0 13:0 14:0 15:0 16:0 17:0 18:0 19:0 20:0 21:0 22:0 23:0 24:0 25:0 26:1 27:0 28:0 29:1 30:1 31:1 32:1 33:1 34:1 35:0 36:0 37:0 38:0 39:0 40:1 41:1 42:0 43:0 44:0 45:0 46:0 47:0 48:1 49:1 50:0 51:0 52:0 53:0 54:0 55:0 56:1 57:1 58:0 59:0 60:0 61:0 62:0 63:0 64:1 65:1 66:0 67:0 68:0 69:0 70:0 71:0 72:1 73:1 74:0 75:0 76:0 77:0 78:0 79:1 80:1 81:1 82:0 83:0 84:0 85:0 86:1 87:1 88:0 89:1 90:0 91:0 92:0 93:1 94:1 95:0 96:0 97:1 98:1 99:1 100:1 101:1 102:0 103:0 104:0 105:0 106:0 107:0 108:0 109:0 110:0 111:0 112:0 113:0 114:0 115:0 116:0 117:0 118:0 119:0 120:0 121:0 122:0 123:0 124:0 125:0 126:0 127:0 128:0 
0 0 0 4.377932520446624e-05 0 0 0 0 0 0 0 0 0 0 0 0 0 0 0 0 0 0 0 0 0 1:0 2:0 3:0 4:0 5:0 6:0 7:0 8:0 9:0 10:0 11:0 12:0 13:0 14:0 15:0 16:0 17:0 18:0 19:0 20:0 21:0 22:0 23:1 24:1 25:0 26:0 27:0 28:0 29:1 30:1 31:1 32:1 33:0 34:0 35:0 36:1 37:1 38:0 39:1 40:1 41:0 42:1 43:1 44:1 45:0 46:0 47:0 48:1 49:1 50:1 51:0 52:0 53:0 54:0 55:0 56:1 57:1 58:0 59:0 60:0 61:0 62:0 63:0 64:1 65:1 66:0 67:0 68:0 69:0 70:0 71:0 72:1 73:1 74:0 75:0 76:0 77:0 78:0 79:0 80:1 81:1 82:0 83:0 84:0 85:0 86:0 87:1 88:1 89:1 90:0 91:0 92:0 93:0 94:0 95:1 96:0 97:1 98:1 99:0 100:0 101:1 102:1 103:1 104:0 105:0 106:1 107:1 108:1 109:1 110:0 111:0 112:0 113:0 114:0 115:0 116:0 117:0 118:0 119:0 120:0 121:0 122:0 123:0 124:0 125:0 126:0 127:0 128:0 
0 0 0 0 0 0 0 0 0 0 0.004936315841940667 0 0 0 0 0 0 0 0 0 0 0 0 0 0 1:0 2:0 3:0 4:0 5:0 6:0 7:0 8:0 9:0 10:0 11:0 12:0 13:0 14:0 15:0 16:0 17:0 18:0 19:0 20:0 21:0 22:0 23:0 24:0 25:0 26:0 27:0 28:1 29:1 30:1 31:1 32:0 33:0 34:0 35:1 36:0 37:1 38:0 39:1 40:1 41:0 42:1 43:0 44:0 45:0 46:0 47:0 48:1 49:1 50:0 51:0 52:0 53:0 54:0 55:0 56:1 57:1 58:0 59:0 60:0 61:0 62:0 63:0 64:1 65:1 66:0 67:0 68:0 69:0 70:0 71:0 72:1 73:1 74:0 75:0 76:0 77:0 78:0 79:0 80:1 81:1 82:0 83:0 84:0 85:0 86:0 87:1 88:1 89:0 90:1 91:0 92:0 93:0 94:1 95:1 96:0 97:0 98:0 99:1 100:1 101:1 102:1 103:0 104:0 105:0 106:0 107:0 108:0 109:0 110:0 111:0 112:0 113:0 114:0 115:0 116:0 117:0 118:0 119:0 120:0 121:0 122:0 123:0 124:0 125:0 126:0 127:0 128:0 
0 0 0 0 0 0 0 0.0005240964774092091 0 0 0 0.002366284085462994 0.001751519969804241 0.0002467004892194072 0 0.01214153475395945 0.011932070814919 0 0 0 0 0 0 0 0 1:0 2:0 3:0 4:0 5:0 6:0 7:0 8:0 9:0 10:0 11:0 12:0 13:0 14:0 15:0 16:0 17:0 18:0 19:1 20:1 21:0 22:1 23:1 24:1 25:0 26:0 27:1 28:0 29:0 30:0 31:0 32:1 33:0 34:1 35:1 36:0 37:0 38:0 39:0 40:1 41:0 42:1 43:0 44:0 45:0 46:0 47:0 48:1 49:1 50:1 51:0 52:0 53:0 54:0 55:0 56:1 57:1 58:0 59:0 60:0 61:0 62:0 63:0 64:1 65:1 66:0 67:0 68:0 69:0 70:0 71:0 72:1 73:1 74:0 75:0 76:0 77:0 78:0 79:1 80:0 81:1 82:0 83:0 84:0 85:0 86:0 87:1 88:0 89:1 90:0 91:0 92:1 93:1 94:1 95:1 96:0 97:1 98:0 99:0 100:1 101:0 102:0 103:0 104:0 105:0 106:1 107:1 108:1 109:0 110:0 111:0 112:0 113:0 114:0 115:0 116:0 117:0 118:0 119:0 120:0 121:0 122:0 123:0 124:0 125:0 126:0 127:0 128:0 
0 0 0 0 0.001609813563569805 0.01077690804882024 0.001196994357288682 0 0 0 0.008725859893667762 0.001009895078514572 0.005824472967298779 0 0.006209266964282891 0 0.01600195839153819 0 0 0 0.001777602210952908 0 0 0 0 1:0 2:0 3:0 4:0 5:0 6:0 7:0 8:0 9:0 10:0 11:0 12:0 13:0 14:0 15:0 16:0 17:0 18:0 19:0 20:0 21:1 22:1 23:1 24:1 25:0 26:0 27:0 28:1 29:1 30:0 31:0 32:1 33:0 34:0 35:1 36:1 37:0 38:0 39:0 40:1 41:0 42:0 43:1 44:0 45:0 46:0 47:0 48:1 49:0 50:0 51:0 52:0 53:0 54:0 55:0 56:1 57:0 58:1 59:0 60:0 61:0 62:0 63:0 64:1 65:1 66:0 67:0 68:0 69:0 70:0 71:1 72:1 73:1 74:0 75:0 76:0 77:0 78:1 79:1 80:0 81:1 82:0 83:0 84:0 85:1 86:1 87:0 88:0 89:1 90:0 91:0 92:1 93:1 94:0 95:0 96:0 97:1 98:1 99:1 100:1 101:0 102:0 103:0 104:0 105:0 106:1 107:1 108:0 109:0 110:0 111:0 112:0 113:0 114:0 115:0 116:0 117:0 118:0 119:0 120:0 121:0 122:0 123:0 124:0 125:0 126:0 127:0 128:0 
0 0 0 0 0 0 0 0 0.03046934759856136 0 0 0 0 0 0 0 0 0 0 0 0 0 0 0 0 1:0 2:0 3:0 4:0 5:0 6:0 7:0 8:0 9:0 10:0 11:0 12:0 13:0 14:0 15:0 16:0 17:0 18:0 19:0 20:0 21:0 22:0 23:0 24:0 25:0 26:0 27:0 28:0 29:1 30:1 31:1 32:0 33:0 34:0 35:0 36:1 37:1 38:0 39:1 40:1 41:0 42:0 43:1 44:1 45:0 46:0 47:0 48:1 49:0 50:1 51:0 52:0 53:0 54:0 55:0 56:1 57:1 58:1 59:0 60:0 61:0 62:0 63:0 64:1 65:1 66:0 67:0 68:0 69:0 70:0 71:1 72:1 73:1 74:0 75:0 76:0 77:0 78:1 79:1 80:0 81:1 82:0 83:0 84:0 85:1 86:1 87:0 88:0 89:1 90:1 91:1 92:0 93:1 94:0 95:0 96:0 97:0 98:0 99:1 100:1 101:0 102:0 103:0 104:0 105:0 106:0 107:0 108:0 109:0 110:0 111:0 112:0 113:0 114:0 115:0 116:0 117:0 118:0 119:0 120:0 121:0 122:0 123:0 124:0 125:0 126:0 127:0 128:0 
0 0.01991629623245744 0 0 0 0 0 0 0 0 0 0 0 0 0 0 0.01371877340170508 0 0 0 0 0 0 0 0 1:0 2:0 3:0 4:0 5:0 6:0 7:0 8:0 9:0 10:0 11:0 12:0 13:0 14:0 15:0 16:0 17:0 18:0 19:0 20:0 21:0 22:0 23:0 24:0 25:0 26:0 27:1 28:1 29:1 30:1 31:1 32:1 33:0 34:0 35:1 36:0 37:0 38:0 39:0 40:1 41:0 42:1 43:1 44:0 45:0 46:0 47:0 48:1 49:1 50:1 51:0 52:0 53:0 54:0 55:0 56:1 57:1 58:0 59:0 60:0 61:0 62:0 63:0 64:1 65:1 66:0 67:0 68:0 69:0 70:0 71:1 72:1 73:1 74:0 75:0 76:0 77:0 78:0 79:1 80:0 81:1 82:0 83:0 84:0 85:0 86:1 87:1 88:0 89:1 90:0 91:0 92:0 93:1 94:1 95:0 96:0 97:1 98:1 99:1 100:1 101:1 102:0 103:0 104:0 105:0 106:0 107:0 108:0 109:0 110:0 111:0 112:0 113:0 114:0 115:0 116:0 117:0 118:0 119:0 120:0 121:0 122:0 123:0 124:0 125:0 126:0 127:0 128:0 
0.002016315366736396 0.01141495198482917 0.002935458996009621 0.005124634124613835 0.002858325179708864 0.009368885615975868 0.003335336055338099 0.007308127604612048 0.007946965293698195 0.007856628984894535 0.003853403518206575 0.003943059517724534 0.006807310448119941 0.002965312926514995 0.004018043792462043 0.00705772776883341 0.01520068612970989 0.001150452571908573 0.008521930210218135 0.003684625768963217 0.003843858216929706 0.001732827132504279 0 0.002349515668114504 0.003386803117726352 1:0 2:0 3:0 4:1 5:1 6:0 7:0 8:0 9:0 10:0 11:1 12:1 13:1 14:1 15:1 16:1 17:0 18:1 19:1 20:1 21:0 22:0 23:0 24:1 25:0 26:1 27:0 28:0 29:0 30:0 31:0 32:1 33:0 34:1 35:0 36:0 37:0 38:0 39:0 40:1 41:1 42:0 43:0 44:0 45:0 46:0 47:0 48:1 49:1 50:0 51:0 52:0 53:0 54:0 55:1 56:1 57:1 58:0 59:0 60:0 61:0 62:0 63:1 64:0 65:1 66:0 67:0 68:0 69:0 70:0 71:1 72:0 73:1 74:0 75:0 76:0 77:0 78:0 79:1 80:0 81:1 82:0 83:0 84:0 85:0 86:1 87:1 88:0 89:1 90:0 91:0 92:0 93:0 94:1 95:0 96:0 97:1 98:0 99:0 100:0 101:1 102:1 103:0 104:0 105:1 106:0 107:0 108:0 109:1 110:0 111:0 112:0 113:1 114:0 115:0 116:1 117:1 118:0 119:0 120:0 121:1 122:1 123:1 124:1 125:0 126:0 127:0 128:0 
0.00177939535630642 0.003266344265762054 0.02018006997672468 0.002710070553928213 0 0.004018975602413605 0 0 0 0.003408145868801664 0.0006934208178467707 0 0 0 0.007673071582233203 0 0 0 0 0.0005878416897673065 0 0 0 0 0 1:0 2:0 3:0 4:0 5:0 6:0 7:0 8:0 9:0 10:0 11:0 12:0 13:0 14:0 15:0 16:0 17:0 18:1 19:1 20:0 21:0 22:0 23:0 24:0 25:0 26:0 27:1 28:1 29:0 30:0 31:0 32:0 33:1 34:1 35:0 36:1 37:1 38:1 39:0 40:0 41:1 42:0 43:0 44:0 45:0 46:1 47:1 48:0 49:1 50:0 51:0 52:0 53:0 54:0 55:1 56:0 57:1 58:0 59:0 60:0 61:0 62:0 63:1 64:1 65:1 66:0 67:0 68:0 69:0 70:0 71:0 72:1 73:1 74:0 75:0 76:0 77:0 78:0 79:0 80:1 81:1 82:0 83:0 84:0 85:0 86:0 87:0 88:1 89:1 90:0 91:0 92:0 93:0 94:0 95:0 96:1 97:1 98:1 99:0 100:0 101:0 102:0 103:1 104:1 105:0 106:1 107:1 108:1 109:1 110:1 111:1 112:0 113:0 114:0 115:0 116:0 117:0 118:0 119:0 120:0 121:0 122:0 123:0 124:0 125:0 126:0 127:0 128:0 
0 0 0 0 0 0 0 0 0.005425821664279152 0 0 0 0 0 0 0 0 0 0 0 0 0.004124157182349613 0 0 0 1:0 2:0 3:0 4:0 5:0 6:0 7:0 8:0 9:0 10:0 11:0 12:0 13:0 14:0 15:0 16:0 17:0 18:0 19:0 20:0 21:0 22:0 23:0 24:0 25:0 26:0 27:0 28:0 29:0 30:0 31:0 32:0 33:0 34:0 35:1 36:1 37:1 38:1 39:1 40:1 41:0 42:0 43:0 44:1 45:0 46:0 47:0 48:1 49:1 50:1 51:1 52:1 53:0 54:0 55:0 56:1 57:1 58:0 59:0 60:0 61:0 62:0 63:0 64:1 65:1 66:0 67:0 68:0 69:0 70:0 71:0 72:1 73:1 74:0 75:0 76:0 77:0 78:0 79:0 80:1 81:1 82:1 83:0 84:0 85:0 86:1 87:1 88:1 89:0 90:1 91:1 92:1 93:1 94:1 95:0 96:0 97:0 98:0 99:0 100:0 101:0 102:0 103:0 104:0 105:0 106:0 107:0 108:0 109:0 110:0 111:0 112:0 113:0 114:0 115:0 116:0 117:0 118:0 119:0 120:0 121:0 122:0 123:0 124:0 125:0 126:0 127:0 128:0 
0 0.03257756033364267 0 0.001813120058442563 0 0.001216321265555012 0 0 0.1 0.0351216621474767 0.01762480699195879 0 0 0 0 0 0 0 0 0 0 0 0 0 0 1:0 2:0 3:0 4:0 5:0 6:0 7:0 8:0 9:0 10:0 11:0 12:0 13:0 14:0 15:0 16:0 17:0 18:0 19:0 20:0 21:0 22:0 23:0 24:0 25:0 26:0 27:0 28:0 29:0 30:0 31:0 32:0 33:0 34:0 35:0 36:1 37:1 38:1 39:0 40:0 41:0 42:1 43:1 44:1 45:0 46:1 47:1 48:0 49:1 50:1 51:0 52:0 53:0 54:0 55:1 56:0 57:1 58:0 59:0 60:0 61:0 62:0 63:0 64:1 65:1 66:0 67:0 68:0 69:0 70:0 71:0 72:1 73:1 74:0 75:0 76:0 77:0 78:0 79:1 80:1 81:1 82:1 83:0 84:0 85:0 86:0 87:1 88:0 89:0 90:1 91:1 92:1 93:1 94:1 95:1 96:0 97:0 98:0 99:0 100:0 101:0 102:0 103:0 104:0 105:0 106:0 107:0 108:0 109:0 110:0 111:0 112:0 113:0 114:0 115:0 116:0 117:0 118:0 119:0 120:0 121:0 122:0 123:0 124:0 125:0 126:0 127:0 128:0 
0 0 0 0.01598262157362321 0 0 0 0 0 0 0 0 0 0 0 0 0 0 0 0 0 0 0 0 0 1:0 2:0 3:0 4:0 5:0 6:0 7:0 8:0 9:0 10:0 11:0 12:0 13:0 14:0 15:0 16:0 17:0 18:0 19:0 20:0 21:0 22:0 23:0 24:0 25:0 26:1 27:1 28:0 29:0 30:0 31:0 32:0 33:0 34:1 35:1 36:1 37:1 38:1 39:0 40:0 41:1 42:1 43:0 44:0 45:0 46:1 47:1 48:0 49:1 50:0 51:0 52:0 53:0 54:0 55:1 56:1 57:1 58:0 59:0 60:0 61:0 62:0 63:0 64:1 65:1 66:0 67:0 68:0 69:0 70:0 71:0 72:1 73:1 74:0 75:0 76:0 77:0 78:0 79:0 80:1 81:1 82:0 83:0 84:0 85:0 86:0 87:1 88:1 89:1 90:0 91:0 92:0 93:0 94:1 95:1 96:0 97:1 98:1 99:1 100:1 101:1 102:1 103:0 104:0 105:0 106:0 107:0 108:0 109:0 110:0 111:0 112:0 113:0 114:0 115:0 116:0 117:0 118:0 119:0 120:0 121:0 122:0 123:0 124:0 125:0 126:0 127:0 128:0 
0 0 0.001104863724128018 0 0 0.01081474283989173 0.002998794692858958 0.0007051864115533758 0 0.001530346318046828 0.005898383861956821 0 0.002728969709199462 0 0.004717680662390998 0 0 0.007824129939748783 0.004354158026133112 0.001559443540837153 0 0 0 0 0 1:0 2:0 3:0 4:0 5:0 6:0 7:0 8:0 9:0 10:0 11:0 12:0 13:0 14:0 15:0 16:0 17:1 18:1 19:1 20:1 21:1 22:0 23:0 24:0 25:1 26:1 27:0 28:0 29:1 30:0 31:0 32:0 33:0 34:1 35:1 36:0 37:1 38:1 39:0 40:0 41:0 42:1 43:0 44:0 45:0 46:1 47:0 48:0 49:1 50:0 51:0 52:0 53:0 54:1 55:1 56:0 57:1 58:0 59:0 60:0 61:0 62:0 63:1 64:1 65:1 66:0 67:0 68:0 69:0 70:0 71:0 72:1 73:1 74:0 75:0 76:0 77:0 78:0 79:0 80:1 81:1 82:1 83:0 84:0 85:0 86:0 87:0 88:1 89:0 90:1 91:0 92:0 93:0 94:0 95:0 96:1 97:0 98:1 99:0 100:0 101:0 102:0 103:0 104:1 105:0 106:1 107:1 108:1 109:1 110:1 111:1 112:1 113:0 114:0 115:0 116:0 117:0 118:0 119:0 120:0 121:0 122:0 123:0 124:0 125:0 126:0 127:0 128:0 
0.002481090298334728 0.008363042869937512 0.01121960681018063 0.001593364267457235 0 0 0 0 0.00752027634564596 0.005487560663062145 0.004168158792763527 0 0.004280242923361747 0 0 0 0 0 0.006621320508451218 0 0 0 0 0 0 1:0 2:0 3:0 4:0 5:0 6:0 7:0 8:0 9:0 10:0 11:0 12:0 13:0 14:0 15:0 16:0 17:0 18:0 19:0 20:1 21:1 22:1 23:1 24:1 25:0 26:0 27:0 28:1 29:1 30:0 31:0 32:1 33:0 34:0 35:0 36:1 37:1 38:0 39:0 40:1 41:0 42:0 43:1 44:1 45:0 46:0 47:0 48:1 49:0 50:0 51:1 52:0 53:0 54:0 55:0 56:1 57:0 58:1 59:1 60:0 61:0 62:0 63:1 64:1 65:0 66:1 67:0 68:0 69:0 70:0 71:1 72:0 73:1 74:1 75:0 76:0 77:0 78:1 79:0 80:0 81:1 82:0 83:0 84:0 85:1 86:1 87:0 88:0 89:1 90:0 91:0 92:1 93:1 94:0 95:0 96:0 97:1 98:1 99:1 100:1 101:0 102:0 103:0 104:0 105:1 106:1 107:0 108:0 109:0 110:0 111:0 112:0 113:0 114:0 115:0 116:0 117:0 118:0 119:0 120:0 121:0 122:0 123:0 124:0 125:0 126:0 127:0 128:0 
0 0.01336580596569054 0.04782987965907675 0 0.02531933683482638 0 0.00342630547696752 0.04021985021098828 0.07570260037938994 0.06580517947287659 0.03011563116051697 0.008639490189833531 0.001804345741654466 0.009500639275210459 0.0003063189097218442 0.01589202709813041 0.03105053072459803 0 0 0 0 0 0 0 0.008206629078417542 1:0 2:0 3:0 4:0 5:0 6:0 7:0 8:0 9:0 10:0 11:0 12:0 13:0 14:0 15:0 16:0 17:0 18:0 19:0 20:0 21:0 22:0 23:0 24:0 25:0 26:0 27:0 28:0 29:0 30:0 31:0 32:0 33:0 34:0 35:0 36:0 37:0 38:0 39:0 40:0 41:0 42:0 43:1 44:1 45:1 46:1 47:1 48:1 49:0 50:1 51:1 52:0 53:0 54:0 55:0 56:1 57:1 58:1 59:0 60:0 61:0 62:0 63:0 64:1 65:1 66:0 67:0 68:0 69:0 70:0 71:1 72:1 73:1 74:1 75:0 76:0 77:0 78:1 79:1 80:0 81:0 82:1 83:1 84:1 85:1 86:1 87:0 88:0 89:0 90:0 91:0 92:0 93:0 94:0 95:0 96:0 97:0 98:0 99:0 100:0 101:0 102:0 103:0 104:0 105:0 106:0 107:0 108:0 109:0 110:0 111:0 112:0 113:0 114:0 115:0 116:0 117:0 118:0 119:0 120:0 121:0 122:0 123:0 124:0 125:0 126:0 127:0 128:0 
0 0 0 0 0 0.001525575718414859 0 0 0 0 0 0 0 0 0 0 0 0 0 0 0 0 0 0 0 1:0 2:0 3:0 4:0 5:0 6:0 7:0 8:0 9:0 10:0 11:0 12:0 13:0 14:0 15:0 16:0 17:0 18:0 19:0 20:0 21:0 22:0 23:0 24:0 25:0 26:0 27:0 28:1 29:1 30:0 31:0 32:0 33:0 34:1 35:1 36:1 37:1 38:0 39:0 40:0 41:1 42:1 43:0 44:1 45:1 46:1 47:0 48:0 49:1 50:0 51:0 52:0 53:0 54:1 55:1 56:1 57:1 58:0 59:0 60:0 61:0 62:0 63:0 64:1 65:1 66:0 67:0 68:0 69:0 70:0 71:0 72:1 73:1 74:0 75:0 76:0 77:0 78:0 79:0 80:1 81:1 82:0 83:0 84:0 85:0 86:0 87:0 88:1 89:1 90:1 91:0 92:0 93:0 94:0 95:0 96:1 97:0 98:1 99:1 100:1 101:1 102:1 103:1 104:1 105:0 106:0 107:0 108:0 109:0 110:0 111:0 112:0 113:0 114:0 115:0 116:0 117:0 118:0 119:0 120:0 121:0 122:0 123:0 124:0 125:0 126:0 127:0 128:0 
0 0 0 0 0 0.0003318269817915667 0 0 0 0.004233946059879023 0.007011468098937251 0 0 0 0 0 0 0.002061378130145977 0 0 0 0 0 0 0 1:0 2:0 3:0 4:0 5:0 6:0 7:0 8:0 9:0 10:0 11:0 12:0 13:0 14:0 15:0 16:0 17:0 18:0 19:0 20:1 21:0 22:0 23:0 24:0 25:0 26:1 27:1 28:1 29:1 30:0 31:0 32:0 33:1 34:1 35:1 36:0 37:1 38:1 39:0 40:0 41:1 42:0 43:0 44:0 45:0 46:1 47:0 48:0 49:1 50:0 51:0 52:0 53:0 54:1 55:1 56:0 57:1 58:0 59:0 60:0 61:0 62:0 63:1 64:1 65:1 66:0 67:0 68:0 69:0 70:0 71:0 72:1 73:1 74:0 75:0 76:0 77:0 78:0 79:0 80:1 81:1 82:1 83:0 84:0 85:0 86:0 87:0 88:1 89:0 90:1 91:0 92:0 93:0 94:0 95:0 96:1 97:0 98:1 99:1 100:1 101:0 102:1 103:1 104:1 105:0 106:0 107:0 108:1 109:1 110:1 111:0 112:0 113:0 114:0 115:0 116:0 117:0 118:0 119:0 120:0 121:0 122:0 123:0 124:0 125:0 126:0 127:0 128:0 
0 0 0 0 0 0 0 0 0 0 0 0 0 0 0 0 0 0 0 0 0 0.0008667904965389943 0 0 0 1:0 2:0 3:0 4:0 5:0 6:0 7:0 8:0 9:0 10:0 11:0 12:0 13:0 14:0 15:0 16:0 17:0 18:1 19:1 20:0 21:0 22:0 23:0 24:0 25:1 26:1 27:0 28:0 29:0 30:0 31:0 32:0 33:1 34:0 35:0 36:1 37:1 38:1 39:1 40:0 41:1 42:1 43:1 44:0 45:0 46:0 47:1 48:1 49:1 50:0 51:0 52:0 53:0 54:0 55:0 56:1 57:1 58:0 59:0 60:0 61:0 62:0 63:0 64:1 65:1 66:0 67:0 68:0 69:0 70:0 71:0 72:1 73:1 74:0 75:0 76:0 77:0 78:0 79:0 80:1 81:1 82:0 83:0 84:0 85:0 86:0 87:1 88:1 89:1 90:0 91:0 92:0 93:0 94:0 95:1 96:0 97:1 98:1 99:1 100:0 101:0 102:1 103:1 104:0 105:0 106:0 107:1 108:1 109:1 110:1 111:0 112:0 113:0 114:0 115:0 116:0 117:0 118:0 119:0 120:0 121:0 122:0 123:0 124:0 125:0 126:0 127:0 128:0 
0 0.01100623565325283 0 0 0 0 0 0 0.00669169650391457 0.01040850348562079 0 0 0 0 0 0 0 0 0 0 0 0 0 0 0 1:0 2:0 3:0 4:0 5:0 6:0 7:0 8:0 9:0 10:0 11:0 12:0 13:0 14:0 15:0 16:0 17:0 18:0 19:0 20:0 21:0 22:1 23:1 24:1 25:0 26:0 27:0 28:0 29:1 30:1 31:0 32:1 33:0 34:0 35:1 36:1 37:1 38:0 39:0 40:1 41:0 42:0 43:1 44:1 45:1 46:1 47:0 48:1 49:0 50:1 51:1 52:1 53:0 54:1 55:0 56:1 57:1 58:1 59:0 60:0 61:0 62:0 63:1 64:1 65:1 66:0 67:0 68:0 69:0 70:1 71:1 72:0 73:1 74:0 75:0 76:0 77:1 78:1 79:0 80:0 81:1 82:0 83:0 84:0 85:1 86:0 87:0 88:0 89:1 90:0 91:0 92:1 93:1 94:0 95:0 96:0 97:1 98:1 99:1 100:1 101:0 102:0 103:0 104:0 105:1 106:1 107:0 108:0 109:0 110:0 111:0 112:0 113:0 114:0 115:0 116:0 117:0 118:0 119:0 120:0 121:0 122:0 123:0 124:0 125:0 126:0 127:0 128:0 
0 0 0 0 0 0 0 0 0 0 0 0 0 0 0 0 0.008216213153262699 0 0 0 0 0 0 0 0 1:0 2:0 3:0 4:0 5:0 6:0 7:0 8:0 9:0 10:0 11:0 12:0 13:0 14:0 15:0 16:0 17:0 18:0 19:0 20:0 21:0 22:0 23:0 24:0 25:0 26:0 27:0 28:0 29:0 30:0 31:0 32:0 33:0 34:1 35:1 36:1 37:1 38:1 39:1 40:0 41:1 42:0 43:0 44:0 45:0 46:0 47:1 48:1 49:1 50:0 51:0 52:0 53:0 54:0 55:0 56:1 57:1 58:0 59:0 60:0 61:0 62:0 63:0 64:1 65:1 66:0 67:0 68:0 69:0 70:0 71:0 72:1 73:1 74:0 75:0 76:0 77:0 78:0 79:0 80:1 81:1 82:0 83:0 84:0 85:0 86:0 87:1 88:1 89:1 90:1 91:1 92:1 93:1 94:1 95:1 96:0 97:0 98:0 99:0 100:0 101:0 102:0 103:0 104:0 105:0 106:0 107:0 108:0 109:0 110:0 111:0 112:0 113:0 114:0 115:0 116:0 117:0 118:0 119:0 120:0 121:0 122:0 123:0 124:0 125:0 126:0 127:0 128:0 
0.000426750177178281 0 0.008039256150144596 0 0 0 0 0 0 0 0 0 0 0 0 0 0 0 0 0 0 0 0 0 0 1:0 2:0 3:0 4:0 5:0 6:0 7:0 8:0 9:0 10:0 11:0 12:0 13:0 14:0 15:0 16:0 17:0 18:0 19:0 20:1 21:1 22:0 23:0 24:0 25:0 26:0 27:1 28:1 29:1 30:0 31:0 32:0 33:0 34:1 35:1 36:0 37:0 38:0 39:1 40:1 41:1 42:1 43:0 44:0 45:0 46:0 47:0 48:1 49:1 50:0 51:0 52:0 53:0 54:0 55:0 56:1 57:1 58:0 59:0 60:0 61:0 62:0 63:0 64:1 65:1 66:0 67:0 68:0 69:0 70:0 71:0 72:1 73:1 74:0 75:0 76:0 77:0 78:0 79:0 80:1 81:1 82:0 83:0 84:0 85:0 86:0 87:1 88:1 89:1 90:0 91:0 92:0 93:0 94:0 95:1 96:0 97:1 98:0 99:0 100:0 101:0 102:1 103:0 104:0 105:1 106:1 107:1 108:1 109:1 110:0 111:0 112:0 113:0 114:0 115:0 116:0 117:0 118:0 119:0 120:0 121:0 122:0 123:0 124:0 125:0 126:0 127:0 128:0 
0 0.01543784314745478 0 0 0 0 0 0 0 0 0 0 0 0 0 0 0 0 0 0 0 0 0 0 0 1:0 2:0 3:0 4:0 5:0 6:0 7:0 8:0 9:0 10:0 11:0 12:0 13:0 14:0 15:0 16:0 17:0 18:0 19:0 20:0 21:0 22:0 23:0 24:0 25:0 26:0 27:0 28:0 29:0 30:0 31:0 32:0 33:1 34:1 35:1 36:1 37:1 38:1 39:0 40:0 41:1 42:1 43:0 44:0 45:0 46:1 47:1 48:0 49:1 50:0 51:0 52:0 53:0 54:0 55:1 56:1 57:1 58:0 59:0 60:0 61:0 62:0 63:0 64:1 65:1 66:0 67:0 68:0 69:0 70:0 71:0 72:1 73:1 74:1 75:0 76:0 77:0 78:0 79:0 80:1 81:0 82:1 83:0 84:0 85:0 86:0 87:0 88:1 89:0 90:1 91:1 92:1 93:1 94:1 95:1 96:1 97:0 98:0 99:0 100:0 101:0 102:0 103:0 104:0 105:0 106:0 107:0 108:0 109:0 110:0 111:0 112:0 113:0 114:0 115:0 116:0 117:0 118:0 119:0 120:0 121:0 122:0 123:0 124:0 125:0 126:0 127:0 128:0 
0.0003138459420270688 0 0.02827124319000637 0 0 0 0 0.007282487491327214 0.008858981334109967 0.008680659524938678 0.001349004657615483 0.001946997420960169 0.001175782278291394 0 0 0.008766566851340201 0.02852843813399595 0 0.01028060160089705 0.002230771934813638 0 0 0 0.005456857557117198 0 1:0 2:0 3:0 4:0 5:0 6:0 7:0 8:0 9:0 10:0 11:0 12:0 13:0 14:0 15:0 16:0 17:0 18:0 19:0 20:1 21:1 22:1 23:1 24:1 25:1 26:1 27:1 28:0 29:0 30:0 31:0 32:1 33:1 34:1 35:0 36:0 37:0 38:0 39:0 40:1 41:1 42:0 43:0 44:0 45:0 46:0 47:0 48:1 49:1 50:0 51:0 52:0 53:0 54:0 55:0 56:1 57:1 58:0 59:0 60:0 61:0 62:0 63:0 64:1 65:1 66:0 67:0 68:0 69:0 70:0 71:0 72:1 73:1 74:0 75:0 76:0 77:0 78:0 79:0 80:1 81:1 82:0 83:0 84:0 85:0 86:0 87:0 88:1 89:1 90:0 91:0 92:0 93:0 94:0 95:0 96:1 97:1 98:1 99:0 100:0 101:0 102:1 103:1 104:0 105:0 106:0 107:1 108:1 109:1 110:0 111:0 112:0 113:0 114:0 115:0 116:0 117:0 118:0 119:0 120:0 121:0 122:0 123:0 124:0 125:0 126:0 127:0 128:0 
0.0004626147236906005 0 0.0168948059983739 0.01429835506285868 0.005450732411448902 0 0 0.007451447521932906 0.02835824685096826 0.01727222712081967 0.005928111841686029 0.01754606081945524 0.006529468852379224 0.007218598897925268 0.005975039943108476 0 0.08822047900523644 0.004521007359978191 0 0 0.004107319261191818 0 0 0 0 1:0 2:0 3:0 4:0 5:0 6:0 7:0 8:0 9:0 10:0 11:0 12:0 13:0 14:0 15:0 16:0 17:0 18:0 19:0 20:0 21:0 22:0 23:0 24:0 25:0 26:0 27:0 28:0 29:0 30:0 31:0 32:0 33:0 34:0 35:0 36:0 37:0 38:0 39:0 40:0 41:0 42:1 43:1 44:1 45:1 46:1 47:1 48:1 49:1 50:0 51:0 52:0 53:0 54:0 55:0 56:1 57:1 58:0 59:0 60:0 61:0 62:0 63:0 64:1 65:1 66:0 67:0 68:0 69:0 70:0 71:0 72:1 73:1 74:0 75:0 76:0 77:0 78:0 79:1 80:1 81:1 82:1 83:1 84:1 85:1 86:1 87:1 88:0 89:0 90:0 91:0 92:0 93:0 94:0 95:0 96:0 97:0 98:0 99:0 100:0 101:0 102:0 103:0 104:0 105:0 106:0 107:0 108:0 109:0 110:0 111:0 112:0 113:0 114:0 115:0 116:0 117:0 118:0 119:0 120:0 121:0 122:0 123:0 124:0 125:0 126:0 127:0 128:0 
0.002579325130303027 0.01321396006948329 0.008625738996301157 0.04367751591778604 0 0.00312379366024838 0 0.007333257271936115 0.005030209756230634 0.01224793074385077 0.008227235048196394 0 0.0009313076967370565 0 0.003720785891286848 0.01004282501260178 0 0 0.002115003960148093 0 0 0.00636147852941381 0.004036234307417143 0 0.004059620785521613 1:0 2:0 3:0 4:0 5:0 6:0 7:0 8:0 9:0 10:0 11:0 12:0 13:0 14:0 15:0 16:0 17:0 18:0 19:0 20:0 21:0 22:0 23:0 24:1 25:0 26:0 27:0 28:0 29:0 30:1 31:1 32:1 33:0 34:0 35:0 36:1 37:1 38:1 39:0 40:1 41:0 42:0 43:0 44:1 45:0 46:0 47:0 48:1 49:0 50:0 51:1 52:1 53:0 54:0 55:0 56:1 57:0 58:1 59:1 60:0 61:0 62:0 63:0 64:1 65:1 66:1 67:0 68:0 69:0 70:0 71:0 72:1 73:1 74:0 75:0 76:0 77:0 78:0 79:1 80:0 81:1 82:0 83:0 84:0 85:0 86:1 87:1 88:0 89:1 90:0 91:0 92:0 93:1 94:1 95:0 96:0 97:1 98:0 99:0 100:1 101:1 102:0 103:0 104:0 105:1 106:1 107:1 108:1 109:0 110:0 111:0 112:0 113:0 114:0 115:0 116:0 117:0 118:0 119:0 120:0 121:0 122:0 123:0 124:0 125:0 126:0 127:0 128:0 
0.1 0.1 0.1 0.009056715260267691 0.06751128983039245 0.04542910190437775 0.01658320632498923 0.08322911238879187 0.0510604350766435 0.1 0.03409314208721372 0.05018453544806176 0.0356234628330825 0.06913370889577641 0.04568860617953392 0.04802545895361302 0.06905261171126979 0.05631161036982467 0.03056280557562041 0.04252174114689768 0.01766341816498566 0.01127073280467612 0.04900828663532095 0.03416859019446215 0.04262172585923087 1:0 2:0 3:0 4:0 5:0 6:0 7:0 8:0 9:0 10:0 11:0 12:0 13:0 14:0 15:0 16:0 17:0 18:0 19:0 20:0 21:0 22:0 23:0 24:0 25:0 26:0 27:0 28:0 29:0 30:0 31:0 32:0 33:0 34:0 35:0 36:0 37:0 38:0 39:0 40:0 41:0 42:0 43:0 44:0 45:1 46:1 47:1 48:1 49:0 50:0 51:1 52:1 53:1 54:0 55:0 56:1 57:0 58:1 59:1 60:1 61:0 62:0 63:1 64:1 65:1 66:1 67:0 68:0 69:0 70:1 71:1 72:0 73:1 74:0 75:0 76:1 77:1 78:1 79:0 80:0 81:1 82:1 83:1 84:1 85:0 86:0 87:0 88:0 89:0 90:0 91:0 92:0 93:0 94:0 95:0 96:0 97:0 98:0 99:0 100:0 101:0 102:0 103:0 104:0 105:0 106:0 107:0 108:0 109:0 110:0 111:0 112:0 113:0 114:0 115:0 116:0 117:0 118:0 119:0 120:0 121:0 122:0 123:0 124:0 125:0 126:0 127:0 128:0 
0 0 0 0 0 0 0 0.00137064302533179 0 0.002880746050033516 0 0 0 0 0 0 0 0 0 0 0 0 0 0 0.001357424207592619 1:0 2:0 3:0 4:0 5:0 6:0 7:0 8:0 9:0 10:0 11:0 12:0 13:0 14:0 15:0 16:0 17:1 18:1 19:1 20:1 21:1 22:1 23:0 24:0 25:1 26:0 27:0 28:0 29:0 30:1 31:1 32:0 33:1 34:1 35:0 36:0 37:0 38:0 39:1 40:0 41:1 42:0 43:0 44:0 45:0 46:0 47:1 48:1 49:1 50:0 51:0 52:0 53:0 54:0 55:0 56:1 57:1 58:0 59:0 60:0 61:0 62:0 63:0 64:1 65:1 66:0 67:0 68:0 69:0 70:0 71:0 72:1 73:1 74:0 75:0 76:0 77:0 78:0 79:0 80:1 81:1 82:1 83:0 84:0 85:0 86:0 87:1 88:0 89:0 90:1 91:0 92:0 93:0 94:0 95:1 96:0 97:0 98:1 99:1 100:0 101:0 102:1 103:1 104:0 105:0 106:0 107:1 108:1 109:1 110:1 111:0 112:0 113:0 114:0 115:0 116:0 117:0 118:0 119:0 120:0 121:0 122:0 123:0 124:0 125:0 126:0 127:0 128:0 
0.00959431584342719 0.01314058573390161 0.02178010057121497 0.00100979344878494 0.01445625970738179 0.02435094247866388 0.008053114593014781 0.0126341547579382 0.01021770823012486 0.01203088909421117 0.02564409766128522 0.01147772081229446 0.01610294279616568 0.01441111055572807 0.01626262720046218 0.01731843884778356 0.03018497442268936 0.009813685861883881 0.003655714780559641 0.005017185727366118 0.006460698218088344 0.003345234327675541 0.007054127514754125 0.002244837024984815 0.003326065358230906 1:0 2:0 3:0 4:0 5:0 6:0 7:0 8:0 9:0 10:0 11:0 12:1 13:1 14:1 15:1 16:0 17:0 18:0 19:1 20:1 21:0 22:0 23:1 24:1 25:0 26:1 27:1 28:0 29:0 30:0 31:0 32:1 33:1 34:1 35:0 36:0 37:0 38:0 39:0 40:1 41:1 42:0 43:0 44:0 45:0 46:0 47:0 48:1 49:1 50:0 51:0 52:0 53:0 54:0 55:0 56:1 57:1 58:0 59:0 60:0 61:0 62:0 63:0 64:1 65:1 66:1 67:0 68:0 69:0 70:0 71:0 72:1 73:0 74:0 75:0 76:0 77:0 78:0 79:0 80:1 81:0 82:0 83:0 84:0 85:0 86:0 87:0 88:1 89:0 90:0 91:0 92:0 93:0 94:0 95:1 96:1 97:0 98:0 99:1 100:0 101:0 102:0 103:1 104:0 105:0 106:0 107:1 108:1 109:0 110:0 111:1 112:0 113:0 114:0 115:0 116:1 117:1 118:1 119:0 120:0 121:0 122:0 123:0 124:0 125:0 126:0 127:0 128:0 
0.04195451190785305 0.08532824941236615 0.1 0.0634059730120272 0.08805569756923455 0.1 0.04848958110765472 0.07415768844155701 0.07121221518575734 0.06430926277474104 0.0600173411528103 0.07327425648218903 0.04693497846303191 0.07508456684252379 0.0831554254752911 0.06929604488440558 0.1 0.07989044272065768 0.02650994584540621 0.06012499039096592 0.03952769188120926 0.006596578965709012 0.05049378631376514 0.05221212217668571 0.0493332893046903 1:0 2:0 3:0 4:0 5:0 6:0 7:0 8:0 9:0 10:0 11:0 12:0 13:0 14:0 15:0 16:0 17:0 18:0 19:0 20:0 21:0 22:0 23:0 24:0 25:0 26:0 27:0 28:0 29:0 30:0 31:1 32:0 33:0 34:0 35:0 36:0 37:0 38:0 39:1 40:0 41:0 42:0 43:0 44:0 45:0 46:0 47:1 48:1 49:0 50:0 51:0 52:0 53:0 54:0 55:0 56:1 57:0 58:0 59:0 60:0 61:0 62:0 63:0 64:1 65:0 66:0 67:1 68:1 69:0 70:0 71:0 72:1 73:0 74:0 75:1 76:0 77:0 78:0 79:0 80:1 81:0 82:1 83:1 84:0 85:0 86:0 87:0 88:1 89:1 90:1 91:0 92:0 93:0 94:0 95:1 96:1 97:1 98:1 99:1 100:1 101:1 102:1 103:1 104:0 105:0 106:0 107:0 108:0 109:0 110:0 111:0 112:0 113:0 114:0 115:0 116:0 117:0 118:0 119:0 120:0 121:0 122:0 123:0 124:0 125:0 126:0 127:0 128:0 
0.02300165956011789 0.09092100427616898 0.09448954390170101 0 0.006164982719611434 0.005536604785110803 0.01181041543302257 0.006682571416035452 0.07948801103841402 0.02714270095537909 0.008966622561785913 0.002886272347102869 0.001716107923538177 0.00913042229482601 0.0005703715842920527 0.00375916008119037 0.02273784293546842 0.004820098742000721 9.047020044839355e-05 0.01845601755124352 0.002435550490837903 0 0.006285006956715159 0 0.01693995704454963 1:0 2:0 3:0 4:0 5:0 6:0 7:0 8:0 9:0 10:0 11:0 12:0 13:0 14:0 15:0 16:0 17:0 18:0 19:0 20:0 21:0 22:0 23:0 24:0 25:0 26:0 27:0 28:0 29:0 30:0 31:0 32:0 33:0 34:0 35:0 36:0 37:0 38:0 39:0 40:0 41:0 42:0 43:1 44:1 45:1 46:1 47:0 48:0 49:1 50:1 51:1 52:0 53:0 54:1 55:1 56:0 57:1 58:0 59:0 60:0 61:0 62:0 63:1 64:1 65:1 66:0 67:0 68:0 69:0 70:0 71:0 72:1 73:1 74:0 75:0 76:0 77:0 78:0 79:0 80:1 81:1 82:1 83:1 84:1 85:1 86:1 87:1 88:1 89:0 90:0 91:0 92:0 93:0 94:0 95:0 96:0 97:0 98:0 99:0 100:0 101:0 102:0 103:0 104:0 105:0 106:0 107:0 108:0 109:0 110:0 111:0 112:0 113:0 114:0 115:0 116:0 117:0 118:0 119:0 120:0 121:0 122:0 123:0 124:0 125:0 126:0 127:0 128:0 
0.0100715805871154 0.01873026533246367 0.02475564454321844 0.01174343737883313 0.01863607682157621 0.03912247961999078 0.02831326772565688 0.01527752288205031 0.01201231714584109 0.01651351178922 0.02428815735942898 0.01563954333985929 0.01490777116656089 0.02426331318614316 0.02500535963731253 0.01751411126772283 0.0152767614460724 0.02337021699041444 0.01004858917714243 0.02363882105638854 0.006858075709362575 0.01004493616895396 0.01327992035495887 0.002748862110765516 0.022939075776841 1:0 2:0 3:0 4:0 5:0 6:0 7:0 8:0 9:0 10:0 11:0 12:0 13:0 14:0 15:0 16:0 17:1 18:1 19:1 20:0 21:0 22:0 23:0 24:0 25:1 26:1 27:1 28:0 29:0 30:0 31:0 32:0 33:0 34:1 35:1 36:1 37:1 38:0 39:0 40:0 41:0 42:1 43:0 44:0 45:1 46:1 47:0 48:0 49:0 50:1 51:0 52:0 53:0 54:1 55:1 56:0 57:0 58:1 59:0 60:0 61:0 62:0 63:1 64:0 65:0 66:1 67:1 68:0 69:0 70:0 71:1 72:1 73:0 74:0 75:1 76:0 77:0 78:0 79:0 80:1 81:0 82:0 83:1 84:0 85:0 86:0 87:0 88:1 89:0 90:0 91:1 92:1 93:0 94:0 95:0 96:1 97:0 98:0 99:0 100:1 101:0 102:0 103:0 104:1 105:0 106:0 107:0 108:1 109:1 110:0 111:1 112:1 113:0 114:0 115:0 116:0 117:1 118:1 119:1 120:0 121:0 122:0 123:0 124:0 125:0 126:0 127:0 128:0 
0 0.0719109464339444 0.02799998000865513 0.01736968871951002 0.01260304358253456 0.01338611173325006 0.01075175342725073 0.01330175009905063 0.03477441968672702 0.02225674285432554 0.02993635741149506 0.01172756084125276 0.01217406447966231 0.01529075322435646 0.01439789881653301 0.03737036082814704 0.1 0.004670769485265912 0.01500280915612601 0.01408750369574385 0.010161633424976 0.002229363941872827 0.01130612479381973 0.001459903404947555 0.008430511285136173 1:0 2:0 3:0 4:0 5:0 6:0 7:0 8:0 9:0 10:0 11:0 12:0 13:0 14:0 15:0 16:0 17:0 18:0 19:0 20:0 21:0 22:0 23:0 24:0 25:0 26:0 27:0 28:0 29:0 30:0 31:0 32:0 33:0 34:0 35:0 36:0 37:0 38:0 39:0 40:0 41:1 42:1 43:1 44:1 45:1 46:1 47:1 48:0 49:1 50:0 51:0 52:0 53:0 54:0 55:1 56:1 57:1 58:0 59:0 60:0 61:0 62:0 63:0 64:1 65:1 66:0 67:0 68:0 69:0 70:0 71:0 72:1 73:1 74:1 75:0 76:0 77:0 78:0 79:1 80:1 81:0 82:1 83:1 84:1 85:1 86:1 87:1 88:0 89:0 90:0 91:0 92:0 93:0 94:0 95:0 96:0 97:0 98:0 99:0 100:0 101:0 102:0 103:0 104:0 105:0 106:0 107:0 108:0 109:0 110:0 111:0 112:0 113:0 114:0 115:0 116:0 117:0 118:0 119:0 120:0 121:0 122:0 123:0 124:0 125:0 126:0 127:0 128:0 
0 0 0.004966633316411954 0.003647829953575262 0 0.002547605000415045 0.0001272310202453284 0 0 0.0005762590467210533 0 0 0.004622575283560919 0 0.001010952352328712 0 0 0 0.006094313154013146 0 0 0 0 0 0 1:0 2:0 3:0 4:0 5:0 6:0 7:0 8:0 9:0 10:0 11:0 12:0 13:1 14:1 15:1 16:0 17:0 18:1 19:1 20:1 21:1 22:0 23:1 24:1 25:1 26:1 27:0 28:0 29:0 30:0 31:0 32:1 33:0 34:0 35:1 36:0 37:0 38:0 39:0 40:1 41:0 42:0 43:1 44:0 45:0 46:0 47:0 48:1 49:0 50:1 51:1 52:0 53:0 54:0 55:0 56:1 57:0 58:1 59:0 60:0 61:0 62:0 63:0 64:1 65:0 66:1 67:0 68:0 69:0 70:0 71:0 72:1 73:0 74:1 75:0 76:0 77:0 78:0 79:0 80:1 81:1 82:1 83:0 84:0 85:0 86:0 87:1 88:1 89:1 90:0 91:0 92:0 93:0 94:0 95:1 96:0 97:1 98:1 99:0 100:0 101:0 102:1 103:1 104:0 105:0 106:1 107:0 108:1 109:1 110:1 111:0 112:0 113:0 114:1 115:1 116:1 117:0 118:0 119:0 120:0 121:0 122:0 123:0 124:0 125:0 126:0 127:0 128:0 
0.03275943857280332 0.008889467796021228 0.03042236778365932 0.003032463368804335 0 0.006279979535261335 0 0 0.04613414093482299 0 0 0 0 0 0 0 0.02068138912367069 0.03531708278796928 0.002617015532183174 0.0008131662080527607 0 0.002448907536938407 0.004731629023559623 0 0.008214835230141234 1:0 2:0 3:0 4:0 5:0 6:0 7:0 8:0 9:0 10:0 11:0 12:0 13:0 14:0 15:0 16:0 17:0 18:0 19:0 20:0 21:0 22:0 23:0 24:0 25:0 26:0 27:0 28:0 29:0 30:0 31:0 32:0 33:0 34:0 35:0 36:0 37:0 38:0 39:0 40:0 41:1 42:1 43:1 44:1 45:1 46:1 47:0 48:0 49:1 50:0 51:0 52:1 53:0 54:1 55:1 56:1 57:1 58:0 59:0 60:0 61:0 62:0 63:0 64:1 65:1 66:0 67:0 68:0 69:0 70:0 71:0 72:1 73:1 74:1 75:0 76:0 77:0 78:0 79:0 80:1 81:0 82:1 83:1 84:1 85:1 86:1 87:1 88:1 89:0 90:0 91:0 92:0 93:0 94:0 95:0 96:0 97:0 98:0 99:0 100:0 101:0 102:0 103:0 104:0 105:0 106:0 107:0 108:0 109:0 110:0 111:0 112:0 113:0 114:0 115:0 116:0 117:0 118:0 119:0 120:0 121:0 122:0 123:0 124:0 125:0 126:0 127:0 128:0 
0 0 0.01165524765178632 0 0 0 0 0 0 0 0 0 0 0 0 0 0 0 0 0 0 0 0 0 0 1:0 2:0 3:0 4:0 5:0 6:0 7:0 8:0 9:0 10:0 11:0 12:0 13:0 14:0 15:0 16:0 17:0 18:0 19:0 20:0 21:0 22:0 23:0 24:0 25:0 26:1 27:1 28:1 29:1 30:0 31:0 32:0 33:1 34:1 35:1 36:0 37:1 38:1 39:1 40:0 41:1 42:0 43:0 44:0 45:0 46:0 47:1 48:1 49:1 50:0 51:0 52:0 53:0 54:0 55:0 56:1 57:1 58:0 59:0 60:0 61:0 62:0 63:0 64:1 65:1 66:0 67:0 68:0 69:0 70:0 71:0 72:1 73:1 74:0 75:0 76:0 77:0 78:0 79:0 80:1 81:1 82:1 83:0 84:0 85:0 86:0 87:0 88:1 89:0 90:1 91:0 92:0 93:0 94:0 95:0 96:1 97:0 98:1 99:1 100:1 101:1 102:1 103:1 104:1 105:0 106:0 107:0 108:0 109:0 110:0 111:0 112:0 113:0 114:0 115:0 116:0 117:0 118:0 119:0 120:0 121:0 122:0 123:0 124:0 125:0 126:0 127:0 128:0 
0 0.006378208958701906 0.007608749966719388 0 0 0 0 0 0.02417098983373987 0.009266473651674809 0 0 0 0 0 0 0 0 0 0 0 0 0 0 0 1:0 2:0 3:0 4:0 5:0 6:0 7:0 8:0 9:0 10:0 11:0 12:0 13:0 14:0 15:0 16:0 17:0 18:0 19:0 20:0 21:0 22:0 23:0 24:0 25:0 26:0 27:0 28:1 29:1 30:1 31:1 32:1 33:0 34:0 35:1 36:1 37:0 38:0 39:0 40:1 41:0 42:0 43:1 44:1 45:0 46:0 47:0 48:1 49:0 50:1 51:1 52:0 53:0 54:0 55:0 56:1 57:0 58:1 59:0 60:0 61:0 62:0 63:0 64:1 65:1 66:1 67:0 68:0 69:0 70:0 71:1 72:1 73:1 74:0 75:0 76:0 77:0 78:0 79:1 80:0 81:1 82:0 83:0 84:0 85:0 86:1 87:1 88:0 89:1 90:0 91:0 92:0 93:1 94:1 95:0 96:0 97:1 98:1 99:1 100:1 101:1 102:0 103:0 104:0 105:0 106:0 107:0 108:0 109:0 110:0 111:0 112:0 113:0 114:0 115:0 116:0 117:0 118:0 119:0 120:0 121:0 122:0 123:0 124:0 125:0 126:0 127:0 128:0 
0 0 0 0 0 0 0 0 0 0 0 0 0 0 0 0.004727483350161371 0 0 0 0 0 0 0 0 0 1:0 2:0 3:0 4:0 5:0 6:0 7:0 8:0 9:0 10:0 11:0 12:1 13:1 14:1 15:1 16:0 17:0 18:0 19:1 20:1 21:0 22:0 23:1 24:1 25:0 26:1 27:1 28:0 29:0 30:0 31:0 32:1 33:1 34:1 35:0 36:0 37:0 38:0 39:0 40:1 41:1 42:0 43:0 44:0 45:0 46:0 47:0 48:1 49:1 50:0 51:0 52:0 53:0 54:0 55:0 56:1 57:1 58:0 59:0 60:0 61:0 62:0 63:0 64:1 65:1 66:0 67:0 68:0 69:0 70:0 71:0 72:1 73:1 74:0 75:0 76:0 77:0 78:0 79:1 80:1 81:1 82:0 83:0 84:0 85:0 86:0 87:1 88:0 89:1 90:0 91:0 92:0 93:0 94:1 95:1 96:0 97:1 98:0 99:0 100:0 101:1 102:1 103:0 104:0 105:1 106:0 107:0 108:1 109:1 110:0 111:0 112:0 113:0 114:1 115:1 116:1 117:0 118:0 119:0 120:0 121:0 122:0 123:0 124:0 125:0 126:0 127:0 128:0 
0 3.087940646898398e-05 0 0.005742768742716636 0 0 0 0 0 0 0 0 0 0 0 0 0.002812598873564099 0 0 0 0 0 0 0.001144463341539422 0.0005884069925068667 1:0 2:0 3:1 4:0 5:0 6:0 7:0 8:0 9:0 10:1 11:1 12:1 13:1 14:0 15:0 16:0 17:0 18:1 19:1 20:0 21:1 22:1 23:1 24:0 25:1 26:1 27:0 28:0 29:0 30:0 31:1 32:1 33:1 34:0 35:0 36:0 37:0 38:0 39:0 40:1 41:1 42:0 43:0 44:0 45:0 46:0 47:0 48:1 49:1 50:0 51:0 52:0 53:0 54:0 55:0 56:1 57:1 58:0 59:0 60:0 61:0 62:0 63:0 64:1 65:1 66:0 67:0 68:0 69:0 70:0 71:0 72:1 73:1 74:0 75:0 76:0 77:0 78:0 79:0 80:1 81:1 82:0 83:0 84:0 85:0 86:0 87:1 88:1 89:1 90:0 91:0 92:0 93:0 94:0 95:1 96:0 97:1 98:0 99:0 100:0 101:0 102:1 103:1 104:0 105:1 106:0 107:0 108:0 109:0 110:1 111:0 112:0 113:1 114:1 115:1 116:1 117:1 118:1 119:0 120:0 121:0 122:0 123:0 124:1 125:0 126:0 127:0 128:0 
0 0 0 0 0 0 0 0 0 0 0 0 0 0 0 0 0.005241627551842192 0 0 0 0 0 0 0 0 1:0 2:0 3:0 4:0 5:0 6:0 7:0 8:0 9:0 10:0 11:0 12:0 13:0 14:0 15:1 16:0 17:0 18:0 19:0 20:0 21:0 22:0 23:1 24:0 25:0 26:0 27:0 28:0 29:0 30:0 31:1 32:0 33:0 34:0 35:1 36:1 37:1 38:0 39:1 40:1 41:1 42:1 43:1 44:0 45:0 46:0 47:0 48:1 49:1 50:0 51:0 52:0 53:0 54:0 55:0 56:1 57:1 58:0 59:0 60:0 61:0 62:0 63:0 64:1 65:1 66:0 67:0 68:0 69:0 70:0 71:0 72:1 73:1 74:0 75:0 76:0 77:0 78:0 79:0 80:1 81:1 82:0 83:0 84:0 85:0 86:0 87:0 88:1 89:1 90:0 91:0 92:0 93:0 94:0 95:1 96:1 97:1 98:0 99:0 100:0 101:1 102:1 103:1 104:0 105:1 106:1 107:0 108:0 109:1 110:0 111:0 112:0 113:0 114:1 115:1 116:1 117:1 118:0 119:0 120:0 121:0 122:0 123:0 124:0 125:0 126:0 127:0 128:0 
0 0 0 0 0 0 0 0.007587382791125207 0 0 0 0 0 0.002870583160198238 0 0 0 0 0 0 0 0 0 0 0 1:0 2:0 3:0 4:0 5:0 6:0 7:0 8:0 9:0 10:0 11:0 12:0 13:0 14:0 15:0 16:0 17:0 18:0 19:0 20:0 21:0 22:0 23:0 24:0 25:0 26:0 27:0 28:0 29:0 30:0 31:0 32:0 33:0 34:0 35:0 36:0 37:0 38:0 39:0 40:0 41:0 42:0 43:1 44:1 45:1 46:1 47:1 48:0 49:1 50:1 51:0 52:1 53:0 54:0 55:1 56:1 57:1 58:0 59:0 60:0 61:0 62:0 63:0 64:1 65:1 66:0 67:0 68:0 69:0 70:0 71:0 72:1 73:1 74:0 75:0 76:0 77:0 78:0 79:1 80:1 81:1 82:1 83:1 84:1 85:1 86:1 87:1 88:0 89:0 90:0 91:0 92:0 93:0 94:0 95:0 96:0 97:0 98:0 99:0 100:0 101:0 102:0 103:0 104:0 105:0 106:0 107:0 108:0 109:0 110:0 111:0 112:0 113:0 114:0 115:0 116:0 117:0 118:0 119:0 120:0 121:0 122:0 123:0 124:0 125:0 126:0 127:0 128:0 
0.00150467794987467 0.01159776943474613 0.01284086682773459 0 0 0.009641889446378326 0.007247318513659064 0 0.002212095681532294 0.0024834068743574 0.005542807751133413 0.005147357534751401 0 0 0.004257095129715454 0 0 0 0.0002531078413811861 0.003451628953296935 0 0.00177779225266333 0 0 0.003860986045566653 1:0 2:0 3:0 4:0 5:0 6:0 7:0 8:0 9:1 10:1 11:0 12:0 13:0 14:0 15:0 16:0 17:1 18:1 19:1 20:0 21:0 22:0 23:0 24:0 25:1 26:1 27:1 28:1 29:0 30:0 31:0 32:0 33:0 34:1 35:0 36:1 37:1 38:0 39:0 40:0 41:1 42:1 43:0 44:0 45:1 46:1 47:0 48:0 49:1 50:0 51:0 52:0 53:0 54:1 55:1 56:0 57:1 58:0 59:0 60:0 61:0 62:0 63:1 64:0 65:1 66:0 67:0 68:0 69:0 70:0 71:1 72:1 73:1 74:0 75:0 76:0 77:0 78:0 79:0 80:1 81:1 82:0 83:0 84:0 85:0 86:0 87:0 88:1 89:1 90:0 91:0 92:0 93:0 94:0 95:0 96:1 97:1 98:0 99:0 100:0 101:0 102:0 103:0 104:1 105:1 106:1 107:1 108:0 109:1 110:1 111:1 112:1 113:0 114:0 115:1 116:1 117:1 118:0 119:0 120:0 121:0 122:0 123:0 124:0 125:0 126:0 127:0 128:0 
0 0 0.02860491716907898 0 0 0 0 0 0 0 0 0 0 0 0 0 0 0 0 0 0 0 0 0 0 1:0 2:0 3:0 4:0 5:0 6:0 7:0 8:0 9:0 10:0 11:0 12:0 13:0 14:0 15:0 16:0 17:0 18:0 19:0 20:0 21:0 22:0 23:0 24:0 25:0 26:0 27:0 28:0 29:0 30:0 31:0 32:0 33:0 34:0 35:0 36:1 37:1 38:1 39:0 40:0 41:0 42:1 43:1 44:1 45:0 46:1 47:1 48:1 49:1 50:1 51:0 52:0 53:0 54:0 55:0 56:1 57:1 58:0 59:0 60:0 61:0 62:0 63:0 64:1 65:1 66:0 67:0 68:0 69:0 70:0 71:0 72:1 73:1 74:0 75:0 76:0 77:0 78:0 79:0 80:1 81:1 82:1 83:0 84:0 85:0 86:0 87:0 88:1 89:0 90:1 91:1 92:1 93:1 94:1 95:1 96:0 97:0 98:0 99:0 100:0 101:0 102:0 103:0 104:0 105:0 106:0 107:0 108:0 109:0 110:0 111:0 112:0 113:0 114:0 115:0 116:0 117:0 118:0 119:0 120:0 121:0 122:0 123:0 124:0 125:0 126:0 127:0 128:0 
0 0.01932571959314969 0 0 0 0.01018603206393412 0 0 0 0 0.005841659957326971 0 0 0 0.005724255926770888 0 0 0 0 0 0 0.01339166171610721 0 0 0 1:0 2:0 3:0 4:0 5:0 6:0 7:0 8:0 9:0 10:0 11:0 12:0 13:0 14:0 15:0 16:0 17:0 18:0 19:0 20:0 21:0 22:0 23:0 24:0 25:0 26:0 27:0 28:0 29:0 30:0 31:0 32:0 33:0 34:0 35:1 36:1 37:1 38:1 39:1 40:1 41:0 42:1 43:1 44:0 45:0 46:0 47:0 48:1 49:0 50:1 51:0 52:0 53:0 54:0 55:0 56:1 57:0 58:1 59:0 60:0 61:0 62:0 63:0 64:1 65:1 66:0 67:0 68:0 69:0 70:0 71:0 72:1 73:1 74:0 75:0 76:0 77:0 78:0 79:1 80:1 81:1 82:0 83:0 84:0 85:0 86:1 87:1 88:0 89:1 90:1 91:1 92:1 93:1 94:1 95:0 96:0 97:0 98:0 99:0 100:0 101:0 102:0 103:0 104:0 105:0 106:0 107:0 108:0 109:0 110:0 111:0 112:0 113:0 114:0 115:0 116:0 117:0 118:0 119:0 120:0 121:0 122:0 123:0 124:0 125:0 126:0 127:0 128:0 
0 0.01873474567504272 0.006132360471456577 0.004151042126709331 0 0.0021510633372398 0 0.0008663410811708232 0.003861361557577599 0.01153937630667833 0.001743133292112452 0.0004170065851733047 0.001875451310980699 0 0.003145583095169921 0.003670697502823045 0.007470013492133977 0 0.0031831050428957 0 0 0.0003037674844932373 0 0 0 1:0 2:0 3:0 4:0 5:0 6:0 7:0 8:0 9:0 10:0 11:1 12:1 13:1 14:1 15:1 16:1 17:0 18:0 19:1 20:0 21:0 22:0 23:1 24:1 25:0 26:1 27:1 28:0 29:0 30:0 31:1 32:1 33:0 34:1 35:0 36:0 37:0 38:0 39:0 40:1 41:0 42:1 43:0 44:0 45:0 46:0 47:0 48:1 49:1 50:1 51:0 52:0 53:0 54:0 55:0 56:1 57:1 58:0 59:0 60:0 61:0 62:0 63:1 64:1 65:1 66:0 67:0 68:0 69:0 70:0 71:1 72:0 73:1 74:0 75:0 76:0 77:0 78:0 79:1 80:0 81:1 82:0 83:0 84:0 85:0 86:0 87:1 88:0 89:1 90:0 91:0 92:0 93:0 94:1 95:1 96:0 97:1 98:0 99:0 100:0 101:0 102:1 103:0 104:0 105:1 106:0 107:0 108:1 109:1 110:1 111:0 112:0 113:1 114:1 115:1 116:1 117:0 118:0 119:0 120:0 121:0 122:0 123:0 124:0 125:0 126:0 127:0 128:0 
